{"learner":{"attributes":{"scikit_learn":"{\"_estimator_type\": \"regressor\"}"},"feature_names":["daily_expense","daily_income","txn_count","daily_net","dow","is_weekend","day","month","expense_7d_sum","expense_7d_mean","expense_30d_sum","expense_30d_mean"],"feature_types":["float","int","int","float","int","int","int","int","float","float","float","float"],"gradient_booster":{"model":{"cats":{"enc":[],"feature_segments":[],"sorted_idx":[]},"gbtree_model_param":{"num_parallel_tree":"1","num_trees":"300"},"iteration_indptr":[0,1,2,3,4,5,6,7,8,9,10,11,12,13,14,15,16,17,18,19,20,21,22,23,24,25,26,27,28,29,30,31,32,33,34,35,36,37,38,39,40,41,42,43,44,45,46,47,48,49,50,51,52,53,54,55,56,57,58,59,60,61,62,63,64,65,66,67,68,69,70,71,72,73,74,75,76,77,78,79,80,81,82,83,84,85,86,87,88,89,90,91,92,93,94,95,96,97,98,99,100,101,102,103,104,105,106,107,108,109,110,111,112,113,114,115,116,117,118,119,120,121,122,123,124,125,126,127,128,129,130,131,132,133,134,135,136,137,138,139,140,141,142,143,144,145,146,147,148,149,150,151,152,153,154,155,156,157,158,159,160,161,162,163,164,165,166,167,168,169,170,171,172,173,174,175,176,177,178,179,180,181,182,183,184,185,186,187,188,189,190,191,192,193,194,195,196,197,198,199,200,201,202,203,204,205,206,207,208,209,210,211,212,213,214,215,216,217,218,219,220,221,222,223,224,225,226,227,228,229,230,231,232,233,234,235,236,237,238,239,240,241,242,243,244,245,246,247,248,249,250,251,252,253,254,255,256,257,258,259,260,261,262,263,264,265,266,267,268,269,270,271,272,273,274,275,276,277,278,279,280,281,282,283,284,285,286,287,288,289,290,291,292,293,294,295,296,297,298,299,300],"tree_info":[0,0,0,0,0,0,0,0,0,0,0,0,0,0,0,0,0,0,0,0,0,0,0,0,0,0,0,0,0,0,0,0,0,0,0,0,0,0,0,0,0,0,0,0,0,0,0,0,0,0,0,0,0,0,0,0,0,0,0,0,0,0,0,0,0,0,0,0,0,0,0,0,0,0,0,0,0,0,0,0,0,0,0,0,0,0,0,0,0,0,0,0,0,0,0,0,0,0,0,0,0,0,0,0,0,0,0,0,0,0,0,0,0,0,0,0,0,0,0,0,0,0,0,0,0,0,0,0,0,0,0,0,0,0,0,0,0,0,0,0,0,0,0,0,0,0,0,0,0,0,0,0,0,0,0,0,0,0,0,0,0,0,0,0,0,0,0,0,0,0,0,0,0,0,0,0,0,0,0,0,0,0,0,0,0,0,0,0,0,0,0,0,0,0,0,0,0,0,0,0,0,0,0,0,0,0,0,0,0,0,0,0,0,0,0,0,0,0,0,0,0,0,0,0,0,0,0,0,0,0,0,0,0,0,0,0,0,0,0,0,0,0,0,0,0,0,0,0,0,0,0,0,0,0,0,0,0,0,0,0,0,0,0,0,0,0,0,0,0,0,0,0,0,0,0,0,0,0,0,0,0,0,0,0,0,0,0,0,0,0,0,0,0,0,0,0,0,0,0,0],"trees":[{"base_weights":[6.964196E1,-4.9578965E4,3.2394784E5,-8.329166E4,3.973966E4,2.5946117E5,6.958621E5,-1.0033587E5,-5.2331785E4,9.326444E3,8.9634086E4,2.0144756E5,3.7006756E5,6.192241E5,1.00639975E6,-1.08678414E5,-8.8040125E4,-6.404244E4,-3.7229543E4,-6.0931123E3,2.8381178E4,6.980006E4,1.15514445E5,1.7033823E5,2.4421923E5,3.302932E5,4.2870212E5,5.708206E5,7.604533E5,5.1841027E4,4.6443906E4,-1.1208023E5,-1.0288683E5,-9.323589E4,-8.233672E4,-7.04307E4,-5.7643594E4,-4.3490957E4,-2.9325764E4,-1.3984949E4,2.6604583E3,1.9578229E4,3.8273047E4,5.9370004E4,8.181584E4,1.0407287E5,1.2678789E5,1.5502442E5,1.8837962E5,2.2422044E5,2.641224E5,3.0646638E5,3.5335312E5,2.0300037E4,2.258642E4,5.3619525E5,3.1885082E4,3.560641E4,3.9258004E4,-5.6808896E3,-5.480175E3,-5.2521245E3,-5.0270034E3,-4.7920835E3,-4.530841E3,-4.2587617E3,-3.9733728E3,-3.6722683E3,-3.3713755E3,-3.0573582E3,-2.713928E3,-2.3576187E3,-1.9972688E3,-1.624793E3,-1.2711504E3,-8.8164935E2,-4.8215268E2,-6.553762E1,3.6330765E2,7.8832385E2,1.2497694E3,1.6940533E3,2.2298123E3,2.6989639E3,3.3043298E3,3.7623613E3,4.36444E3,4.865396E3,5.5279443E3,5.5143237E3,6.4642295E3,7.3085757E3,8.178825E3,9.97703E3,9.089445E3,1.0714647E4,1.1702098E4,1.2721808E4,1.370118E4,1.459371E4,1.5688122E4,1.7193072E4,1.8602455E4,2.5307906E4,2.827649E4],"categories":[],"categories_nodes":[],"categories_segments":[],"categories_sizes":[],"default_left":[0,0,0,0,0,0,0,0,0,0,0,0,0,0,0,0,0,0,0,0,0,0,0,0,0,0,0,0,0,0,0,0,0,0,0,0,0,0,0,0,0,0,0,0,0,0,0,0,0,0,0,0,0,0,0,0,0,0,0,0,0,0,0,0,0,0,0,0,0,0,0,0,0,0,0,0,0,0,0,0,0,0,0,0,0,0,0,0,0,0,0,0,0,0,0,0,0,0,0,0,0,0,0,0,0],"id":0,"left_children":[1,3,5,7,9,11,13,15,17,19,21,23,25,27,29,31,33,35,37,39,41,43,45,47,49,51,53,55,57,-1,-1,59,61,63,65,67,69,71,73,75,77,79,81,83,85,87,89,91,93,95,97,99,101,-1,-1,103,-1,-1,-1,-1,-1,-1,-1,-1,-1,-1,-1,-1,-1,-1,-1,-1,-1,-1,-1,-1,-1,-1,-1,-1,-1,-1,-1,-1,-1,-1,-1,-1,-1,-1,-1,-1,-1,-1,-1,-1,-1,-1,-1,-1,-1,-1,-1,-1,-1],"loss_changes":[2.6252053E15,4.2625866E14,5.2026147E14,5.4224566E13,5.886104E13,1.186019E14,7.5676384E13,6.7892024E12,6.4513177E12,7.0814207E12,7.5324834E12,1.6103879E13,1.4695633E13,1.716175E13,5.2969026E11,7.663497E11,7.864152E11,8.36059E11,7.8757704E11,9.203442E11,9.379481E11,1.03772534E12,8.0870375E11,1.9125187E12,1.9735375E12,1.9768258E12,1.1589365E12,4.1066598E12,2.2172769E11,0E0,0E0,8.224191E10,6.3417876E10,8.69647E10,9.7349796E10,8.811394E10,1.1779493E11,1.13550295E11,8.638484E10,1.108008E11,1.1554859E11,1.1742832E11,1.3942915E11,1.5780859E11,1.32305125E11,1.2824714E11,1.17784445E11,2.6431665E11,2.00731E11,1.9886873E11,1.7522124E11,1.0792783E11,2.1313775E11,0E0,0E0,8.345323E11,0E0,0E0,0E0,0E0,0E0,0E0,0E0,0E0,0E0,0E0,0E0,0E0,0E0,0E0,0E0,0E0,0E0,0E0,0E0,0E0,0E0,0E0,0E0,0E0,0E0,0E0,0E0,0E0,0E0,0E0,0E0,0E0,0E0,0E0,0E0,0E0,0E0,0E0,0E0,0E0,0E0,0E0,0E0,0E0,0E0,0E0,0E0,0E0,0E0],"parents":[2147483647,0,0,1,1,2,2,3,3,4,4,5,5,6,6,7,7,8,8,9,9,10,10,11,11,12,12,13,13,14,14,15,15,16,16,17,17,18,18,19,19,20,20,21,21,22,22,23,23,24,24,25,25,26,26,27,27,28,28,31,31,32,32,33,33,34,34,35,35,36,36,37,37,38,38,39,39,40,40,41,41,42,42,43,43,44,44,45,45,46,46,47,47,48,48,49,49,50,50,51,51,52,52,55,55],"right_children":[2,4,6,8,10,12,14,16,18,20,22,24,26,28,30,32,34,36,38,40,42,44,46,48,50,52,54,56,58,-1,-1,60,62,64,66,68,70,72,74,76,78,80,82,84,86,88,90,92,94,96,98,100,102,-1,-1,104,-1,-1,-1,-1,-1,-1,-1,-1,-1,-1,-1,-1,-1,-1,-1,-1,-1,-1,-1,-1,-1,-1,-1,-1,-1,-1,-1,-1,-1,-1,-1,-1,-1,-1,-1,-1,-1,-1,-1,-1,-1,-1,-1,-1,-1,-1,-1,-1,-1],"split_conditions":[2.5227025E5,9.232613E4,5.9688544E5,3.809196E4,1.6246306E5,3.9989828E5,9.7243194E5,1.617547E4,6.382941E4,1.2523226E5,2.0727888E5,3.212651E5,4.9772334E5,7.919305E5,-1.4326E5,7.24281E3,2.657794E4,5.01435E4,7.820866E4,1.0828041E5,1.432081E5,1.8462284E5,2.2924934E5,2.8597616E5,3.5783156E5,4.4061188E5,5.41026E5,7.1426044E5,1.1708615E5,5.1841027E4,4.6443906E4,2.943E3,1.181455E4,2.123179E4,3.217006E4,4.400905E4,5.659065E4,7.062115E4,8.546969E4,1.0081656E5,1.680612E4,1.952296E4,2.212701E4,2.502535E4,2.746679E4,3.094228E4,2.971201E4,2.6817166E5,-4.422692E4,3.3822688E5,3.770568E5,4.1348366E5,4.753177E5,2.0300037E4,2.258642E4,6.5028606E5,3.1885082E4,3.560641E4,3.9258004E4,-5.6808896E3,-5.480175E3,-5.2521245E3,-5.0270034E3,-4.7920835E3,-4.530841E3,-4.2587617E3,-3.9733728E3,-3.6722683E3,-3.3713755E3,-3.0573582E3,-2.713928E3,-2.3576187E3,-1.9972688E3,-1.624793E3,-1.2711504E3,-8.8164935E2,-4.8215268E2,-6.553762E1,3.6330765E2,7.8832385E2,1.2497694E3,1.6940533E3,2.2298123E3,2.6989639E3,3.3043298E3,3.7623613E3,4.36444E3,4.865396E3,5.5279443E3,5.5143237E3,6.4642295E3,7.3085757E3,8.178825E3,9.97703E3,9.089445E3,1.0714647E4,1.1702098E4,1.2721808E4,1.370118E4,1.459371E4,1.5688122E4,1.7193072E4,1.8602455E4,2.5307906E4,2.827649E4],"split_indices":[8,8,8,8,8,8,8,8,8,8,8,8,8,8,3,8,8,8,8,8,8,8,8,8,8,8,8,8,0,0,0,8,8,8,8,8,8,8,8,8,0,0,0,0,0,0,0,8,3,8,8,8,8,0,0,8,0,0,0,0,0,0,0,0,0,0,0,0,0,0,0,0,0,0,0,0,0,0,0,0,0,0,0,0,0,0,0,0,0,0,0,0,0,0,0,0,0,0,0,0,0,0,0,0,0],"split_type":[0,0,0,0,0,0,0,0,0,0,0,0,0,0,0,0,0,0,0,0,0,0,0,0,0,0,0,0,0,0,0,0,0,0,0,0,0,0,0,0,0,0,0,0,0,0,0,0,0,0,0,0,0,0,0,0,0,0,0,0,0,0,0,0,0,0,0,0,0,0,0,0,0,0,0,0,0,0,0,0,0,0,0,0,0,0,0,0,0,0,0,0,0,0,0,0,0,0,0,0,0,0,0,0,0],"sum_hessian":[1.63256E5,1.41557E5,2.1699E4,1.02768E5,3.8789E4,1.8494E4,3.205E3,6.6278E4,3.649E4,2.41E4,1.4689E4,1.2133E4,6.361E3,2.573E3,6.32E2,3.9482E4,2.6796E4,2.0551E4,1.5939E4,1.3321E4,1.0779E4,8.318E3,6.371E3,7.027E3,5.106E3,3.794E3,2.567E3,1.92E3,6.53E2,4.45E2,1.87E2,2.4861E4,1.4621E4,1.4014E4,1.2782E4,1.0279E4,1.0272E4,8.891E3,7.048E3,7.005E3,6.316E3,5.705E3,5.074E3,4.456E3,3.862E3,3.167E3,3.204E3,3.806E3,3.221E3,2.553E3,2.553E3,1.873E3,1.921E3,1.302E3,1.265E3,1.271E3,6.49E2,2.31E2,4.22E2,1.5311E4,9.55E3,7.598E3,7.023E3,7.007E3,7.007E3,6.411E3,6.371E3,5.118E3,5.161E3,5.024E3,5.248E3,4.368E3,4.523E3,3.885E3,3.163E3,3.805E3,3.2E3,3.392E3,2.924E3,3.351E3,2.354E3,2.998E3,2.076E3,2.477E3,1.979E3,1.762E3,2.1E3,1.558E3,1.609E3,4.27E2,2.777E3,1.879E3,1.927E3,1.185E3,2.036E3,1.281E3,1.272E3,1.304E3,1.249E3,6.38E2,1.235E3,1.287E3,6.34E2,6.37E2,6.34E2],"tree_param":{"num_deleted":"0","num_feature":"12","num_nodes":"105","size_leaf_vector":"1"}},{"base_weights":[-1.4091795E2,-4.8770496E4,2.9697403E5,-7.994875E4,3.2572828E4,2.3186627E5,6.212205E5,-9.5769555E4,-5.150639E4,5.2820493E3,7.795599E4,1.770804E5,3.2621228E5,5.1642962E5,8.357825E5,-1.03577125E5,-8.46408E4,-6.2384754E4,-3.7604355E4,-8.848267E3,2.2895977E4,5.9856188E4,1.0138206E5,1.5016628E5,2.1424248E5,2.9220416E5,3.8536506E5,4.6250334E5,5.710032E5,7.2144506E5,9.5375694E5,-1.06700984E5,-9.849895E4,-8.949934E4,-7.927102E4,-6.831952E4,-5.642875E4,-4.3838188E4,-3.0867836E4,-1.6074998E4,-7.9020746E2,1.4060088E4,3.0793723E4,5.065521E4,7.047204E4,9.0921766E4,1.1178452E5,1.3655752E5,1.6651366E5,1.9681456E5,2.31417E5,2.723772E5,3.1881594E5,3.63948E5,2.0310996E4,2.2098334E4,4.8175772E5,2.6912941E4,3.0225404E4,3.3843203E4,3.72152E4,9.1683094E5,5.132664E4,-5.400529E3,-5.2270415E3,-5.0342437E3,-4.823307E3,-4.596519E3,-4.3497534E3,-4.0970786E3,-3.8296348E3,-3.557507E3,-3.2750476E3,-2.979739E3,-2.6605183E3,-2.3378516E3,-2.0225022E3,-1.7137754E3,-1.370374E3,-9.921308E2,-6.114091E2,-2.4661577E2,1.5954881E2,5.6343304E2,9.700766E2,1.3266635E3,1.800709E3,2.2497034E3,2.80174E3,3.28858E3,3.874757E3,4.343943E3,5.0087817E3,5.2564463E3,5.9077305E3,6.5497446E3,7.3071343E3,8.803874E3,8.0250195E3,9.435886E3,1.0220231E4,1.1093058E4,1.2027247E4,1.3027084E4,1.4210167E4,1.5559695E4,1.6689797E4,1.2964524E4,1.8261816E4,1.7964678E4,2.4269451E4,3.1419572E4,4.6188715E4],"categories":[],"categories_nodes":[],"categories_segments":[],"categories_sizes":[],"default_left":[0,0,0,0,0,0,0,0,0,0,0,0,0,0,0,0,0,0,0,0,0,0,0,0,0,0,0,0,0,0,0,0,0,0,0,0,0,0,0,0,0,0,0,0,0,0,0,0,0,0,0,0,0,0,0,0,0,0,0,0,0,0,0,0,0,0,0,0,0,0,0,0,0,0,0,0,0,0,0,0,0,0,0,0,0,0,0,0,0,0,0,0,0,0,0,0,0,0,0,0,0,0,0,0,0,0,0,0,0,0,0,0,0],"id":1,"left_children":[1,3,5,7,9,11,13,15,17,19,21,23,25,27,29,31,33,35,37,39,41,43,45,47,49,51,53,55,57,59,61,63,65,67,69,71,73,75,77,79,81,83,85,87,89,91,93,95,97,99,101,103,105,107,-1,-1,109,-1,-1,-1,-1,111,-1,-1,-1,-1,-1,-1,-1,-1,-1,-1,-1,-1,-1,-1,-1,-1,-1,-1,-1,-1,-1,-1,-1,-1,-1,-1,-1,-1,-1,-1,-1,-1,-1,-1,-1,-1,-1,-1,-1,-1,-1,-1,-1,-1,-1,-1,-1,-1,-1,-1,-1],"loss_changes":[2.369783E15,3.574618E14,4.8686488E14,4.584455E13,4.837085E13,9.925092E13,8.6289785E13,5.67996E12,5.5056615E12,6.070638E12,6.2124185E12,1.2127075E13,1.4083735E13,7.3698954E12,1.6361879E13,5.99819E11,6.973282E11,7.183249E11,6.701806E11,7.881185E11,7.5720766E11,8.0479886E11,6.852528E11,1.5465405E12,1.4821496E12,2.279554E12,1.0013985E12,3.0509367E11,1.0843786E12,1.5451816E11,7.223598E11,5.605268E10,5.54487E10,7.824055E10,8.551347E10,7.69487E10,1.00789125E11,8.022026E10,8.97277E10,1.0316743E11,1.055549E11,7.6211356E10,1.26532714E11,1.32607115E11,1.2166627E11,1.1072124E11,1.2324962E11,1.8640326E11,1.5577645E11,1.1753279E11,1.7037263E11,2.866555E11,1.1408507E11,7.774562E10,0E0,0E0,1.2133283E11,0E0,0E0,0E0,0E0,2.6065083E11,0E0,0E0,0E0,0E0,0E0,0E0,0E0,0E0,0E0,0E0,0E0,0E0,0E0,0E0,0E0,0E0,0E0,0E0,0E0,0E0,0E0,0E0,0E0,0E0,0E0,0E0,0E0,0E0,0E0,0E0,0E0,0E0,0E0,0E0,0E0,0E0,0E0,0E0,0E0,0E0,0E0,0E0,0E0,0E0,0E0,0E0,0E0,0E0,0E0,0E0,0E0],"parents":[2147483647,0,0,1,1,2,2,3,3,4,4,5,5,6,6,7,7,8,8,9,9,10,10,11,11,12,12,13,13,14,14,15,15,16,16,17,17,18,18,19,19,20,20,21,21,22,22,23,23,24,24,25,25,26,26,27,27,28,28,29,29,30,30,31,31,32,32,33,33,34,34,35,35,36,36,37,37,38,38,39,39,40,40,41,41,42,42,43,43,44,44,45,45,46,46,47,47,48,48,49,49,50,50,51,51,52,52,53,53,56,56,61,61],"right_children":[2,4,6,8,10,12,14,16,18,20,22,24,26,28,30,32,34,36,38,40,42,44,46,48,50,52,54,56,58,60,62,64,66,68,70,72,74,76,78,80,82,84,86,88,90,92,94,96,98,100,102,104,106,108,-1,-1,110,-1,-1,-1,-1,112,-1,-1,-1,-1,-1,-1,-1,-1,-1,-1,-1,-1,-1,-1,-1,-1,-1,-1,-1,-1,-1,-1,-1,-1,-1,-1,-1,-1,-1,-1,-1,-1,-1,-1,-1,-1,-1,-1,-1,-1,-1,-1,-1,-1,-1,-1,-1,-1,-1,-1,-1],"split_conditions":[2.428942E5,8.941471E4,5.656938E5,3.682995E4,1.571201E5,3.770568E5,7.919305E5,1.537832E4,6.184813E4,1.2173565E5,1.9930969E5,3.0554934E5,4.753177E5,6.5028606E5,9.7243194E5,6.55699E3,2.559639E4,4.851943E4,7.491835E4,1.0516573E5,1.3699348E5,1.7807902E5,2.2020914E5,2.7389697E5,3.3822688E5,4.2736584E5,5.19916E5,5.9688544E5,7.1426044E5,1.1708615E5,1.1E1,2.7157E3,1.06275E4,2.025076E4,3.101512E4,4.249117E4,5.492495E4,6.848234E4,8.157223E4,1.384065E4,1.609109E4,1.922296E4,1.4762489E5,2.376355E4,2.746679E4,3.157628E4,3.286133E4,3.777857E4,-4.218089E4,4.53737E4,3.5783156E5,3.9989828E5,4.559201E5,2.3309E4,2.0310996E4,2.2098334E4,4.127675E4,2.6912941E4,3.0225404E4,3.3843203E4,3.72152E4,7.510975E4,5.132664E4,-5.400529E3,-5.2270415E3,-5.0342437E3,-4.823307E3,-4.596519E3,-4.3497534E3,-4.0970786E3,-3.8296348E3,-3.557507E3,-3.2750476E3,-2.979739E3,-2.6605183E3,-2.3378516E3,-2.0225022E3,-1.7137754E3,-1.370374E3,-9.921308E2,-6.114091E2,-2.4661577E2,1.5954881E2,5.6343304E2,9.700766E2,1.3266635E3,1.800709E3,2.2497034E3,2.80174E3,3.28858E3,3.874757E3,4.343943E3,5.0087817E3,5.2564463E3,5.9077305E3,6.5497446E3,7.3071343E3,8.803874E3,8.0250195E3,9.435886E3,1.0220231E4,1.1093058E4,1.2027247E4,1.3027084E4,1.4210167E4,1.5559695E4,1.6689797E4,1.2964524E4,1.8261816E4,1.7964678E4,2.4269451E4,3.1419572E4,4.6188715E4],"split_indices":[8,8,8,8,8,8,8,8,8,8,8,8,8,8,8,8,8,8,8,8,8,8,8,8,8,8,8,8,8,0,7,8,8,8,8,8,8,8,8,0,0,0,8,0,0,0,0,0,3,0,8,8,8,0,0,0,0,0,0,0,0,0,0,0,0,0,0,0,0,0,0,0,0,0,0,0,0,0,0,0,0,0,0,0,0,0,0,0,0,0,0,0,0,0,0,0,0,0,0,0,0,0,0,0,0,0,0,0,0,0,0,0,0],"split_type":[0,0,0,0,0,0,0,0,0,0,0,0,0,0,0,0,0,0,0,0,0,0,0,0,0,0,0,0,0,0,0,0,0,0,0,0,0,0,0,0,0,0,0,0,0,0,0,0,0,0,0,0,0,0,0,0,0,0,0,0,0,0,0,0,0,0,0,0,0,0,0,0,0,0,0,0,0,0,0,0,0,0,0,0,0,0,0,0,0,0,0,0,0,0,0,0,0,0,0,0,0,0,0,0,0,0,0,0,0,0,0,0,0],"sum_hessian":[1.64013E5,1.40945E5,2.3068E4,1.01891E5,3.9054E4,1.9212E4,3.856E3,6.5471E4,3.642E4,2.4389E4,1.4665E4,1.2156E4,7.056E3,2.593E3,1.263E3,3.8472E4,2.6999E4,2.043E4,1.599E4,1.3533E4,1.0856E4,8.275E3,6.39E3,7.053E3,5.103E3,4.484E3,2.572E3,1.309E3,1.284E3,6.45E2,6.18E2,2.3807E4,1.4665E4,1.4166E4,1.2833E4,1.0228E4,1.0202E4,8.302E3,7.688E3,7.134E3,6.399E3,5.125E3,5.731E3,4.436E3,3.839E3,3.191E3,3.199E3,3.854E3,3.199E3,2.539E3,2.564E3,2.576E3,1.908E3,1.278E3,1.294E3,6.45E2,6.64E2,6.58E2,6.26E2,2.29E2,4.16E2,4.19E2,1.99E2,1.4791E4,9.016E3,7.043E3,7.622E3,7.17E3,6.996E3,6.411E3,6.422E3,5.091E3,5.137E3,5.134E3,5.068E3,4.453E3,3.849E3,3.869E3,3.819E3,3.602E3,3.532E3,3.136E3,3.263E3,3.368E3,1.757E3,3.159E3,2.572E3,2.166E3,2.27E3,2.306E3,1.533E3,2.228E3,9.63E2,1.573E3,1.626E3,2.448E3,1.406E3,1.224E3,1.975E3,1.241E3,1.298E3,1.265E3,1.299E3,1.299E3,1.277E3,1.279E3,6.29E2,1.8E1,1.26E3,2.2E1,6.42E2,1.2E1,4.07E2],"tree_param":{"num_deleted":"0","num_feature":"12","num_nodes":"113","size_leaf_vector":"1"}},{"base_weights":[-2.2707308E1,-4.4678887E4,2.9225847E5,-7.490566E4,3.6802992E4,2.275108E5,5.9054025E5,-9.034843E4,-4.6352535E4,1.0150589E4,8.268489E4,1.7780375E5,3.1684972E5,4.9145344E5,7.977393E5,-9.793754E4,-7.899993E4,-5.7124473E4,-3.2631523E4,-4.0525652E3,2.7752055E4,6.4426773E4,1.04353086E5,1.5070205E5,2.115678E5,2.835841E5,3.6630653E5,4.3849872E5,5.435933E5,6.872914E5,9.0397406E5,-1.0115445E5,-9.2707664E4,-8.3536875E4,-7.352809E4,-6.2572945E4,-5.0967234E4,-3.839094E4,-2.5294197E4,-1.0645377E4,4.746548E3,1.9714387E4,3.6841582E4,5.648445E4,7.558659E4,9.391585E4,1.1449074E5,1.3688023E5,1.6430433E5,1.9419605E5,2.2899295E5,2.6413084E5,3.0293972E5,3.464803E5,3.8625028E5,2.0916646E4,4.572794E5,2.5602975E4,2.8689404E4,3.2196865E4,3.5449215E4,4.1663605E4,9.314068E5,-5.1198335E3,-4.9330366E3,-4.7324136E3,-4.519061E3,-4.2942617E3,-4.0463345E3,-3.7923523E3,-3.5449412E3,-3.2809922E3,-2.9920422E3,-2.684114E3,-2.3913984E3,-2.0866265E3,-1.7523754E3,-1.4282963E3,-1.0882191E3,-7.126577E2,-3.2583295E2,1.07645226E2,5.273972E2,1.2118511E3,7.913669E2,1.65032E3,2.1795955E3,2.5748403E3,3.136662E3,3.5803164E3,4.122475E3,3.7247712E3,4.79121E3,5.6040894E3,6.5642446E3,6.525895E3,7.191439E3,7.9010166E3,8.66603E3,7.483814E3,9.790552E3,1.0998316E4,1.1893739E4,1.0397053E4,1.3274819E4,1.4766913E4,1.5858177E4,1.6774248E4,1.7867291E4,1.8732422E4,1.9844678E4,1.6193778E4,2.298236E4,4.4848707E4,5.0163785E4],"categories":[],"categories_nodes":[],"categories_segments":[],"categories_sizes":[],"default_left":[0,0,0,0,0,0,0,0,0,0,0,0,0,0,0,0,0,0,0,0,0,0,0,0,0,0,0,0,0,0,0,0,0,0,0,0,0,0,0,0,0,0,0,0,0,0,0,0,0,0,0,0,0,0,0,0,0,0,0,0,0,0,0,0,0,0,0,0,0,0,0,0,0,0,0,0,0,0,0,0,0,0,0,0,0,0,0,0,0,0,0,0,0,0,0,0,0,0,0,0,0,0,0,0,0,0,0,0,0,0,0,0,0,0,0],"id":2,"left_children":[1,3,5,7,9,11,13,15,17,19,21,23,25,27,29,31,33,35,37,39,41,43,45,47,49,51,53,55,57,59,61,63,65,67,69,71,73,75,77,79,81,83,85,87,89,91,93,95,97,99,101,103,105,107,109,-1,111,-1,-1,-1,-1,-1,113,-1,-1,-1,-1,-1,-1,-1,-1,-1,-1,-1,-1,-1,-1,-1,-1,-1,-1,-1,-1,-1,-1,-1,-1,-1,-1,-1,-1,-1,-1,-1,-1,-1,-1,-1,-1,-1,-1,-1,-1,-1,-1,-1,-1,-1,-1,-1,-1,-1,-1,-1,-1],"loss_changes":[2.13998E15,3.5029592E14,4.1953818E14,4.573979E13,4.706103E13,7.923819E13,7.91643E13,5.790824E12,5.3804867E12,6.0862733E12,5.587744E12,1.0468412E13,1.0395834E13,7.006635E12,1.4068904E13,6.693438E11,6.638073E11,6.81155E11,6.7593096E11,7.8168936E11,7.935665E11,6.761784E11,6.733032E11,1.174942E12,1.501477E12,1.358317E12,8.795959E11,3.0371794E11,9.610996E11,1.2468827E11,4.5553497E11,6.724308E10,6.086774E10,8.3433095E10,6.925635E10,8.612164E10,7.910038E10,9.877586E10,8.076132E10,1.14647106E11,8.6827155E10,1.0108666E11,1.3062006E11,1.3667664E11,8.120802E10,1.1112179E11,1.1777606E11,1.2114828E11,1.541994E11,1.5503825E11,1.5163248E11,9.1570045E10,1.1262545E11,3.48295E10,8.002732E9,0E0,6.1496885E10,0E0,0E0,0E0,0E0,0E0,2.1122515E11,0E0,0E0,0E0,0E0,0E0,0E0,0E0,0E0,0E0,0E0,0E0,0E0,0E0,0E0,0E0,0E0,0E0,0E0,0E0,0E0,0E0,0E0,0E0,0E0,0E0,0E0,0E0,0E0,0E0,0E0,0E0,0E0,0E0,0E0,0E0,0E0,0E0,0E0,0E0,0E0,0E0,0E0,0E0,0E0,0E0,0E0,0E0,0E0,0E0,0E0,0E0,0E0],"parents":[2147483647,0,0,1,1,2,2,3,3,4,4,5,5,6,6,7,7,8,8,9,9,10,10,11,11,12,12,13,13,14,14,15,15,16,16,17,17,18,18,19,19,20,20,21,21,22,22,23,23,24,24,25,25,26,26,27,27,28,28,29,29,30,30,31,31,32,32,33,33,34,34,35,35,36,36,37,37,38,38,39,39,40,40,41,41,42,42,43,43,44,44,45,45,46,46,47,47,48,48,49,49,50,50,51,51,52,52,53,53,54,54,56,56,62,62],"right_children":[2,4,6,8,10,12,14,16,18,20,22,24,26,28,30,32,34,36,38,40,42,44,46,48,50,52,54,56,58,60,62,64,66,68,70,72,74,76,78,80,82,84,86,88,90,92,94,96,98,100,102,104,106,108,110,-1,112,-1,-1,-1,-1,-1,114,-1,-1,-1,-1,-1,-1,-1,-1,-1,-1,-1,-1,-1,-1,-1,-1,-1,-1,-1,-1,-1,-1,-1,-1,-1,-1,-1,-1,-1,-1,-1,-1,-1,-1,-1,-1,-1,-1,-1,-1,-1,-1,-1,-1,-1,-1,-1,-1,-1,-1,-1,-1],"split_conditions":[2.5227025E5,9.367227E4,5.656938E5,3.878231E4,1.6544911E5,3.8823906E5,7.919305E5,1.66E4,6.465952E4,1.2695959E5,2.0727888E5,3.1311222E5,4.753177E5,6.5028606E5,9.7243194E5,7.24281E3,2.7628E4,5.16964E4,7.933158E4,1.1169572E5,1.4538934E5,1.880647E5,2.2924934E5,2.7975953E5,3.4844044E5,4.2736584E5,5.19916E5,5.9688544E5,7.1426044E5,1.1708615E5,1.4326E5,3.4352E3,1.219925E4,2.218776E4,3.331471E4,4.48129E4,5.835802E4,7.171742E4,1.229053E4,1.47125E4,1.809218E4,-1.952296E4,2.291599E4,2.548886E4,2.911298E4,2.502535E4,3.945519E4,3.777857E4,2.9808362E5,2.595516E4,3.6679862E5,3.355236E4,4.559201E5,4.9772334E5,5.41026E5,2.0916646E4,3.699912E4,2.5602975E4,2.8689404E4,3.2196865E4,3.5449215E4,4.1663605E4,1.1E1,-5.1198335E3,-4.9330366E3,-4.7324136E3,-4.519061E3,-4.2942617E3,-4.0463345E3,-3.7923523E3,-3.5449412E3,-3.2809922E3,-2.9920422E3,-2.684114E3,-2.3913984E3,-2.0866265E3,-1.7523754E3,-1.4282963E3,-1.0882191E3,-7.126577E2,-3.2583295E2,1.07645226E2,5.273972E2,1.2118511E3,7.913669E2,1.65032E3,2.1795955E3,2.5748403E3,3.136662E3,3.5803164E3,4.122475E3,3.7247712E3,4.79121E3,5.6040894E3,6.5642446E3,6.525895E3,7.191439E3,7.9010166E3,8.66603E3,7.483814E3,9.790552E3,1.0998316E4,1.1893739E4,1.0397053E4,1.3274819E4,1.4766913E4,1.5858177E4,1.6774248E4,1.7867291E4,1.8732422E4,1.9844678E4,1.6193778E4,2.298236E4,4.4848707E4,5.0163785E4],"split_indices":[8,8,8,8,8,8,8,8,8,8,8,8,8,8,8,8,8,8,8,8,8,8,8,8,8,8,8,8,8,0,0,8,8,8,8,8,8,8,0,0,0,3,0,0,0,0,0,0,8,0,8,0,8,8,8,0,0,0,0,0,0,0,7,0,0,0,0,0,0,0,0,0,0,0,0,0,0,0,0,0,0,0,0,0,0,0,0,0,0,0,0,0,0,0,0,0,0,0,0,0,0,0,0,0,0,0,0,0,0,0,0,0,0,0,0],"split_type":[0,0,0,0,0,0,0,0,0,0,0,0,0,0,0,0,0,0,0,0,0,0,0,0,0,0,0,0,0,0,0,0,0,0,0,0,0,0,0,0,0,0,0,0,0,0,0,0,0,0,0,0,0,0,0,0,0,0,0,0,0,0,0,0,0,0,0,0,0,0,0,0,0,0,0,0,0,0,0,0,0,0,0,0,0,0,0,0,0,0,0,0,0,0,0,0,0,0,0,0,0,0,0,0,0,0,0,0,0,0,0,0,0,0,0],"sum_hessian":[1.63954E5,1.42225E5,2.1729E4,1.03741E5,3.8484E4,1.7855E4,3.874E3,6.7326E4,3.6415E4,2.4344E4,1.414E4,1.1474E4,6.381E3,2.623E3,1.251E3,4.0341E4,2.6985E4,2.0398E4,1.6017E4,1.3473E4,1.0871E4,7.676E3,6.464E3,6.368E3,5.106E3,3.819E3,2.562E3,1.306E3,1.317E3,6.17E2,6.34E2,2.4966E4,1.5375E4,1.4745E4,1.224E4,1.0817E4,9.581E3,8.971E3,7.046E3,7.702E3,5.771E3,5.771E3,5.1E3,4.488E3,3.188E3,3.19E3,3.274E3,3.164E3,3.204E3,2.563E3,2.543E3,1.912E3,1.907E3,1.294E3,1.268E3,6.41E2,6.65E2,6.53E2,6.64E2,2.16E2,4.01E2,1.86E2,4.48E2,1.6638E4,8.328E3,8.361E3,7.014E3,7.745E3,7E3,6.489E3,5.751E3,5.103E3,5.714E3,5.129E3,4.452E3,4.481E3,4.49E3,3.653E3,3.393E3,4.109E3,3.593E3,3.989E3,1.782E3,2.665E3,3.106E3,3.256E3,1.844E3,2.501E3,1.987E3,2.025E3,1.163E3,2.89E2,2.901E3,2.87E3,4.04E2,1.662E3,1.502E3,1.899E3,1.305E3,9.3E1,2.47E3,1.274E3,1.269E3,4.9E1,1.863E3,1.257E3,6.5E2,6.59E2,6.35E2,6.24E2,6.44E2,1.4E1,6.51E2,3.12E2,1.36E2],"tree_param":{"num_deleted":"0","num_feature":"12","num_nodes":"115","size_leaf_vector":"1"}},{"base_weights":[1.0621676E2,-4.248574E4,2.779137E5,-7.150291E4,3.3917082E4,2.2246125E5,5.963733E5,-8.5847016E4,-4.446056E4,9.804737E3,7.999924E4,1.7284939E5,3.1717953E5,5.3004206E5,8.6304656E5,-9.290344E4,-7.482665E4,-5.4588055E4,-3.1927934E4,-3.848017E3,2.8179707E4,6.4075227E4,1.010435E5,1.458526E5,2.093662E5,2.833706E5,3.678679E5,4.889097E5,6.5080075E5,8.291058E5,4.624725E4,-9.59944E4,-8.771703E4,-7.892453E4,-6.958432E4,-6.0106504E4,-4.9437492E4,-3.7756766E4,-2.572532E4,-1.145354E4,4.505356E3,2.1237508E4,3.8154184E4,5.6317562E4,7.495782E4,9.326504E4,1.10832984E5,1.3254162E5,1.6187136E5,1.9259892E5,2.2617595E5,2.6320612E5,3.0286756E5,1.7394432E4,3.8755775E5,4.601714E5,2.7285766E4,3.3527453E4,3.0526078E4,4.2685023E4,3.8108918E4,-4.867652E3,-4.685532E3,-4.478339E3,-4.276525E3,-4.0600286E3,-3.8213142E3,-3.5788953E3,-3.35536E3,-3.1191248E3,-2.874211E3,-2.6218145E3,-2.3249463E3,-2.0243016E3,-1.7303011E3,-1.4517069E3,-1.1214337E3,-7.597643E2,-3.8333624E2,4.0533714E1,4.479251E2,8.397972E2,1.283417E3,2.236393E3,1.7532457E3,3.156057E3,2.6072402E3,4.709491E3,3.6661492E3,4.749472E3,3.531946E3,5.6081855E3,4.0846277E3,6.243785E3,7.0041245E3,7.619332E3,8.408039E3,9.793849E3,8.580718E3,1.0876689E4,1.1738816E4,1.2552328E4,1.3457669E4,1.4727838E4,1.5932939E4,1.8819914E4,1.9915732E4,2.1772049E4,2.42576E4],"categories":[],"categories_nodes":[],"categories_segments":[],"categories_sizes":[],"default_left":[0,0,0,0,0,0,0,0,0,0,0,0,0,0,0,0,0,0,0,0,0,0,0,0,0,0,0,0,0,0,0,0,0,0,0,0,0,0,0,0,0,0,0,0,0,0,0,0,0,0,0,0,0,0,0,0,0,0,0,0,0,0,0,0,0,0,0,0,0,0,0,0,0,0,0,0,0,0,0,0,0,0,0,0,0,0,0,0,0,0,0,0,0,0,0,0,0,0,0,0,0,0,0,0,0,0,0,0,0],"id":3,"left_children":[1,3,5,7,9,11,13,15,17,19,21,23,25,27,29,31,33,35,37,39,41,43,45,47,49,51,53,55,57,59,-1,61,63,65,67,69,71,73,75,77,79,81,83,85,87,89,91,93,95,97,99,101,103,-1,105,107,-1,-1,-1,-1,-1,-1,-1,-1,-1,-1,-1,-1,-1,-1,-1,-1,-1,-1,-1,-1,-1,-1,-1,-1,-1,-1,-1,-1,-1,-1,-1,-1,-1,-1,-1,-1,-1,-1,-1,-1,-1,-1,-1,-1,-1,-1,-1,-1,-1,-1,-1,-1,-1],"loss_changes":[1.93355E15,3.14126E14,3.8348166E14,3.9829044E13,4.3335146E13,8.68935E13,5.6518146E13,5.210802E12,4.5158645E12,6.423608E12,4.482981E12,1.1942459E13,1.079332E13,1.2506811E13,5.776731E11,6.4729855E11,5.572888E11,5.5651284E11,5.7423797E11,9.333969E11,7.5499726E11,6.398453E11,4.2895147E11,1.4681406E12,1.4107961E12,1.4217013E12,8.647648E11,2.8996062E12,1.1004176E11,4.5600473E10,0E0,7.034687E10,5.4156853E10,7.735974E10,5.1992592E10,5.309989E10,8.73317E10,6.911269E10,8.345983E10,1.088454E11,1.1519633E11,1.2626769E11,8.936961E10,1.232685E11,9.282414E10,1.18963044E11,8.968261E10,2.0339438E11,1.6323392E11,1.445525E11,1.4003103E11,6.874464E10,1.600882E11,0E0,2.6508E9,5.844343E11,0E0,0E0,0E0,0E0,0E0,0E0,0E0,0E0,0E0,0E0,0E0,0E0,0E0,0E0,0E0,0E0,0E0,0E0,0E0,0E0,0E0,0E0,0E0,0E0,0E0,0E0,0E0,0E0,0E0,0E0,0E0,0E0,0E0,0E0,0E0,0E0,0E0,0E0,0E0,0E0,0E0,0E0,0E0,0E0,0E0,0E0,0E0,0E0,0E0,0E0,0E0,0E0,0E0],"parents":[2147483647,0,0,1,1,2,2,3,3,4,4,5,5,6,6,7,7,8,8,9,9,10,10,11,11,12,12,13,13,14,14,15,15,16,16,17,17,18,18,19,19,20,20,21,21,22,22,23,23,24,24,25,25,26,26,27,27,28,28,29,29,31,31,32,32,33,33,34,34,35,35,36,36,37,37,38,38,39,39,40,40,41,41,42,42,43,43,44,44,45,45,46,46,47,47,48,48,49,49,50,50,51,51,52,52,54,54,55,55],"right_children":[2,4,6,8,10,12,14,16,18,20,22,24,26,28,30,32,34,36,38,40,42,44,46,48,50,52,54,56,58,60,-1,62,64,66,68,70,72,74,76,78,80,82,84,86,88,90,92,94,96,98,100,102,104,-1,106,108,-1,-1,-1,-1,-1,-1,-1,-1,-1,-1,-1,-1,-1,-1,-1,-1,-1,-1,-1,-1,-1,-1,-1,-1,-1,-1,-1,-1,-1,-1,-1,-1,-1,-1,-1,-1,-1,-1,-1,-1,-1,-1,-1,-1,-1,-1,-1,-1,-1,-1,-1,-1,-1],"split_conditions":[2.5227025E5,9.232613E4,5.9688544E5,3.878231E4,1.6858588E5,3.9989828E5,9.7243194E5,1.702475E4,6.382941E4,1.2873619E5,2.1142773E5,3.212651E5,4.9772334E5,7.919305E5,1.1E1,7.59094E3,2.816356E4,5.01435E4,7.703592E4,1.1005002E5,1.4977278E5,1.9171981E5,2.3415753E5,2.8597616E5,3.5783156E5,4.4061188E5,5.41026E5,7.1426044E5,-1.1708615E5,-1.4326E5,4.624725E4,3.1814E3,1.259824E4,2.265696E4,3.3895E4,4.48129E4,5.659065E4,7.062115E4,8.410164E4,1.0081656E5,1.200637E5,1.390714E5,-2.376355E4,-2.644353E4,-3.625573E4,-2.459184E4,-2.417266E4,2.6817166E5,2.9808362E5,-4.218089E4,3.770568E5,4.1348366E5,4.753177E5,1.7394432E4,5.656938E5,6.5028606E5,2.7285766E4,3.3527453E4,3.0526078E4,4.2685023E4,3.8108918E4,-4.867652E3,-4.685532E3,-4.478339E3,-4.276525E3,-4.0600286E3,-3.8213142E3,-3.5788953E3,-3.35536E3,-3.1191248E3,-2.874211E3,-2.6218145E3,-2.3249463E3,-2.0243016E3,-1.7303011E3,-1.4517069E3,-1.1214337E3,-7.597643E2,-3.8333624E2,4.0533714E1,4.479251E2,8.397972E2,1.283417E3,2.236393E3,1.7532457E3,3.156057E3,2.6072402E3,4.709491E3,3.6661492E3,4.749472E3,3.531946E3,5.6081855E3,4.0846277E3,6.243785E3,7.0041245E3,7.619332E3,8.408039E3,9.793849E3,8.580718E3,1.0876689E4,1.1738816E4,1.2552328E4,1.3457669E4,1.4727838E4,1.5932939E4,1.8819914E4,1.9915732E4,2.1772049E4,2.42576E4],"split_indices":[8,8,8,8,8,8,8,8,8,8,8,8,8,8,7,8,8,8,8,8,8,8,8,8,8,8,8,8,3,3,0,8,8,8,8,8,8,8,8,8,8,8,3,3,3,3,3,8,8,3,8,8,8,0,8,8,0,0,0,0,0,0,0,0,0,0,0,0,0,0,0,0,0,0,0,0,0,0,0,0,0,0,0,0,0,0,0,0,0,0,0,0,0,0,0,0,0,0,0,0,0,0,0,0,0,0,0,0,0],"split_type":[0,0,0,0,0,0,0,0,0,0,0,0,0,0,0,0,0,0,0,0,0,0,0,0,0,0,0,0,0,0,0,0,0,0,0,0,0,0,0,0,0,0,0,0,0,0,0,0,0,0,0,0,0,0,0,0,0,0,0,0,0,0,0,0,0,0,0,0,0,0,0,0,0,0,0,0,0,0,0,0,0,0,0,0,0,0,0,0,0,0,0,0,0,0,0,0,0,0,0,0,0,0,0,0,0,0,0,0,0],"sum_hessian":[1.6341E5,1.41688E5,2.1722E4,1.02688E5,3.9E4,1.8502E4,3.22E3,6.7096E4,3.5592E4,2.5604E4,1.3396E4,1.2144E4,6.358E3,2.581E3,6.39E2,4.09E4,2.6196E4,1.9683E4,1.5909E4,1.469E4,1.0914E4,7.628E3,5.768E3,6.985E3,5.159E3,3.818E3,2.54E3,1.929E3,6.52E2,4.22E2,2.17E2,2.5616E4,1.5284E4,1.4695E4,1.1501E4,9.497E3,1.0186E4,8.199E3,7.71E3,7.689E3,7.001E3,6.437E3,4.477E3,4.457E3,3.171E3,3.22E3,2.548E3,3.82E3,3.165E3,2.589E3,2.57E3,1.884E3,1.934E3,1.27E3,1.27E3,1.287E3,6.42E2,4.27E2,2.25E2,3E2,1.22E2,1.6035E4,9.581E3,8.258E3,7.026E3,7.673E3,7.022E3,6.357E3,5.144E3,5.072E3,4.425E3,5.033E3,5.153E3,4.387E3,3.812E3,3.844E3,3.866E3,3.866E3,3.823E3,3.827E3,3.174E3,3.217E3,3.22E3,1.427E3,3.05E3,1.689E3,2.768E3,2.44E2,2.927E3,2.989E3,2.31E2,2.434E3,1.14E2,1.903E3,1.917E3,1.272E3,1.893E3,2.232E3,3.57E2,1.295E3,1.275E3,6.33E2,1.251E3,1.28E3,6.54E2,6.41E2,6.29E2,6.56E2,6.31E2],"tree_param":{"num_deleted":"0","num_feature":"12","num_nodes":"109","size_leaf_vector":"1"}},{"base_weights":[4.227737E1,-4.179572E4,2.5483184E5,-6.881913E4,2.724254E4,1.9856861E5,5.375505E5,-8.230813E4,-4.4893047E4,4.7787505E3,6.807628E4,1.5515189E5,2.8553366E5,4.4390262E5,7.2009956E5,-8.894384E4,-7.29972E4,-5.4453324E4,-3.360372E4,-8.0470645E3,2.055412E4,5.241993E4,8.6959555E4,1.3136833E5,1.9109E5,2.5576925E5,3.300689E5,3.9594034E5,4.914017E5,6.2040775E5,8.20532E5,-9.170516E4,-8.490356E4,-7.731624E4,-6.864985E4,-5.9491324E4,-4.976161E4,-3.9210645E4,-2.798403E4,-1.4979009E4,-1.2360618E3,1.3731383E4,2.9058734E4,4.451675E4,6.0427617E4,7.8010734E4,9.585858E4,1.1716534E5,1.456997E5,1.7533933E5,2.0675977E5,2.3857897E5,2.7274662E5,3.1205478E5,1.7445156E4,1.8933807E4,4.122352E5,2.3116906E4,5.182818E5,3.1960021E4,2.9169422E4,7.939232E5,9.0963625E5,-4.642386E3,-4.5076504E3,-4.3472397E3,-4.1578853E3,-3.9710857E3,-3.7695774E3,-3.5458828E3,-3.3062585E3,-3.095933E3,-2.8680173E3,-2.6193992E3,-2.355422E3,-2.0785603E3,-1.8223248E3,-1.2207517E3,-1.542887E3,-5.62825E2,-9.0341046E2,1.4886456E2,-2.320493E2,4.8224545E2,8.9041956E2,1.71758E3,1.2661019E3,2.7486738E3,2.1185264E3,3.3711692E3,2.8396472E3,4.7388374E3,3.807884E3,5.76021E3,4.702417E3,6.2361567E3,5.5521187E3,6.892918E3,7.680019E3,9.127905E3,8.363601E3,1.0410288E4,8.216116E3,1.1999934E4,9.255093E3,1.3727358E4,1.108932E4,1.5684088E4,1.2064519E4,2.075998E4,1.4978921E4,2.6032941E4,1.8646912E4,4.0032047E4,2.6970584E4,4.1210453E4,4.911259E4],"categories":[],"categories_nodes":[],"categories_segments":[],"categories_sizes":[],"default_left":[0,0,0,0,0,0,0,0,0,0,0,0,0,0,0,0,0,0,0,0,0,0,0,0,0,0,0,0,0,0,0,0,0,0,0,0,0,0,0,0,0,0,0,0,0,0,0,0,0,0,0,0,0,0,0,0,0,0,0,0,0,0,0,0,0,0,0,0,0,0,0,0,0,0,0,0,0,0,0,0,0,0,0,0,0,0,0,0,0,0,0,0,0,0,0,0,0,0,0,0,0,0,0,0,0,0,0,0,0,0,0,0,0,0,0,0,0],"id":4,"left_children":[1,3,5,7,9,11,13,15,17,19,21,23,25,27,29,31,33,35,37,39,41,43,45,47,49,51,53,55,57,59,61,63,65,67,69,71,73,75,77,79,81,83,85,87,89,91,93,95,97,99,101,103,105,107,-1,-1,109,-1,111,-1,-1,113,115,-1,-1,-1,-1,-1,-1,-1,-1,-1,-1,-1,-1,-1,-1,-1,-1,-1,-1,-1,-1,-1,-1,-1,-1,-1,-1,-1,-1,-1,-1,-1,-1,-1,-1,-1,-1,-1,-1,-1,-1,-1,-1,-1,-1,-1,-1,-1,-1,-1,-1,-1,-1,-1,-1],"loss_changes":[1.7442556E15,2.62217E14,3.6700308E14,3.2596487E13,3.6268025E13,7.2638634E13,6.5155526E13,3.984354E12,3.9288465E12,5.161249E12,4.1439052E12,1.0951395E13,8.4111566E12,5.5783237E12,1.247688E13,4.129544E11,4.994745E11,4.6310988E11,5.251667E11,6.642754E11,6.6334595E11,4.829678E11,4.9892924E11,1.556565E12,1.2254582E12,1.05736726E12,7.610313E11,2.0005152E11,7.5178705E11,8.279556E10,8.023536E11,3.1323062E10,4.737886E10,4.862876E10,7.207492E10,4.560257E10,6.872157E10,5.3021245E10,8.483609E10,7.998302E10,1.0184278E11,1.05606414E11,9.981867E10,8.443344E10,9.302232E10,9.14568E10,1.0066959E11,1.6607347E11,2.1697135E11,1.1831293E11,1.2269178E11,1.01267276E11,1.1601445E11,7.629439E10,0E0,0E0,8.935545E10,0E0,3.073586E10,0E0,0E0,4.28121E11,6.50956E10,0E0,0E0,0E0,0E0,0E0,0E0,0E0,0E0,0E0,0E0,0E0,0E0,0E0,0E0,0E0,0E0,0E0,0E0,0E0,0E0,0E0,0E0,0E0,0E0,0E0,0E0,0E0,0E0,0E0,0E0,0E0,0E0,0E0,0E0,0E0,0E0,0E0,0E0,0E0,0E0,0E0,0E0,0E0,0E0,0E0,0E0,0E0,0E0,0E0,0E0,0E0,0E0,0E0,0E0],"parents":[2147483647,0,0,1,1,2,2,3,3,4,4,5,5,6,6,7,7,8,8,9,9,10,10,11,11,12,12,13,13,14,14,15,15,16,16,17,17,18,18,19,19,20,20,21,21,22,22,23,23,24,24,25,25,26,26,27,27,28,28,29,29,30,30,31,31,32,32,33,33,34,34,35,35,36,36,37,37,38,38,39,39,40,40,41,41,42,42,43,43,44,44,45,45,46,46,47,47,48,48,49,49,50,50,51,51,52,52,53,53,56,56,58,58,61,61,62,62],"right_children":[2,4,6,8,10,12,14,16,18,20,22,24,26,28,30,32,34,36,38,40,42,44,46,48,50,52,54,56,58,60,62,64,66,68,70,72,74,76,78,80,82,84,86,88,90,92,94,96,98,100,102,104,106,108,-1,-1,110,-1,112,-1,-1,114,116,-1,-1,-1,-1,-1,-1,-1,-1,-1,-1,-1,-1,-1,-1,-1,-1,-1,-1,-1,-1,-1,-1,-1,-1,-1,-1,-1,-1,-1,-1,-1,-1,-1,-1,-1,-1,-1,-1,-1,-1,-1,-1,-1,-1,-1,-1,-1,-1,-1,-1,-1,-1,-1,-1],"split_conditions":[2.428942E5,8.814925E4,5.656938E5,3.622979E4,1.5984253E5,3.8823906E5,7.919305E5,1.498767E4,6.003238E4,1.2173565E5,1.9930969E5,3.1311222E5,4.753177E5,6.5028606E5,9.7243194E5,5.90664E3,2.460329E4,4.705762E4,7.280143E4,1.0370185E5,1.4106383E5,1.7807902E5,2.2020914E5,2.7389697E5,3.4844044E5,4.2736584E5,5.19916E5,5.9688544E5,7.1426044E5,-1.1708615E5,1.2E1,2.06833E3,9.8548E3,1.932565E4,3.045574E4,4.101486E4,5.327874E4,6.650229E4,-1.158731E4,-1.384065E4,-1.633255E4,1.3060067E5,-2.176517E4,-2.746679E4,-2.801298E4,-3.625573E4,-4.032345E4,-3.699912E4,2.9160144E5,-4.659562E4,-3.486866E4,-3.486866E4,-4.316013E4,-4.032345E4,1.7445156E4,1.8933807E4,-4.316013E4,2.3116906E4,-5.171544E4,3.1960021E4,2.9169422E4,-7.864534E4,1.3416925E5,-4.642386E3,-4.5076504E3,-4.3472397E3,-4.1578853E3,-3.9710857E3,-3.7695774E3,-3.5458828E3,-3.3062585E3,-3.095933E3,-2.8680173E3,-2.6193992E3,-2.355422E3,-2.0785603E3,-1.8223248E3,-1.2207517E3,-1.542887E3,-5.62825E2,-9.0341046E2,1.4886456E2,-2.320493E2,4.8224545E2,8.9041956E2,1.71758E3,1.2661019E3,2.7486738E3,2.1185264E3,3.3711692E3,2.8396472E3,4.7388374E3,3.807884E3,5.76021E3,4.702417E3,6.2361567E3,5.5521187E3,6.892918E3,7.680019E3,9.127905E3,8.363601E3,1.0410288E4,8.216116E3,1.1999934E4,9.255093E3,1.3727358E4,1.108932E4,1.5684088E4,1.2064519E4,2.075998E4,1.4978921E4,2.6032941E4,1.8646912E4,4.0032047E4,2.6970584E4,4.1210453E4,4.911259E4],"split_indices":[8,8,8,8,8,8,8,8,8,8,8,8,8,8,8,8,8,8,8,8,8,8,8,8,8,8,8,8,8,3,7,8,8,8,8,8,8,8,3,3,3,8,3,3,3,3,3,3,8,3,3,3,3,3,0,0,3,0,3,0,0,3,11,0,0,0,0,0,0,0,0,0,0,0,0,0,0,0,0,0,0,0,0,0,0,0,0,0,0,0,0,0,0,0,0,0,0,0,0,0,0,0,0,0,0,0,0,0,0,0,0,0,0,0,0,0,0],"split_type":[0,0,0,0,0,0,0,0,0,0,0,0,0,0,0,0,0,0,0,0,0,0,0,0,0,0,0,0,0,0,0,0,0,0,0,0,0,0,0,0,0,0,0,0,0,0,0,0,0,0,0,0,0,0,0,0,0,0,0,0,0,0,0,0,0,0,0,0,0,0,0,0,0,0,0,0,0,0,0,0,0,0,0,0,0,0,0,0,0,0,0,0,0,0,0,0,0,0,0,0,0,0,0,0,0,0,0,0,0,0,0,0,0,0,0,0,0],"sum_hessian":[1.63626E5,1.40548E5,2.3078E4,1.0101E5,3.9538E4,1.9249E4,3.829E3,6.4592E4,3.6418E4,2.5507E4,1.4031E4,1.2841E4,6.408E3,2.533E3,1.296E3,3.7709E4,2.6883E4,1.9717E4,1.6701E4,1.4069E4,1.1438E4,7.673E3,6.358E3,7.73E3,5.111E3,3.845E3,2.563E3,1.265E3,1.268E3,6.54E2,6.42E2,2.2387E4,1.5322E4,1.3477E4,1.3406E4,9.502E3,1.0215E4,8.357E3,8.344E3,6.972E3,7.097E3,6.348E3,5.09E3,3.865E3,3.808E3,3.175E3,3.183E3,3.887E3,3.843E3,2.555E3,2.556E3,1.918E3,1.927E3,1.319E3,1.244E3,6.26E2,6.39E2,6.18E2,6.5E2,4.23E2,2.31E2,5.02E2,1.4E2,1.2861E4,9.526E3,7.041E3,8.281E3,6.417E3,7.06E3,7.048E3,6.358E3,4.429E3,5.073E3,5.124E3,5.091E3,4.5E3,3.857E3,3.726E3,4.618E3,3.164E3,3.808E3,3.172E3,3.925E3,3.172E3,3.176E3,2.103E3,2.987E3,6.54E2,3.211E3,1.296E3,2.512E3,3.11E2,2.864E3,2.67E2,2.916E3,1.731E3,2.156E3,1.938E3,1.905E3,1.337E3,1.218E3,2.468E3,8.8E1,1.865E3,5.3E1,1.857E3,7E1,1.286E3,3.3E1,6.2E2,1.9E1,6.37E2,1.3E1,4.87E2,1.5E1,7E1,7E1],"tree_param":{"num_deleted":"0","num_feature":"12","num_nodes":"117","size_leaf_vector":"1"}},{"base_weights":[-1.1522692E0,-3.9627746E4,2.4152844E5,-6.5133945E4,2.6792332E4,1.8354919E5,4.8289444E5,-7.800317E4,-4.196081E4,4.3393633E3,6.351119E4,1.411513E5,2.5306073E5,4.049997E5,6.7946494E5,-8.435675E4,-6.896836E4,-5.1110887E4,-3.0982389E4,-7.77854E3,1.7877285E4,4.743847E4,8.090966E4,1.20088E5,1.6743553E5,2.2808486E5,2.9682584E5,3.6465094E5,4.658227E5,5.8642256E5,7.751589E5,-8.702478E4,-8.036129E4,-7.270533E4,-6.437076E4,-5.536957E4,-4.5955566E4,-3.6041945E4,-2.512384E4,-1.3722493E4,-1.8044442E3,1.0679094E4,2.508621E4,3.9949223E4,5.473859E4,7.078436E4,8.938893E4,1.0919785E5,1.3089341E5,1.5363352E5,1.8117236E5,2.130176E5,2.4804302E5,2.7985353E5,3.139258E5,1.7502662E4,3.9225194E5,2.1873162E4,4.9301484E5,2.9501135E4,2.1401871E4,3.9982316E4,3.579217E4,-4.4104663E3,-4.276867E3,-4.107842E3,-3.92694E3,-3.7368445E3,-3.5260535E3,-3.3171687E3,-3.107267E3,-2.8812014E3,-2.641025E3,-2.4129285E3,-2.1837527E3,-1.6509281E3,-1.9248645E3,-1.0943177E3,-1.3982943E3,-5.0659723E2,-8.1877875E2,-2.2521776E2,1.0900205E2,6.9210077E2,3.3029333E2,1.4860956E3,1.062164E3,2.1899382E3,1.7271464E3,2.872271E3,2.3299048E3,3.9874395E3,3.3927559E3,4.791626E3,4.1860176E3,6.01615E3,5.3100444E3,6.608847E3,4.7238804E3,7.747341E3,5.9469175E3,8.68857E3,9.430275E3,1.1123401E4,1.0301949E4,1.27963545E4,1.2028556E4,1.407687E4,1.0353969E4,1.5748909E4,1.231924E4,1.9734104E4,1.3863167E4,2.4759807E4,1.798988E4],"categories":[],"categories_nodes":[],"categories_segments":[],"categories_sizes":[],"default_left":[0,0,0,0,0,0,0,0,0,0,0,0,0,0,0,0,0,0,0,0,0,0,0,0,0,0,0,0,0,0,0,0,0,0,0,0,0,0,0,0,0,0,0,0,0,0,0,0,0,0,0,0,0,0,0,0,0,0,0,0,0,0,0,0,0,0,0,0,0,0,0,0,0,0,0,0,0,0,0,0,0,0,0,0,0,0,0,0,0,0,0,0,0,0,0,0,0,0,0,0,0,0,0,0,0,0,0,0,0,0,0,0,0,0,0],"id":5,"left_children":[1,3,5,7,9,11,13,15,17,19,21,23,25,27,29,31,33,35,37,39,41,43,45,47,49,51,53,55,57,59,61,63,65,67,69,71,73,75,77,79,81,83,85,87,89,91,93,95,97,99,101,103,105,107,109,-1,111,-1,113,-1,-1,-1,-1,-1,-1,-1,-1,-1,-1,-1,-1,-1,-1,-1,-1,-1,-1,-1,-1,-1,-1,-1,-1,-1,-1,-1,-1,-1,-1,-1,-1,-1,-1,-1,-1,-1,-1,-1,-1,-1,-1,-1,-1,-1,-1,-1,-1,-1,-1,-1,-1,-1,-1,-1,-1],"loss_changes":[1.5660158E15,2.3812777E14,3.226319E14,3.0283982E13,3.2153996E13,5.4769356E13,6.8107444E13,3.7424265E12,3.6413605E12,3.9706716E12,4.1345687E12,6.3759796E12,7.631922E12,7.685844E12,1.0817412E13,4.01613E11,4.586052E11,4.3167777E11,4.8782587E11,4.535057E11,5.929524E11,4.1851604E11,6.036736E11,7.4081475E11,9.461343E11,1.2970633E12,6.539759E11,6.398998E11,7.659806E11,1.15796345E11,3.2957163E11,3.2916898E10,4.38137E10,6.0699967E10,4.8993665E10,5.9171144E10,4.4912607E10,6.4388858E10,6.972087E10,6.0819636E10,6.8547478E10,7.362681E10,1.01108154E11,7.76135E10,8.312691E10,7.9744205E10,1.33078974E11,9.398177E10,1.3783322E11,9.8624864E10,1.0854859E11,1.23329315E11,5.183321E10,1.0001737E11,1.2314477E10,0E0,7.472572E10,0E0,8.388608E9,0E0,0E0,0E0,0E0,0E0,0E0,0E0,0E0,0E0,0E0,0E0,0E0,0E0,0E0,0E0,0E0,0E0,0E0,0E0,0E0,0E0,0E0,0E0,0E0,0E0,0E0,0E0,0E0,0E0,0E0,0E0,0E0,0E0,0E0,0E0,0E0,0E0,0E0,0E0,0E0,0E0,0E0,0E0,0E0,0E0,0E0,0E0,0E0,0E0,0E0,0E0,0E0,0E0,0E0,0E0,0E0],"parents":[2147483647,0,0,1,1,2,2,3,3,4,4,5,5,6,6,7,7,8,8,9,9,10,10,11,11,12,12,13,13,14,14,15,15,16,16,17,17,18,18,19,19,20,20,21,21,22,22,23,23,24,24,25,25,26,26,27,27,28,28,29,29,30,30,31,31,32,32,33,33,34,34,35,35,36,36,37,37,38,38,39,39,40,40,41,41,42,42,43,43,44,44,45,45,46,46,47,47,48,48,49,49,50,50,51,51,52,52,53,53,54,54,56,56,58,58],"right_children":[2,4,6,8,10,12,14,16,18,20,22,24,26,28,30,32,34,36,38,40,42,44,46,48,50,52,54,56,58,60,62,64,66,68,70,72,74,76,78,80,82,84,86,88,90,92,94,96,98,100,102,104,106,108,110,-1,112,-1,114,-1,-1,-1,-1,-1,-1,-1,-1,-1,-1,-1,-1,-1,-1,-1,-1,-1,-1,-1,-1,-1,-1,-1,-1,-1,-1,-1,-1,-1,-1,-1,-1,-1,-1,-1,-1,-1,-1,-1,-1,-1,-1,-1,-1,-1,-1,-1,-1,-1,-1,-1,-1,-1,-1,-1,-1],"split_conditions":[3.469917E4,1.277353E4,7.728943E4,5.2614214E3,2.2445729E4,5.2399805E4,1.1313292E5,2.1969028E3,8.719482E3,1.7151957E4,2.7923607E4,4.258337E4,6.513144E4,9.289801E4,1.3891884E5,8.899286E2,3.7262258E3,7.048759E3,1.0702621E4,1.481455E4,1.9570498E4,2.4984406E4,3.085204E4,3.831024E4,4.707988E4,5.9069098E4,7.1103336E4,8.526935E4,1.020372E5,-5.322407E4,-1.4326E5,2.954757E2,1.5182142E3,2.9610957E3,4.517687E3,6.178739E3,7.8464214E3,-9.82438E3,-1.174941E4,-1.405635E4,1.6196266E4,-1.782923E4,-2.106973E4,-2.291599E4,-2.417266E4,-3.157628E4,-3.286133E4,-3.945519E4,-2.3309E4,-2.417266E4,4.9777203E4,-5.63856E4,-6.18605E4,-3.860486E4,-3.945519E4,1.7502662E4,-3.699912E4,2.1873162E4,-5.171544E4,2.9501135E4,2.1401871E4,3.9982316E4,3.579217E4,-4.4104663E3,-4.276867E3,-4.107842E3,-3.92694E3,-3.7368445E3,-3.5260535E3,-3.3171687E3,-3.107267E3,-2.8812014E3,-2.641025E3,-2.4129285E3,-2.1837527E3,-1.6509281E3,-1.9248645E3,-1.0943177E3,-1.3982943E3,-5.0659723E2,-8.1877875E2,-2.2521776E2,1.0900205E2,6.9210077E2,3.3029333E2,1.4860956E3,1.062164E3,2.1899382E3,1.7271464E3,2.872271E3,2.3299048E3,3.9874395E3,3.3927559E3,4.791626E3,4.1860176E3,6.01615E3,5.3100444E3,6.608847E3,4.7238804E3,7.747341E3,5.9469175E3,8.68857E3,9.430275E3,1.1123401E4,1.0301949E4,1.27963545E4,1.2028556E4,1.407687E4,1.0353969E4,1.5748909E4,1.231924E4,1.9734104E4,1.3863167E4,2.4759807E4,1.798988E4],"split_indices":[9,9,9,9,9,9,9,9,9,9,9,9,9,9,9,9,9,9,9,9,9,9,9,9,9,9,9,9,9,3,3,9,9,9,9,9,9,3,3,3,9,3,3,3,3,3,3,3,3,3,9,3,3,3,3,0,3,0,3,0,0,0,0,0,0,0,0,0,0,0,0,0,0,0,0,0,0,0,0,0,0,0,0,0,0,0,0,0,0,0,0,0,0,0,0,0,0,0,0,0,0,0,0,0,0,0,0,0,0,0,0,0,0,0,0],"split_type":[0,0,0,0,0,0,0,0,0,0,0,0,0,0,0,0,0,0,0,0,0,0,0,0,0,0,0,0,0,0,0,0,0,0,0,0,0,0,0,0,0,0,0,0,0,0,0,0,0,0,0,0,0,0,0,0,0,0,0,0,0,0,0,0,0,0,0,0,0,0,0,0,0,0,0,0,0,0,0,0,0,0,0,0,0,0,0,0,0,0,0,0,0,0,0,0,0,0,0,0,0,0,0,0,0,0,0,0,0,0,0,0,0,0,0],"sum_hessian":[1.63619E5,1.40559E5,2.306E4,1.01559E5,3.9E4,1.8595E4,4.465E3,6.5295E4,3.6264E4,2.4202E4,1.4798E4,1.1552E4,7.043E3,3.2E3,1.265E3,3.8331E4,2.6964E4,1.9777E4,1.6487E4,1.2771E4,1.1431E4,7.694E3,7.104E3,6.416E3,5.136E3,4.488E3,2.555E3,1.928E3,1.272E3,6.45E2,6.2E2,2.2971E4,1.536E4,1.4866E4,1.2098E4,1.0825E4,8.952E3,8.844E3,7.643E3,6.401E3,6.37E3,5.721E3,5.71E3,3.801E3,3.893E3,3.242E3,3.862E3,3.201E3,3.215E3,2.568E3,2.568E3,2.564E3,1.924E3,1.291E3,1.264E3,1.27E3,6.58E2,6.31E2,6.41E2,6.28E2,1.7E1,4.3E2,1.9E2,1.2755E4,1.0216E4,7.715E3,7.645E3,7.685E3,7.181E3,6.398E3,5.7E3,5.733E3,5.092E3,4.444E3,4.508E3,3.97E3,4.874E3,3.577E3,4.066E3,2.722E3,3.679E3,3.797E3,2.573E3,3.219E3,2.502E3,2.585E3,3.125E3,2.216E3,1.585E3,2.917E3,9.76E2,7.92E2,2.45E3,1.8E3,2.062E3,6.71E2,2.53E3,3.103E3,1.12E2,2.471E3,9.7E1,1.299E3,1.269E3,1.076E3,1.488E3,9.2E2,1.004E3,1.259E3,3.2E1,1.241E3,2.3E1,6.42E2,1.6E1,6.28E2,1.3E1],"tree_param":{"num_deleted":"0","num_feature":"12","num_nodes":"115","size_leaf_vector":"1"}},{"base_weights":[1.399533E2,-3.705015E4,2.3411998E5,-6.161684E4,2.722506E4,1.8233166E5,4.8346525E5,-7.393154E4,-3.9219207E4,5.4896846E3,6.3018754E4,1.39474E5,2.531493E5,3.9896422E5,6.5026694E5,-8.0026125E4,-6.5129297E4,-4.7710297E4,-2.8284826E4,-5.6670093E3,1.9267111E4,4.8765258E4,8.15801E4,1.1826912E5,1.6592622E5,2.2109716E5,2.9112025E5,3.5731522E5,4.418521E5,5.613905E5,7.3979175E5,-8.258023E4,-7.607371E4,-6.891929E4,-6.093232E4,-5.234531E4,-4.3042305E4,-3.2774195E4,-2.2496922E4,-1.0869421E4,1.2542573E3,1.3027622E4,2.636889E4,4.2526004E4,5.8860547E4,7.316676E4,8.994175E4,1.0946224E5,1.3144025E5,1.5201273E5,1.7963034E5,2.0626456E5,2.3589916E5,2.747974E5,3.149943E5,1.7058482E4,3.7262462E5,4.160229E5,2.3392188E4,2.6337178E4,2.8959498E4,7.0786775E5,3.9952684E4,-4.187011E3,-4.052776E3,-3.8901118E3,-3.7156895E3,-3.5431035E3,-3.3483247E3,-3.1501138E3,-2.9420898E3,-2.7267092E3,-2.5072668E3,-2.2781702E3,-2.0260834E3,-1.7589342E3,-1.4901709E3,-1.2291978E3,-9.394388E2,-7.344881E2,-4.078773E2,-2.4771463E1,3.4476047E2,5.54037E2,9.91088E2,1.2302357E3,1.7950684E3,1.8961904E3,2.3856616E3,2.3470562E3,3.0295596E3,2.8746538E3,3.753088E3,4.41152E3,5.4262485E3,5.1510894E3,5.799695E3,6.4817817E3,8.025699E3,5.791278E3,7.665738E3,8.632403E3,9.472334E3,8.236101E3,1.0362457E4,1.1530616E4,1.2307437E4,1.3337081E4,1.4488894E4,1.1383172E4,1.5795513E4,1.3540405E4,1.8761209E4,1.3684885E4,2.0869572E4,2.3549412E4,3.567981E4],"categories":[],"categories_nodes":[],"categories_segments":[],"categories_sizes":[],"default_left":[0,0,0,0,0,0,0,0,0,0,0,0,0,0,0,0,0,0,0,0,0,0,0,0,0,0,0,0,0,0,0,0,0,0,0,0,0,0,0,0,0,0,0,0,0,0,0,0,0,0,0,0,0,0,0,0,0,0,0,0,0,0,0,0,0,0,0,0,0,0,0,0,0,0,0,0,0,0,0,0,0,0,0,0,0,0,0,0,0,0,0,0,0,0,0,0,0,0,0,0,0,0,0,0,0,0,0,0,0,0,0,0,0,0,0,0,0],"id":6,"left_children":[1,3,5,7,9,11,13,15,17,19,21,23,25,27,29,31,33,35,37,39,41,43,45,47,49,51,53,55,57,59,61,63,65,67,69,71,73,75,77,79,81,83,85,87,89,91,93,95,97,99,101,103,105,107,109,-1,111,113,-1,-1,-1,115,-1,-1,-1,-1,-1,-1,-1,-1,-1,-1,-1,-1,-1,-1,-1,-1,-1,-1,-1,-1,-1,-1,-1,-1,-1,-1,-1,-1,-1,-1,-1,-1,-1,-1,-1,-1,-1,-1,-1,-1,-1,-1,-1,-1,-1,-1,-1,-1,-1,-1,-1,-1,-1,-1,-1],"loss_changes":[1.4228303E15,2.2278059E14,2.894898E14,2.8150927E13,3.0352135E13,5.6326147E13,5.409055E13,3.5278794E12,3.3609335E12,3.7314327E12,3.8956905E12,6.4707206E12,8.4549787E12,4.418481E12,9.888525E12,3.8654706E11,4.2448873E11,4.3875356E11,4.1064124E11,4.8301523E11,4.8096766E11,5.228095E11,4.43728E11,7.310001E11,9.539022E11,7.8566025E11,1.1608324E12,1.9545457E11,6.499158E11,9.824738E10,6.489427E11,3.4980495E10,4.0718303E10,4.895172E10,5.166963E10,4.649386E10,6.2725816E10,6.262725E10,5.3084422E10,7.921926E10,5.6824426E10,7.628764E10,8.453017E10,1.2132549E11,6.2814945E10,9.061165E10,9.238374E10,1.5030288E11,1.1403474E11,1.0286111E11,1.4460282E11,4.382209E10,4.592763E10,1.5307532E11,3.1499223E10,0E0,7.279634E10,1.0410263E10,0E0,0E0,0E0,2.4197779E11,0E0,0E0,0E0,0E0,0E0,0E0,0E0,0E0,0E0,0E0,0E0,0E0,0E0,0E0,0E0,0E0,0E0,0E0,0E0,0E0,0E0,0E0,0E0,0E0,0E0,0E0,0E0,0E0,0E0,0E0,0E0,0E0,0E0,0E0,0E0,0E0,0E0,0E0,0E0,0E0,0E0,0E0,0E0,0E0,0E0,0E0,0E0,0E0,0E0,0E0,0E0,0E0,0E0,0E0,0E0],"parents":[2147483647,0,0,1,1,2,2,3,3,4,4,5,5,6,6,7,7,8,8,9,9,10,10,11,11,12,12,13,13,14,14,15,15,16,16,17,17,18,18,19,19,20,20,21,21,22,22,23,23,24,24,25,25,26,26,27,27,28,28,29,29,30,30,31,31,32,32,33,33,34,34,35,35,36,36,37,37,38,38,39,39,40,40,41,41,42,42,43,43,44,44,45,45,46,46,47,47,48,48,49,49,50,50,51,51,52,52,53,53,54,54,56,56,57,57,61,61],"right_children":[2,4,6,8,10,12,14,16,18,20,22,24,26,28,30,32,34,36,38,40,42,44,46,48,50,52,54,56,58,60,62,64,66,68,70,72,74,76,78,80,82,84,86,88,90,92,94,96,98,100,102,104,106,108,110,-1,112,114,-1,-1,-1,116,-1,-1,-1,-1,-1,-1,-1,-1,-1,-1,-1,-1,-1,-1,-1,-1,-1,-1,-1,-1,-1,-1,-1,-1,-1,-1,-1,-1,-1,-1,-1,-1,-1,-1,-1,-1,-1,-1,-1,-1,-1,-1,-1,-1,-1,-1,-1,-1,-1,-1,-1,-1,-1,-1,-1],"split_conditions":[2.4761467E5,9.091597E4,5.656938E5,3.744229E4,1.5984253E5,3.770568E5,7.919305E5,1.576873E4,6.289406E4,1.2339675E5,2.0311352E5,3.0554934E5,4.559201E5,6.5028606E5,9.7243194E5,6.55699E3,2.608358E4,4.934131E4,7.703592E4,1.0828041E5,1.4106383E5,1.8462284E5,2.2472581E5,2.7975953E5,3.3822688E5,4.1348366E5,5.19916E5,5.9688544E5,7.1426044E5,1.1708615E5,1.1E1,2.30365E3,1.102741E4,2.072767E4,3.162381E4,4.325117E4,5.580792E4,1.01244E4,1.247164E4,9.794718E4,1.809218E4,2.076242E4,2.459184E4,2.459184E4,2.3309E4,2.502535E4,4.127675E4,2.623003E5,5.322407E4,2.459184E4,5.171544E4,3.222309E4,4.4061188E5,4.9772334E5,3.419674E4,1.7058482E4,4.127675E4,2.291599E4,2.3392188E4,2.6337178E4,2.8959498E4,2.9426592E6,3.9952684E4,-4.187011E3,-4.052776E3,-3.8901118E3,-3.7156895E3,-3.5431035E3,-3.3483247E3,-3.1501138E3,-2.9420898E3,-2.7267092E3,-2.5072668E3,-2.2781702E3,-2.0260834E3,-1.7589342E3,-1.4901709E3,-1.2291978E3,-9.394388E2,-7.344881E2,-4.078773E2,-2.4771463E1,3.4476047E2,5.54037E2,9.91088E2,1.2302357E3,1.7950684E3,1.8961904E3,2.3856616E3,2.3470562E3,3.0295596E3,2.8746538E3,3.753088E3,4.41152E3,5.4262485E3,5.1510894E3,5.799695E3,6.4817817E3,8.025699E3,5.791278E3,7.665738E3,8.632403E3,9.472334E3,8.236101E3,1.0362457E4,1.1530616E4,1.2307437E4,1.3337081E4,1.4488894E4,1.1383172E4,1.5795513E4,1.3540405E4,1.8761209E4,1.3684885E4,2.0869572E4,2.3549412E4,3.567981E4],"split_indices":[8,8,8,8,8,8,8,8,8,8,8,8,8,8,8,8,8,8,8,8,8,8,8,8,8,8,8,8,8,0,7,8,8,8,8,8,8,0,0,8,0,0,0,0,0,0,0,8,0,0,0,0,8,8,0,0,0,0,0,0,0,10,0,0,0,0,0,0,0,0,0,0,0,0,0,0,0,0,0,0,0,0,0,0,0,0,0,0,0,0,0,0,0,0,0,0,0,0,0,0,0,0,0,0,0,0,0,0,0,0,0,0,0,0,0,0,0],"split_type":[0,0,0,0,0,0,0,0,0,0,0,0,0,0,0,0,0,0,0,0,0,0,0,0,0,0,0,0,0,0,0,0,0,0,0,0,0,0,0,0,0,0,0,0,0,0,0,0,0,0,0,0,0,0,0,0,0,0,0,0,0,0,0,0,0,0,0,0,0,0,0,0,0,0,0,0,0,0,0,0,0,0,0,0,0,0,0,0,0,0,0,0,0,0,0,0,0,0,0,0,0,0,0,0,0,0,0,0,0,0,0,0,0,0,0,0,0],"sum_hessian":[1.63509E5,1.41085E5,2.2424E4,1.02072E5,3.9013E4,1.8569E4,3.855E3,6.5859E4,3.6213E4,2.4274E4,1.4739E4,1.157E4,6.999E3,2.561E3,1.294E3,3.891E4,2.6949E4,2.0382E4,1.5831E4,1.3413E4,1.0861E4,8.339E3,6.4E3,6.425E3,5.145E3,3.799E3,3.2E3,1.304E3,1.257E3,6.53E2,6.41E2,2.3624E4,1.5286E4,1.4153E4,1.2796E4,1.0222E4,1.016E4,8.913E3,6.918E3,7.657E3,5.756E3,5.783E3,5.078E3,5.157E3,3.182E3,3.195E3,3.205E3,3.856E3,2.569E3,2.559E3,2.586E3,1.905E3,1.894E3,1.908E3,1.292E3,6.46E2,6.58E2,6.39E2,6.18E2,2.32E2,4.21E2,4.25E2,2.16E2,1.3386E4,1.0238E4,7.69E3,7.596E3,7.077E3,7.076E3,6.415E3,6.381E3,5.112E3,5.11E3,5.071E3,5.089E3,4.92E3,3.993E3,4.423E3,2.495E3,3.177E3,4.48E3,4.394E3,1.362E3,4.497E3,1.286E3,4.288E3,7.9E2,2.737E3,2.42E3,4.07E2,2.775E3,3.48E2,2.847E3,2.94E3,2.65E2,1.95E3,1.906E3,2.424E3,1.45E2,9.2E1,2.467E3,1.522E3,1.064E3,4.8E1,1.857E3,1.265E3,6.29E2,1.253E3,6.55E2,1.6E1,1.276E3,1.9E1,6.39E2,8E0,6.31E2,1.2E1,4.13E2],"tree_param":{"num_deleted":"0","num_feature":"12","num_nodes":"117","size_leaf_vector":"1"}},{"base_weights":[9.468196E1,-3.575547E4,2.1852581E5,-5.9020367E4,2.3443238E4,1.659699E5,4.37344E5,-7.056084E4,-3.8508242E4,3.4618982E3,5.7150418E4,1.2746639E5,2.2825506E5,3.656867E5,6.152499E5,-7.636821E4,-6.27259E4,-4.6722844E4,-2.8802605E4,-7.508031E3,1.6181915E4,4.3987953E4,7.4325125E4,1.0846134E5,1.5105778E5,2.0065125E5,2.6129523E5,3.293919E5,4.207019E5,5.29285E5,6.985366E5,-7.87149E4,-7.302844E4,-6.643789E4,-5.8845434E4,-5.100335E4,-4.269988E4,-3.3654363E4,-2.3935125E4,-1.2804545E4,-1.7364481E3,8.90792E3,2.1929406E4,3.59942E4,5.075999E4,6.800575E4,8.385442E4,9.641975E4,1.1637293E5,1.3914E5,1.6320781E5,1.875925E5,2.1380264E5,2.469821E5,1.4151296E4,3.162987E5,3.5545134E5,1.9780865E4,4.448475E5,2.4807396E4,2.7333598E4,3.2161178E4,3.59979E4,-3.9840442E3,-3.8741345E3,-3.7398508E3,-3.5783176E3,-3.4200994E3,-3.239155E3,-3.0516091E3,-2.843536E3,-2.636017E3,-2.438656E3,-2.2377913E3,-2.0105061E3,-1.7969615E3,-1.5679884E3,-1.3442621E3,-1.0657811E3,-8.037203E2,-5.0057242E2,-2.86865E2,5.270472E1,7.595229E2,3.733405E2,8.5652344E2,1.2719681E3,1.7206403E3,2.348461E3,2.3087773E3,2.767214E3,3.154342E3,3.6817063E3,3.4334138E3,4.283905E3,3.5367524E3,4.88964E3,5.7102397E3,6.8823696E3,6.5249478E3,7.2184644E3,6.0232095E3,8.226792E3,7.675337E3,9.440846E3,7.454691E3,1.0732297E4,8.372547E3,1.2400478E4,1.2766979E4,1.5867572E4,1.2932201E4,1.7852941E4,1.580088E4,2.236215E4],"categories":[],"categories_nodes":[],"categories_segments":[],"categories_sizes":[],"default_left":[0,0,0,0,0,0,0,0,0,0,0,0,0,0,0,0,0,0,0,0,0,0,0,0,0,0,0,0,0,0,0,0,0,0,0,0,0,0,0,0,0,0,0,0,0,0,0,0,0,0,0,0,0,0,0,0,0,0,0,0,0,0,0,0,0,0,0,0,0,0,0,0,0,0,0,0,0,0,0,0,0,0,0,0,0,0,0,0,0,0,0,0,0,0,0,0,0,0,0,0,0,0,0,0,0,0,0,0,0,0,0,0,0,0,0],"id":7,"left_children":[1,3,5,7,9,11,13,15,17,19,21,23,25,27,29,31,33,35,37,39,41,43,45,47,49,51,53,55,57,59,61,63,65,67,69,71,73,75,77,79,81,83,85,87,89,91,93,95,97,99,101,103,105,107,-1,109,111,-1,113,-1,-1,-1,-1,-1,-1,-1,-1,-1,-1,-1,-1,-1,-1,-1,-1,-1,-1,-1,-1,-1,-1,-1,-1,-1,-1,-1,-1,-1,-1,-1,-1,-1,-1,-1,-1,-1,-1,-1,-1,-1,-1,-1,-1,-1,-1,-1,-1,-1,-1,-1,-1,-1,-1,-1,-1],"loss_changes":[1.2801538E15,1.9340748E14,2.6498378E14,2.3861261E13,2.6683778E13,4.4543844E13,5.6670483E13,2.930577E12,2.892694E12,3.4711213E12,3.3300047E12,5.1343314E12,6.422117E12,6.2191126E12,8.7947173E12,2.845919E11,3.9175638E11,3.3634124E11,3.9220832E11,4.0829144E11,4.813821E11,4.5019143E11,3.7946288E11,5.95264E11,7.1909664E11,6.248506E11,9.3410506E11,5.4369924E11,5.8837697E11,9.406985E10,3.035334E11,1.9721617E10,3.4217132E10,4.1167094E10,5.4559506E10,3.3881588E10,5.0105156E10,4.2556457E10,6.3652758E10,6.3450776E10,7.1381E10,4.5934346E10,1.0793884E11,6.4908427E10,9.2395274E10,1.0196982E11,6.4625836E10,8.2306925E10,1.612626E11,9.833126E10,1.23845214E11,5.2445577E10,7.288023E10,1.1813677E11,0E0,1.6944988E9,6.467617E9,0E0,5.4635004E10,0E0,0E0,0E0,0E0,0E0,0E0,0E0,0E0,0E0,0E0,0E0,0E0,0E0,0E0,0E0,0E0,0E0,0E0,0E0,0E0,0E0,0E0,0E0,0E0,0E0,0E0,0E0,0E0,0E0,0E0,0E0,0E0,0E0,0E0,0E0,0E0,0E0,0E0,0E0,0E0,0E0,0E0,0E0,0E0,0E0,0E0,0E0,0E0,0E0,0E0,0E0,0E0,0E0,0E0,0E0,0E0],"parents":[2147483647,0,0,1,1,2,2,3,3,4,4,5,5,6,6,7,7,8,8,9,9,10,10,11,11,12,12,13,13,14,14,15,15,16,16,17,17,18,18,19,19,20,20,21,21,22,22,23,23,24,24,25,25,26,26,27,27,28,28,29,29,30,30,31,31,32,32,33,33,34,34,35,35,36,36,37,37,38,38,39,39,40,40,41,41,42,42,43,43,44,44,45,45,46,46,47,47,48,48,49,49,50,50,51,51,52,52,53,53,55,55,56,56,58,58],"right_children":[2,4,6,8,10,12,14,16,18,20,22,24,26,28,30,32,34,36,38,40,42,44,46,48,50,52,54,56,58,60,62,64,66,68,70,72,74,76,78,80,82,84,86,88,90,92,94,96,98,100,102,104,106,108,-1,110,112,-1,114,-1,-1,-1,-1,-1,-1,-1,-1,-1,-1,-1,-1,-1,-1,-1,-1,-1,-1,-1,-1,-1,-1,-1,-1,-1,-1,-1,-1,-1,-1,-1,-1,-1,-1,-1,-1,-1,-1,-1,-1,-1,-1,-1,-1,-1,-1,-1,-1,-1,-1,-1,-1,-1,-1,-1,-1],"split_conditions":[2.428942E5,8.814925E4,5.41026E5,3.622979E4,1.571201E5,3.6679862E5,7.919305E5,1.459242E4,6.003238E4,1.200637E5,1.9930969E5,2.9808362E5,4.4061188E5,6.5028606E5,9.7243194E5,5.604E3,2.460329E4,4.705762E4,7.280143E4,1.0370185E5,1.3475975E5,1.7489084E5,2.2472581E5,2.623003E5,3.2955916E5,3.9989828E5,4.9772334E5,5.9688544E5,7.1426044E5,1.1708615E5,1.4326E5,1.80082E3,9.46868E3,1.890661E4,2.986891E4,6.01547E3,7.71112E3,9.40191E3,1.125242E4,1.343967E4,1.538705E4,-2.04489E4,2.01288E4,2.801298E4,2.644353E4,3.033662E4,2.801298E4,2.695058E4,4.780254E4,4.316013E4,2.746679E4,3.625573E4,2.644353E4,2.971201E4,1.4151296E4,4.780254E4,3.625573E4,1.9780865E4,5.171544E4,2.4807396E4,2.7333598E4,3.2161178E4,3.59979E4,-3.9840442E3,-3.8741345E3,-3.7398508E3,-3.5783176E3,-3.4200994E3,-3.239155E3,-3.0516091E3,-2.843536E3,-2.636017E3,-2.438656E3,-2.2377913E3,-2.0105061E3,-1.7969615E3,-1.5679884E3,-1.3442621E3,-1.0657811E3,-8.037203E2,-5.0057242E2,-2.86865E2,5.270472E1,7.595229E2,3.733405E2,8.5652344E2,1.2719681E3,1.7206403E3,2.348461E3,2.3087773E3,2.767214E3,3.154342E3,3.6817063E3,3.4334138E3,4.283905E3,3.5367524E3,4.88964E3,5.7102397E3,6.8823696E3,6.5249478E3,7.2184644E3,6.0232095E3,8.226792E3,7.675337E3,9.440846E3,7.454691E3,1.0732297E4,8.372547E3,1.2400478E4,1.2766979E4,1.5867572E4,1.2932201E4,1.7852941E4,1.580088E4,2.236215E4],"split_indices":[8,8,8,8,8,8,8,8,8,8,8,8,8,8,8,8,8,8,8,8,8,8,8,8,8,8,8,8,8,0,0,8,8,8,8,0,0,0,0,0,0,3,0,0,0,0,0,0,0,0,0,0,0,0,0,0,0,0,0,0,0,0,0,0,0,0,0,0,0,0,0,0,0,0,0,0,0,0,0,0,0,0,0,0,0,0,0,0,0,0,0,0,0,0,0,0,0,0,0,0,0,0,0,0,0,0,0,0,0,0,0,0,0,0,0],"split_type":[0,0,0,0,0,0,0,0,0,0,0,0,0,0,0,0,0,0,0,0,0,0,0,0,0,0,0,0,0,0,0,0,0,0,0,0,0,0,0,0,0,0,0,0,0,0,0,0,0,0,0,0,0,0,0,0,0,0,0,0,0,0,0,0,0,0,0,0,0,0,0,0,0,0,0,0,0,0,0,0,0,0,0,0,0,0,0,0,0,0,0,0,0,0,0,0,0,0,0,0,0,0,0,0,0,0,0,0,0,0,0,0,0,0,0],"sum_hessian":[1.63475E5,1.40428E5,2.3047E4,1.0081E5,3.9618E4,1.8585E4,4.462E3,6.4512E4,3.6298E4,2.4874E4,1.4744E4,1.1487E4,7.098E3,3.183E3,1.279E3,3.7045E4,2.7467E4,1.9657E4,1.6641E4,1.3356E4,1.1518E4,8.349E3,6.395E3,6.365E3,5.122E3,3.871E3,3.227E3,1.922E3,1.261E3,6.33E2,6.46E2,2.1744E4,1.5301E4,1.403E4,1.3437E4,9.518E3,1.0139E4,8.331E3,8.31E3,6.964E3,6.392E3,5.085E3,6.433E3,3.832E3,4.517E3,3.85E3,2.545E3,2.529E3,3.836E3,2.592E3,2.53E3,1.95E3,1.921E3,1.953E3,1.274E3,1.288E3,6.34E2,6.27E2,6.34E2,2.28E2,4.05E2,1.89E2,4.57E2,1.2153E4,9.591E3,6.902E3,8.399E3,6.397E3,7.633E3,6.362E3,7.075E3,5.365E3,4.153E3,5.544E3,4.595E3,4.167E3,4.164E3,3.904E3,4.406E3,3.206E3,3.758E3,2.626E3,3.766E3,9.47E2,4.138E3,2.72E3,3.713E3,3.353E3,4.79E2,2.264E3,2.253E3,2.061E3,1.789E3,2.77E2,2.268E3,1.31E2,2.398E3,3.487E3,3.49E2,9.87E2,1.605E3,7.9E1,2.451E3,7.2E1,1.878E3,2.7E1,1.894E3,2.7E1,1.926E3,2.6E1,1.262E3,1.3E1,6.21E2,1.4E1,6.2E2],"tree_param":{"num_deleted":"0","num_feature":"12","num_nodes":"115","size_leaf_vector":"1"}},{"base_weights":[-2.11818E1,-3.2927465E4,2.1503122E5,-5.486016E4,2.7657908E4,1.6710542E5,4.3681384E5,-6.627532E4,-3.3469965E4,7.999795E3,6.0641547E4,1.3067857E5,2.3311962E5,3.6120116E5,5.868242E5,-7.178848E4,-5.753788E4,-4.1167418E4,-2.2854143E4,-1.3620308E3,2.1806256E4,4.849612E4,7.826848E4,1.1071379E5,1.5559736E5,2.0886567E5,2.6958078E5,3.23296E5,3.9864966E5,5.0416828E5,6.660708E5,-7.422368E4,-6.7615625E4,-6.091052E4,-5.364678E4,-4.5541832E4,-3.660522E4,-2.7197904E4,-1.7740941E4,-6.806586E3,5.1592617E3,1.639055E4,2.7967924E4,4.1370113E4,5.677601E4,7.1260336E4,8.4965914E4,1.0029329E5,1.2104462E5,1.4286966E5,1.6824948E5,1.9445939E5,2.2282875E5,2.5490519E5,2.8410138E5,1.543881E4,3.369177E5,3.76199E5,4.2132175E5,1.7148795E4,2.533572E4,3.4292137E4,3.0595912E4,-3.7603574E3,-3.6041672E3,-3.4529355E3,-3.2951042E3,-3.125998E3,-2.9494111E3,-2.7600222E3,-2.5747556E3,-2.3852983E3,-2.1728914E3,-1.944525E3,-1.7117344E3,-1.2496669E3,-1.491385E3,-9.902096E2,-7.1178174E2,-4.827733E2,-1.7712321E2,1.1850038E2,4.3131174E2,3.628475E2,8.7815155E2,8.248134E2,1.4574897E3,1.3633396E3,2.1361428E3,2.7753875E3,3.6217615E3,2.3285466E3,3.6315742E3,4.0017068E3,4.5044883E3,3.6994714E3,5.074213E3,5.9616274E3,7.3789165E3,6.7201484E3,7.405978E3,6.9834077E3,8.500895E3,6.532654E3,9.762254E3,1.0763064E4,1.1565972E4,9.868456E3,1.2816354E4,1.0144448E4,1.4242372E4,1.2289397E4,1.6963422E4,1.1402127E4,1.8872186E4,1.5796461E4,2.1168432E4],"categories":[],"categories_nodes":[],"categories_segments":[],"categories_sizes":[],"default_left":[0,0,0,0,0,0,0,0,0,0,0,0,0,0,0,0,0,0,0,0,0,0,0,0,0,0,0,0,0,0,0,0,0,0,0,0,0,0,0,0,0,0,0,0,0,0,0,0,0,0,0,0,0,0,0,0,0,0,0,0,0,0,0,0,0,0,0,0,0,0,0,0,0,0,0,0,0,0,0,0,0,0,0,0,0,0,0,0,0,0,0,0,0,0,0,0,0,0,0,0,0,0,0,0,0,0,0,0,0,0,0,0,0,0,0,0,0],"id":8,"left_children":[1,3,5,7,9,11,13,15,17,19,21,23,25,27,29,31,33,35,37,39,41,43,45,47,49,51,53,55,57,59,61,63,65,67,69,71,73,75,77,79,81,83,85,87,89,91,93,95,97,99,101,103,105,107,109,-1,111,113,115,-1,-1,-1,-1,-1,-1,-1,-1,-1,-1,-1,-1,-1,-1,-1,-1,-1,-1,-1,-1,-1,-1,-1,-1,-1,-1,-1,-1,-1,-1,-1,-1,-1,-1,-1,-1,-1,-1,-1,-1,-1,-1,-1,-1,-1,-1,-1,-1,-1,-1,-1,-1,-1,-1,-1,-1,-1,-1],"loss_changes":[1.1594262E15,1.8882008E14,2.3103575E14,2.5472042E13,2.4488788E13,4.2967792E13,4.3604857E13,3.272698E12,2.9657169E12,3.0589473E12,3.0156794E12,5.7164337E12,5.5653716E12,3.5206317E12,8.133561E12,4.187593E11,3.4215454E11,4.1830633E11,3.38495E11,5.008052E11,3.18657E11,4.905008E11,2.6392658E11,6.7704455E11,8.011037E11,7.254804E11,4.6798366E11,1.4971988E11,4.9761223E11,8.767773E10,2.838034E11,4.9996104E10,3.3478935E10,3.9912997E10,3.8042337E10,4.6357545E10,5.4499738E10,4.7083684E10,5.043834E10,7.144794E10,6.2043324E10,5.4402613E10,6.015025E10,8.4552974E10,7.265898E10,9.198109E10,6.6980938E10,9.2520055E10,1.367427E11,9.392305E10,1.05847456E11,6.919763E10,7.446567E10,5.33851E10,1.8916311E10,0E0,5.6077844E10,3.5089547E10,2.801795E9,0E0,0E0,0E0,0E0,0E0,0E0,0E0,0E0,0E0,0E0,0E0,0E0,0E0,0E0,0E0,0E0,0E0,0E0,0E0,0E0,0E0,0E0,0E0,0E0,0E0,0E0,0E0,0E0,0E0,0E0,0E0,0E0,0E0,0E0,0E0,0E0,0E0,0E0,0E0,0E0,0E0,0E0,0E0,0E0,0E0,0E0,0E0,0E0,0E0,0E0,0E0,0E0,0E0,0E0,0E0,0E0,0E0,0E0],"parents":[2147483647,0,0,1,1,2,2,3,3,4,4,5,5,6,6,7,7,8,8,9,9,10,10,11,11,12,12,13,13,14,14,15,15,16,16,17,17,18,18,19,19,20,20,21,21,22,22,23,23,24,24,25,25,26,26,27,27,28,28,29,29,30,30,31,31,32,32,33,33,34,34,35,35,36,36,37,37,38,38,39,39,40,40,41,41,42,42,43,43,44,44,45,45,46,46,47,47,48,48,49,49,50,50,51,51,52,52,53,53,54,54,56,56,57,57,58,58],"right_children":[2,4,6,8,10,12,14,16,18,20,22,24,26,28,30,32,34,36,38,40,42,44,46,48,50,52,54,56,58,60,62,64,66,68,70,72,74,76,78,80,82,84,86,88,90,92,94,96,98,100,102,104,106,108,110,-1,112,114,116,-1,-1,-1,-1,-1,-1,-1,-1,-1,-1,-1,-1,-1,-1,-1,-1,-1,-1,-1,-1,-1,-1,-1,-1,-1,-1,-1,-1,-1,-1,-1,-1,-1,-1,-1,-1,-1,-1,-1,-1,-1,-1,-1,-1,-1,-1,-1,-1,-1,-1,-1,-1,-1,-1,-1,-1,-1,-1],"split_conditions":[2.5227025E5,9.501551E4,5.656938E5,3.950346E4,1.6544911E5,3.8823906E5,7.919305E5,1.749593E4,6.650229E4,1.3060067E5,2.1142773E5,3.1311222E5,4.753177E5,6.5028606E5,9.7243194E5,7.96138E3,2.816356E4,5.24084E4,8.045977E4,1.1337386E5,1.4762489E5,1.880647E5,3.286133E4,2.7975953E5,3.4844044E5,4.2736584E5,5.19916E5,5.9688544E5,7.1426044E5,5.322407E4,-1.4326E5,3.96901E3,1.299022E4,2.314492E4,3.443504E4,6.45704E3,8.45637E3,-1.029335E4,1.303957E4,1.494729E4,1.757758E4,1.633255E4,1.757758E4,1.922296E4,3.625573E4,1.732057E4,2.3843592E5,2.595516E4,5.322407E4,4.53737E4,4.127675E4,2.459184E4,6.412138E4,3.945519E4,2.911298E4,1.543881E4,4.53737E4,2.212701E4,5.171544E4,1.7148795E4,2.533572E4,3.4292137E4,3.0595912E4,-3.7603574E3,-3.6041672E3,-3.4529355E3,-3.2951042E3,-3.125998E3,-2.9494111E3,-2.7600222E3,-2.5747556E3,-2.3852983E3,-2.1728914E3,-1.944525E3,-1.7117344E3,-1.2496669E3,-1.491385E3,-9.902096E2,-7.1178174E2,-4.827733E2,-1.7712321E2,1.1850038E2,4.3131174E2,3.628475E2,8.7815155E2,8.248134E2,1.4574897E3,1.3633396E3,2.1361428E3,2.7753875E3,3.6217615E3,2.3285466E3,3.6315742E3,4.0017068E3,4.5044883E3,3.6994714E3,5.074213E3,5.9616274E3,7.3789165E3,6.7201484E3,7.405978E3,6.9834077E3,8.500895E3,6.532654E3,9.762254E3,1.0763064E4,1.1565972E4,9.868456E3,1.2816354E4,1.0144448E4,1.4242372E4,1.2289397E4,1.6963422E4,1.1402127E4,1.8872186E4,1.5796461E4,2.1168432E4],"split_indices":[8,8,8,8,8,8,8,8,8,8,8,8,8,8,8,8,8,8,8,8,8,8,0,8,8,8,8,8,8,0,3,8,8,8,8,0,0,3,0,0,0,0,0,0,0,0,8,0,0,0,0,0,0,0,0,0,0,0,0,0,0,0,0,0,0,0,0,0,0,0,0,0,0,0,0,0,0,0,0,0,0,0,0,0,0,0,0,0,0,0,0,0,0,0,0,0,0,0,0,0,0,0,0,0,0,0,0,0,0,0,0,0,0,0,0,0,0],"split_type":[0,0,0,0,0,0,0,0,0,0,0,0,0,0,0,0,0,0,0,0,0,0,0,0,0,0,0,0,0,0,0,0,0,0,0,0,0,0,0,0,0,0,0,0,0,0,0,0,0,0,0,0,0,0,0,0,0,0,0,0,0,0,0,0,0,0,0,0,0,0,0,0,0,0,0,0,0,0,0,0,0,0,0,0,0,0,0,0,0,0,0,0,0,0,0,0,0,0,0,0,0,0,0,0,0,0,0,0,0,0,0,0,0,0,0,0,0],"sum_hessian":[1.63838E5,1.42096E5,2.1742E4,1.04328E5,3.7768E4,1.788E4,3.862E3,6.8024E4,3.6304E4,2.3665E4,1.4103E4,1.1524E4,6.356E3,2.57E3,1.292E3,4.1703E4,2.6321E4,2.1043E4,1.5261E4,1.4103E4,9.562E3,8.352E3,5.751E3,6.401E3,5.123E3,3.821E3,2.535E3,1.282E3,1.288E3,6.36E2,6.56E2,2.6324E4,1.5379E4,1.4092E4,1.2229E4,1.0738E4,1.0305E4,8.249E3,7.012E3,7.686E3,6.417E3,5.091E3,4.471E3,4.492E3,3.86E3,2.816E3,2.935E3,3.192E3,3.209E3,2.56E3,2.563E3,1.888E3,1.933E3,1.27E3,1.265E3,6.32E2,6.5E2,6.56E2,6.32E2,1.2E1,6.24E2,4.72E2,1.84E2,1.8013E4,8.311E3,8.327E3,7.052E3,7.653E3,6.439E3,7.087E3,5.142E3,5.257E3,5.481E3,5.239E3,5.066E3,4.493E3,3.756E3,4.411E3,2.601E3,4.103E3,3.583E3,3.557E3,2.86E3,5.8E2,4.511E3,4.19E2,4.052E3,3.95E2,4.097E3,3.575E3,2.85E2,1.5E2,2.666E3,1.504E3,1.431E3,1.41E2,3.051E3,3.009E3,2E2,9.9E2,1.57E3,1.54E2,2.409E3,2.5E1,1.863E3,1.036E3,8.97E2,3.4E1,1.236E3,1.4E1,1.251E3,1.9E1,6.31E2,7E0,6.49E2,1.5E1,6.17E2],"tree_param":{"num_deleted":"0","num_feature":"12","num_nodes":"117","size_leaf_vector":"1"}},{"base_weights":[1.4070633E2,-3.225445E4,1.9653616E5,-5.3280242E4,2.1106748E4,1.4968455E5,3.9381847E5,-6.385145E4,-3.504373E4,2.4005356E3,5.0627957E4,1.1494828E5,2.060292E5,3.306097E5,5.565834E5,-6.903241E4,-5.694489E4,-4.2694883E4,-2.6286129E4,-7.8901216E3,1.2764875E4,3.7716137E4,6.5891516E4,9.782374E4,1.3633414E5,1.8521972E5,2.4213753E5,2.9647384E5,3.8143666E5,4.7813188E5,6.3364E5,-7.112753E4,-6.615782E4,-6.0236113E4,-5.3489758E4,-4.6514625E4,-3.9041477E4,-3.0996117E4,-2.1931316E4,-1.2069949E4,-3.2003394E3,7.094643E3,1.9082914E4,3.0559566E4,4.3757527E4,5.7538797E4,7.278751E4,8.8752414E4,1.0673908E5,1.2541921E5,1.4727247E5,1.732663E5,2.0186916E5,2.2839311E5,1.2777537E4,1.4256432E4,3.188774E5,3.5849688E5,2.0151076E4,2.2358326E4,2.4667605E4,3.2569342E4,2.923826E4,-3.6023865E3,-3.507282E3,-3.3853845E3,-3.2418762E3,-3.099794E3,-2.9379668E3,-2.7705334E3,-2.586868E3,-2.2380417E3,-2.4153274E3,-2.0436272E3,-1.8411514E3,-1.6510977E3,-1.4524772E3,-1.2111979E3,-9.4128143E2,-7.6149786E2,-4.9784464E2,-1.14559355E1,-2.7679596E2,2.3151012E2,5.3829803E2,8.900665E2,1.4256632E3,9.520102E2,1.593076E3,2.0814858E3,2.6226172E3,1.7382914E3,2.9169377E3,2.4772742E3,3.7044773E3,4.3423354E3,5.293206E3,5.243944E3,6.371247E3,5.8847935E3,6.5095537E3,5.4293843E3,7.4180405E3,8.26825E3,8.987989E3,9.332118E3,1.0239801E4,8.1429453E3,1.1504012E4,1.1323665E4,1.6052114E4,1.1710065E4,1.7985756E4],"categories":[],"categories_nodes":[],"categories_segments":[],"categories_sizes":[],"default_left":[0,0,0,0,0,0,0,0,0,0,0,0,0,0,0,0,0,0,0,0,0,0,0,0,0,0,0,0,0,0,0,0,0,0,0,0,0,0,0,0,0,0,0,0,0,0,0,0,0,0,0,0,0,0,0,0,0,0,0,0,0,0,0,0,0,0,0,0,0,0,0,0,0,0,0,0,0,0,0,0,0,0,0,0,0,0,0,0,0,0,0,0,0,0,0,0,0,0,0,0,0,0,0,0,0,0,0,0,0,0,0,0,0],"id":9,"left_children":[1,3,5,7,9,11,13,15,17,19,21,23,25,27,29,31,33,35,37,39,41,43,45,47,49,51,53,55,57,59,61,63,65,67,69,71,73,75,77,79,81,83,85,87,89,91,93,95,97,99,101,103,105,107,-1,-1,109,111,-1,-1,-1,-1,-1,-1,-1,-1,-1,-1,-1,-1,-1,-1,-1,-1,-1,-1,-1,-1,-1,-1,-1,-1,-1,-1,-1,-1,-1,-1,-1,-1,-1,-1,-1,-1,-1,-1,-1,-1,-1,-1,-1,-1,-1,-1,-1,-1,-1,-1,-1,-1,-1,-1,-1],"loss_changes":[1.04182666E15,1.5770966E14,2.1424907E14,1.943674E13,2.1941084E13,3.66504E13,4.558806E13,2.2800908E12,2.4783597E12,2.594185E12,3.0347216E12,4.2326567E12,5.3238804E12,5.451119E12,7.2112165E12,2.1493291E11,3.0797097E11,2.7377061E11,3.5327993E11,2.3920961E11,4.3398896E11,3.597224E11,4.0252526E11,5.1152054E11,5.967488E11,8.679693E11,4.2263485E11,3.978549E11,4.9179053E11,7.158838E10,1.6033985E11,1.3992198E10,2.7103592E10,3.275332E10,4.2106618E10,2.8160557E10,3.952083E10,3.1724143E10,6.341237E10,4.2936828E10,3.99218E10,5.7747145E10,6.875631E10,5.677436E10,8.1551426E10,5.6230937E10,1.13262985E11,9.512472E10,1.1146363E11,7.998538E10,9.200625E10,1.0613267E11,4.6011515E10,1.0604039E11,0E0,0E0,5.4916022E10,1.145045E10,0E0,0E0,0E0,0E0,0E0,0E0,0E0,0E0,0E0,0E0,0E0,0E0,0E0,0E0,0E0,0E0,0E0,0E0,0E0,0E0,0E0,0E0,0E0,0E0,0E0,0E0,0E0,0E0,0E0,0E0,0E0,0E0,0E0,0E0,0E0,0E0,0E0,0E0,0E0,0E0,0E0,0E0,0E0,0E0,0E0,0E0,0E0,0E0,0E0,0E0,0E0,0E0,0E0,0E0,0E0],"parents":[2147483647,0,0,1,1,2,2,3,3,4,4,5,5,6,6,7,7,8,8,9,9,10,10,11,11,12,12,13,13,14,14,15,15,16,16,17,17,18,18,19,19,20,20,21,21,22,22,23,23,24,24,25,25,26,26,27,27,28,28,29,29,30,30,31,31,32,32,33,33,34,34,35,35,36,36,37,37,38,38,39,39,40,40,41,41,42,42,43,43,44,44,45,45,46,46,47,47,48,48,49,49,50,50,51,51,52,52,53,53,56,56,57,57],"right_children":[2,4,6,8,10,12,14,16,18,20,22,24,26,28,30,32,34,36,38,40,42,44,46,48,50,52,54,56,58,60,62,64,66,68,70,72,74,76,78,80,82,84,86,88,90,92,94,96,98,100,102,104,106,108,-1,-1,110,112,-1,-1,-1,-1,-1,-1,-1,-1,-1,-1,-1,-1,-1,-1,-1,-1,-1,-1,-1,-1,-1,-1,-1,-1,-1,-1,-1,-1,-1,-1,-1,-1,-1,-1,-1,-1,-1,-1,-1,-1,-1,-1,-1,-1,-1,-1,-1,-1,-1,-1,-1,-1,-1,-1,-1],"split_conditions":[2.428942E5,8.814925E4,5.41026E5,3.5607E4,1.5452081E5,3.6679862E5,7.919305E5,1.421292E4,5.916775E4,1.1668908E5,1.9546525E5,2.9808362E5,4.559201E5,6.5028606E5,9.7243194E5,5.31602E3,2.411982E4,4.636103E4,7.171742E4,1.0222285E5,1.3475975E5,1.7168178E5,2.1596428E5,2.6817166E5,3.2955916E5,4.1348366E5,4.9772334E5,5.9688544E5,7.1426044E5,1.1708615E5,-1.4326E5,1.42884E3,9.0875E3,1.845418E4,2.929253E4,-5.70952E3,7.58902E3,9.24188E3,8.045977E4,1.303957E4,-1.584471E4,1.836077E4,2.459184E4,1.809218E4,2.911298E4,1.656667E4,2.3309E4,4.316013E4,4.900346E4,4.316013E4,2.746679E4,5.473079E4,5.63856E4,3.860486E4,1.2777537E4,1.4256432E4,4.127675E4,2.291599E4,2.0151076E4,2.2358326E4,2.4667605E4,3.2569342E4,2.923826E4,-3.6023865E3,-3.507282E3,-3.3853845E3,-3.2418762E3,-3.099794E3,-2.9379668E3,-2.7705334E3,-2.586868E3,-2.2380417E3,-2.4153274E3,-2.0436272E3,-1.8411514E3,-1.6510977E3,-1.4524772E3,-1.2111979E3,-9.4128143E2,-7.6149786E2,-4.9784464E2,-1.14559355E1,-2.7679596E2,2.3151012E2,5.3829803E2,8.900665E2,1.4256632E3,9.520102E2,1.593076E3,2.0814858E3,2.6226172E3,1.7382914E3,2.9169377E3,2.4772742E3,3.7044773E3,4.3423354E3,5.293206E3,5.243944E3,6.371247E3,5.8847935E3,6.5095537E3,5.4293843E3,7.4180405E3,8.26825E3,8.987989E3,9.332118E3,1.0239801E4,8.1429453E3,1.1504012E4,1.1323665E4,1.6052114E4,1.1710065E4,1.7985756E4],"split_indices":[8,8,8,8,8,8,8,8,8,8,8,8,8,8,8,8,8,8,8,8,8,8,8,8,8,8,8,8,8,0,3,8,8,8,8,3,0,0,8,0,3,0,0,0,0,0,0,0,0,0,0,0,0,0,0,0,0,0,0,0,0,0,0,0,0,0,0,0,0,0,0,0,0,0,0,0,0,0,0,0,0,0,0,0,0,0,0,0,0,0,0,0,0,0,0,0,0,0,0,0,0,0,0,0,0,0,0,0,0,0,0,0,0],"split_type":[0,0,0,0,0,0,0,0,0,0,0,0,0,0,0,0,0,0,0,0,0,0,0,0,0,0,0,0,0,0,0,0,0,0,0,0,0,0,0,0,0,0,0,0,0,0,0,0,0,0,0,0,0,0,0,0,0,0,0,0,0,0,0,0,0,0,0,0,0,0,0,0,0,0,0,0,0,0,0,0,0,0,0,0,0,0,0,0,0,0,0,0,0,0,0,0,0,0,0,0,0,0,0,0,0,0,0,0,0,0,0,0,0],"sum_hessian":[1.63749E5,1.40564E5,2.3185E4,1.00833E5,3.9731E4,1.8737E4,4.448E3,6.383E4,3.7003E4,2.4321E4,1.541E4,1.1593E4,7.144E3,3.206E3,1.242E3,3.6466E4,2.7364E4,1.9747E4,1.7256E4,1.2204E4,1.2117E4,8.35E3,7.06E3,6.441E3,5.152E3,4.536E3,2.608E3,1.922E3,1.284E3,6.19E2,6.23E2,2.1079E4,1.5387E4,1.4006E4,1.3358E4,9.648E3,1.0099E4,8.287E3,8.969E3,6.452E3,5.752E3,6.387E3,5.73E3,3.825E3,4.525E3,3.197E3,3.863E3,3.198E3,3.243E3,2.585E3,2.567E3,2.647E3,1.889E3,1.297E3,1.311E3,1.285E3,6.37E2,6.31E2,6.53E2,2.14E2,4.05E2,4.48E2,1.75E2,1.0844E4,1.0235E4,7.055E3,8.332E3,6.372E3,7.634E3,6.358E3,7E3,4.889E3,4.759E3,5.523E3,4.576E3,4.053E3,4.234E3,5.156E3,3.813E3,2.583E3,3.869E3,2.532E3,3.22E3,3.823E3,2.564E3,5.047E3,6.83E2,3.9E2,3.435E3,3.64E3,8.85E2,1.1E2,3.087E3,2.07E2,3.656E3,2.883E3,3.15E2,2.981E3,2.62E2,9.97E2,1.588E3,7.3E1,2.494E3,1.206E3,1.441E3,3.15E2,1.574E3,3.5E1,1.262E3,1.7E1,6.2E2,8E0,6.23E2],"tree_param":{"num_deleted":"0","num_feature":"12","num_nodes":"113","size_leaf_vector":"1"}},{"base_weights":[-8.851403E0,-3.119955E4,1.8423016E5,-5.082832E4,1.853456E4,1.3986044E5,3.7465653E5,-6.077827E4,-3.3798133E4,1.2849806E3,4.5928348E4,1.0759939E5,1.9592827E5,3.1330253E5,5.283973E5,-6.558345E4,-5.42596E4,-4.0935957E4,-2.5629975E4,-7.916023E3,1.1491608E4,3.39471E4,6.0124695E4,9.161875E4,1.2975663E5,1.7249119E5,2.241061E5,2.8208962E5,3.6010875E5,4.5390656E5,5.9999894E5,-6.756757E4,-6.285721E4,-5.737281E4,-5.112282E4,-4.4358387E4,-3.7310902E4,-2.9983693E4,-2.1596037E4,-1.2826595E4,-3.8423137E3,6.230516E3,1.6812254E4,2.8412135E4,4.045958E4,5.372877E4,6.77337E4,8.158967E4,9.998246E4,1.1922369E5,1.4030894E5,1.6105525E5,1.8342305E5,2.1163006E5,2.427959E5,2.7068088E5,3.0364612E5,3.385458E5,1.9009783E4,2.121716E4,2.3460496E4,2.7426021E4,3.0955988E4,-3.4199395E3,-3.3285266E3,-3.2104226E3,-3.0751536E3,-2.944987E3,-2.7989949E3,-2.6374773E3,-2.464753E3,-2.2968872E3,-2.1152507E3,-1.9540155E3,-1.7668951E3,-1.6163087E3,-1.4189296E3,-1.2092661E3,-9.562243E2,-7.1071436E2,-4.413794E2,-3.2771164E2,-5.107939E1,2.5495068E2,6.764238E2,7.851947E2,1.3049623E3,8.1450104E2,1.4800244E3,1.9292672E3,2.4553591E3,2.5791797E3,3.139763E3,3.318963E3,4.3889023E3,2.7370376E3,4.125061E3,4.707458E3,5.3609614E3,4.7955425E3,6.0404277E3,5.2217847E3,7.0813203E3,7.9794214E3,9.837261E3,9.069691E3,1.0535455E4,7.612383E3,1.0655352E4,9.437489E3,1.2177766E4,1.053422E4,1.3581002E4,1.1006976E4,1.52493955E4,1.0399159E4,1.6973768E4],"categories":[],"categories_nodes":[],"categories_segments":[],"categories_sizes":[],"default_left":[0,0,0,0,0,0,0,0,0,0,0,0,0,0,0,0,0,0,0,0,0,0,0,0,0,0,0,0,0,0,0,0,0,0,0,0,0,0,0,0,0,0,0,0,0,0,0,0,0,0,0,0,0,0,0,0,0,0,0,0,0,0,0,0,0,0,0,0,0,0,0,0,0,0,0,0,0,0,0,0,0,0,0,0,0,0,0,0,0,0,0,0,0,0,0,0,0,0,0,0,0,0,0,0,0,0,0,0,0,0,0,0,0,0,0,0,0],"id":10,"left_children":[1,3,5,7,9,11,13,15,17,19,21,23,25,27,29,31,33,35,37,39,41,43,45,47,49,51,53,55,57,59,61,63,65,67,69,71,73,75,77,79,81,83,85,87,89,91,93,95,97,99,101,103,105,107,109,111,113,115,-1,-1,-1,-1,-1,-1,-1,-1,-1,-1,-1,-1,-1,-1,-1,-1,-1,-1,-1,-1,-1,-1,-1,-1,-1,-1,-1,-1,-1,-1,-1,-1,-1,-1,-1,-1,-1,-1,-1,-1,-1,-1,-1,-1,-1,-1,-1,-1,-1,-1,-1,-1,-1,-1,-1,-1,-1,-1,-1],"loss_changes":[9.400311E14,1.365721E14,2.0005756E14,1.6995253E13,1.8707456E13,3.4726086E13,4.204538E13,1.9796779E12,2.1558639E12,2.2815703E12,2.5998268E12,4.3065604E12,4.5940715E12,4.5749455E12,6.5280483E12,1.9287088E11,2.594932E11,2.4326334E11,3.0239464E11,2.5554492E11,3.223118E11,2.979623E11,3.370291E11,5.8646856E11,5.510141E11,4.49772E11,6.9058376E11,3.912279E11,4.2439646E11,8.546314E10,2.972587E11,1.2918456E10,2.416758E10,2.5371345E10,3.7226545E10,3.0968644E10,3.2107397E10,3.027501E10,5.6877646E10,3.2022135E10,5.3425627E10,4.7767618E10,5.852981E10,6.4183075E10,5.985639E10,7.082397E10,8.085989E10,7.450971E10,1.5289916E11,8.311013E10,1.0553708E11,6.712564E10,6.991485E10,1.3561024E11,6.0230205E9,1.4218691E10,6.5892516E9,5.2344914E9,0E0,0E0,0E0,0E0,0E0,0E0,0E0,0E0,0E0,0E0,0E0,0E0,0E0,0E0,0E0,0E0,0E0,0E0,0E0,0E0,0E0,0E0,0E0,0E0,0E0,0E0,0E0,0E0,0E0,0E0,0E0,0E0,0E0,0E0,0E0,0E0,0E0,0E0,0E0,0E0,0E0,0E0,0E0,0E0,0E0,0E0,0E0,0E0,0E0,0E0,0E0,0E0,0E0,0E0,0E0,0E0,0E0,0E0,0E0],"parents":[2147483647,0,0,1,1,2,2,3,3,4,4,5,5,6,6,7,7,8,8,9,9,10,10,11,11,12,12,13,13,14,14,15,15,16,16,17,17,18,18,19,19,20,20,21,21,22,22,23,23,24,24,25,25,26,26,27,27,28,28,29,29,30,30,31,31,32,32,33,33,34,34,35,35,36,36,37,37,38,38,39,39,40,40,41,41,42,42,43,43,44,44,45,45,46,46,47,47,48,48,49,49,50,50,51,51,52,52,53,53,54,54,55,55,56,56,57,57],"right_children":[2,4,6,8,10,12,14,16,18,20,22,24,26,28,30,32,34,36,38,40,42,44,46,48,50,52,54,56,58,60,62,64,66,68,70,72,74,76,78,80,82,84,86,88,90,92,94,96,98,100,102,104,106,108,110,112,114,116,-1,-1,-1,-1,-1,-1,-1,-1,-1,-1,-1,-1,-1,-1,-1,-1,-1,-1,-1,-1,-1,-1,-1,-1,-1,-1,-1,-1,-1,-1,-1,-1,-1,-1,-1,-1,-1,-1,-1,-1,-1,-1,-1,-1,-1,-1,-1,-1,-1,-1,-1,-1,-1,-1,-1,-1,-1,-1,-1],"split_conditions":[2.3843592E5,8.67978E4,5.41026E5,3.500876E4,1.5208216E5,3.6679862E5,7.919305E5,1.421292E4,5.835802E4,1.1668908E5,1.9171981E5,2.9808362E5,4.4061188E5,6.5028606E5,9.7243194E5,5.31602E3,2.360621E4,4.636103E4,7.062115E4,9.938148E4,1.327353E5,1.7168178E5,2.1596428E5,2.623003E5,3.2955916E5,3.9989828E5,4.9772334E5,5.9688544E5,7.1426044E5,1.1708615E5,1.4326E5,1.6104E3,9.46868E3,1.845418E4,2.929253E4,4.101486E4,5.24084E4,8.84116E3,1.108615E4,1.448596E4,1.538705E4,2.076242E4,2.459184E4,1.757758E4,2.911298E4,3.222309E4,4.218089E4,2.3309E4,4.032345E4,3.355236E4,2.971201E4,7.510975E4,7.212987E4,3.777857E4,2.911298E4,4.659562E4,3.699912E4,2.212701E4,1.9009783E4,2.121716E4,2.3460496E4,2.7426021E4,3.0955988E4,-3.4199395E3,-3.3285266E3,-3.2104226E3,-3.0751536E3,-2.944987E3,-2.7989949E3,-2.6374773E3,-2.464753E3,-2.2968872E3,-2.1152507E3,-1.9540155E3,-1.7668951E3,-1.6163087E3,-1.4189296E3,-1.2092661E3,-9.562243E2,-7.1071436E2,-4.413794E2,-3.2771164E2,-5.107939E1,2.5495068E2,6.764238E2,7.851947E2,1.3049623E3,8.1450104E2,1.4800244E3,1.9292672E3,2.4553591E3,2.5791797E3,3.139763E3,3.318963E3,4.3889023E3,2.7370376E3,4.125061E3,4.707458E3,5.3609614E3,4.7955425E3,6.0404277E3,5.2217847E3,7.0813203E3,7.9794214E3,9.837261E3,9.069691E3,1.0535455E4,7.612383E3,1.0655352E4,9.437489E3,1.2177766E4,1.053422E4,1.3581002E4,1.1006976E4,1.52493955E4,1.0399159E4,1.6973768E4],"split_indices":[8,8,8,8,8,8,8,8,8,8,8,8,8,8,8,8,8,8,8,8,8,8,8,8,8,8,8,8,8,0,0,8,8,8,8,8,8,0,0,0,0,0,0,0,0,0,0,0,0,0,0,0,0,0,0,0,0,0,0,0,0,0,0,0,0,0,0,0,0,0,0,0,0,0,0,0,0,0,0,0,0,0,0,0,0,0,0,0,0,0,0,0,0,0,0,0,0,0,0,0,0,0,0,0,0,0,0,0,0,0,0,0,0,0,0,0,0],"split_type":[0,0,0,0,0,0,0,0,0,0,0,0,0,0,0,0,0,0,0,0,0,0,0,0,0,0,0,0,0,0,0,0,0,0,0,0,0,0,0,0,0,0,0,0,0,0,0,0,0,0,0,0,0,0,0,0,0,0,0,0,0,0,0,0,0,0,0,0,0,0,0,0,0,0,0,0,0,0,0,0,0,0,0,0,0,0,0,0,0,0,0,0,0,0,0,0,0,0,0,0,0,0,0,0,0,0,0,0,0,0,0,0,0,0,0,0,0],"sum_hessian":[1.6358E5,1.39897E5,2.3683E4,1.00308E5,3.9589E4,1.9209E4,4.474E3,6.3314E4,3.6994E4,2.4293E4,1.5296E4,1.2195E4,7.014E3,3.2E3,1.274E3,3.6442E4,2.6872E4,1.974E4,1.7254E4,1.2776E4,1.1517E4,8.297E3,6.999E3,7.088E3,5.107E3,3.833E3,3.181E3,1.924E3,1.276E3,6.28E2,6.46E2,2.1078E4,1.5364E4,1.3478E4,1.3394E4,1.0148E4,9.592E3,8.295E3,8.959E3,5.792E3,6.984E3,5.792E3,5.725E3,4.488E3,3.809E3,3.807E3,3.192E3,3.228E3,3.86E3,2.562E3,2.545E3,1.881E3,1.952E3,1.915E3,1.266E3,1.267E3,6.57E2,6.24E2,6.52E2,2.24E2,4.04E2,1.83E2,4.63E2,1.1458E4,9.62E3,7.667E3,7.697E3,6.41E3,7.068E3,7.072E3,6.322E3,5.724E3,4.424E3,5.047E3,4.545E3,3.365E3,4.93E3,4.371E3,4.588E3,4.298E3,1.494E3,3.56E3,3.424E3,5.016E3,7.76E2,5.117E3,6.08E2,4.02E2,4.086E3,3.135E3,6.74E2,3.084E3,7.23E2,2.994E3,1.98E2,1.08E2,3.12E3,2.145E3,1.715E3,1.67E2,2.395E3,9.3E1,2.452E3,1.812E3,6.9E1,1.824E3,1.28E2,4.9E1,1.866E3,2.1E1,1.245E3,2.3E1,1.244E3,1.3E1,6.44E2,6E0,6.18E2],"tree_param":{"num_deleted":"0","num_feature":"12","num_nodes":"117","size_leaf_vector":"1"}},{"base_weights":[7.907959E1,-2.7758092E4,1.879169E5,-4.7010008E4,2.4547932E4,1.500611E5,3.9742138E5,-5.6828824E4,-2.8691803E4,7.4822285E3,5.4248297E4,1.1651958E5,2.1064003E5,3.523311E5,5.741413E5,-6.1650844E4,-4.9494727E4,-3.557929E4,-1.9883172E4,-1.143765E3,1.942635E4,4.268519E4,6.81567E4,9.871037E4,1.3906195E5,1.8804262E5,2.4436042E5,3.25216E5,4.328358E5,5.436061E5,6.352402E5,-6.3645145E4,-5.8081242E4,-5.251247E4,-4.6167297E4,-3.917984E4,-3.192464E4,-2.3593738E4,-1.5185254E4,-6.3394185E3,4.0307417E3,1.4046368E4,2.4836396E4,3.746486E4,4.9973664E4,6.157783E4,7.473067E4,8.954269E4,1.07597234E5,1.2766566E5,1.5053417E5,1.7428112E5,2.0125294E5,2.3029997E5,2.5812012E5,3.0535375E5,1.8180959E4,1.691989E4,4.368923E5,1.757364E4,2.7429873E4,2.5610863E4,3.2674025E4,-3.2276199E3,-3.0943835E3,-2.9616975E3,-2.8290703E3,-2.7087566E3,-2.5565142E3,-2.401643E3,-2.2323923E3,-1.8550006E3,-2.0367529E3,-1.707221E3,-1.5082666E3,-1.2963494E3,-1.0737455E3,-8.505801E2,-6.041381E2,-1.9561906E2,-4.5443887E2,3.677607E2,7.608744E1,2.8573984E2,7.597523E2,1.5719248E3,1.1406542E3,1.186089E3,1.9301891E3,2.4395203E3,3.3280286E3,2.2672195E3,3.1451343E3,2.575355E3,3.7898242E3,4.405179E3,5.506407E3,5.1802593E3,5.8506597E3,6.7256284E3,6.140328E3,5.9087305E3,7.5945815E3,8.972659E3,8.276112E3,6.8032554E3,1.0120731E4,9.003263E3,1.1554105E4,1.3443547E4,1.2574284E4,1.4400062E4,1.6195726E4,2.1391252E4,2.3669373E4],"categories":[],"categories_nodes":[],"categories_segments":[],"categories_sizes":[],"default_left":[0,0,0,0,0,0,0,0,0,0,0,0,0,0,0,0,0,0,0,0,0,0,0,0,0,0,0,0,0,0,0,0,0,0,0,0,0,0,0,0,0,0,0,0,0,0,0,0,0,0,0,0,0,0,0,0,0,0,0,0,0,0,0,0,0,0,0,0,0,0,0,0,0,0,0,0,0,0,0,0,0,0,0,0,0,0,0,0,0,0,0,0,0,0,0,0,0,0,0,0,0,0,0,0,0,0,0,0,0,0,0,0,0,0,0],"id":11,"left_children":[1,3,5,7,9,11,13,15,17,19,21,23,25,27,29,31,33,35,37,39,41,43,45,47,49,51,53,55,57,59,61,63,65,67,69,71,73,75,77,79,81,83,85,87,89,91,93,95,97,99,101,103,105,107,109,111,-1,-1,113,-1,-1,-1,-1,-1,-1,-1,-1,-1,-1,-1,-1,-1,-1,-1,-1,-1,-1,-1,-1,-1,-1,-1,-1,-1,-1,-1,-1,-1,-1,-1,-1,-1,-1,-1,-1,-1,-1,-1,-1,-1,-1,-1,-1,-1,-1,-1,-1,-1,-1,-1,-1,-1,-1,-1,-1],"loss_changes":[8.538698E14,1.4321746E14,1.6710127E14,1.8696748E13,1.9393994E13,3.6251135E13,2.5495664E13,2.3904513E12,2.200376E12,2.503855E12,2.2426776E12,4.600279E12,4.801069E12,5.4736674E12,8.748144E11,2.869575E11,2.6720652E11,2.6664659E11,2.7719316E11,3.794259E11,2.962699E11,2.883217E11,2.6946935E11,5.1374352E11,6.436411E11,6.5811146E11,4.337246E11,1.359592E12,9.924562E10,2.3202051E11,1.4100411E11,3.7757125E10,2.1969764E10,2.9569843E10,3.407872E10,3.1647072E10,3.8447088E10,4.341262E10,3.962241E10,4.6954283E10,5.8968564E10,4.883638E10,6.7142156E10,6.8705845E10,5.9165377E10,6.5390248E10,7.443631E10,8.414613E10,1.1030181E11,6.8316824E10,9.279059E10,5.5238984E10,1.19294394E11,8.292139E9,2.3672652E10,3.1799535E11,0E0,0E0,9.8146714E8,0E0,0E0,0E0,0E0,0E0,0E0,0E0,0E0,0E0,0E0,0E0,0E0,0E0,0E0,0E0,0E0,0E0,0E0,0E0,0E0,0E0,0E0,0E0,0E0,0E0,0E0,0E0,0E0,0E0,0E0,0E0,0E0,0E0,0E0,0E0,0E0,0E0,0E0,0E0,0E0,0E0,0E0,0E0,0E0,0E0,0E0,0E0,0E0,0E0,0E0,0E0,0E0,0E0,0E0,0E0,0E0],"parents":[2147483647,0,0,1,1,2,2,3,3,4,4,5,5,6,6,7,7,8,8,9,9,10,10,11,11,12,12,13,13,14,14,15,15,16,16,17,17,18,18,19,19,20,20,21,21,22,22,23,23,24,24,25,25,26,26,27,27,28,28,29,29,30,30,31,31,32,32,33,33,34,34,35,35,36,36,37,37,38,38,39,39,40,40,41,41,42,42,43,43,44,44,45,45,46,46,47,47,48,48,49,49,50,50,51,51,52,52,53,53,54,54,55,55,58,58],"right_children":[2,4,6,8,10,12,14,16,18,20,22,24,26,28,30,32,34,36,38,40,42,44,46,48,50,52,54,56,58,60,62,64,66,68,70,72,74,76,78,80,82,84,86,88,90,92,94,96,98,100,102,104,106,108,110,112,-1,-1,114,-1,-1,-1,-1,-1,-1,-1,-1,-1,-1,-1,-1,-1,-1,-1,-1,-1,-1,-1,-1,-1,-1,-1,-1,-1,-1,-1,-1,-1,-1,-1,-1,-1,-1,-1,-1,-1,-1,-1,-1,-1,-1,-1,-1,-1,-1,-1,-1,-1,-1,-1,-1,-1,-1,-1,-1],"split_conditions":[2.5694306E5,9.501551E4,5.9688544E5,3.950346E4,1.6858588E5,3.9989828E5,9.7243194E5,1.702475E4,6.558987E4,1.3060067E5,2.1142773E5,3.212651E5,4.9772334E5,7.919305E5,1.1E1,7.96138E3,2.7628E4,5.16964E4,8.045977E4,1.1169572E5,1.4762489E5,1.9171981E5,2.3415753E5,2.8597616E5,3.5783156E5,4.4061188E5,5.41026E5,7.1426044E5,8.269507E4,7.510975E4,9.054734E4,3.69354E3,1.299022E4,2.171488E4,3.274138E4,-6.69096E3,8.08761E3,1.029335E4,1.303957E4,-1.448596E4,-1.757758E4,1.656667E4,-2.459184E4,1.890843E4,3.777857E4,2.459184E4,2.417266E4,4.900346E4,4.53737E4,-4.89905E4,3.625573E4,-5.809444E4,3.222309E4,2.911298E4,-8.269507E4,6.5028606E5,1.8180959E4,1.691989E4,1.3416925E5,1.757364E4,2.7429873E4,2.5610863E4,3.2674025E4,-3.2276199E3,-3.0943835E3,-2.9616975E3,-2.8290703E3,-2.7087566E3,-2.5565142E3,-2.401643E3,-2.2323923E3,-1.8550006E3,-2.0367529E3,-1.707221E3,-1.5082666E3,-1.2963494E3,-1.0737455E3,-8.505801E2,-6.041381E2,-1.9561906E2,-4.5443887E2,3.677607E2,7.608744E1,2.8573984E2,7.597523E2,1.5719248E3,1.1406542E3,1.186089E3,1.9301891E3,2.4395203E3,3.3280286E3,2.2672195E3,3.1451343E3,2.575355E3,3.7898242E3,4.405179E3,5.506407E3,5.1802593E3,5.8506597E3,6.7256284E3,6.140328E3,5.9087305E3,7.5945815E3,8.972659E3,8.276112E3,6.8032554E3,1.0120731E4,9.003263E3,1.1554105E4,1.3443547E4,1.2574284E4,1.4400062E4,1.6195726E4,2.1391252E4,2.3669373E4],"split_indices":[8,8,8,8,8,8,8,8,8,8,8,8,8,8,7,8,8,8,8,8,8,8,8,8,8,8,8,8,0,0,11,8,8,8,8,3,0,0,0,3,3,0,3,0,0,0,0,0,0,3,0,3,0,0,3,8,0,0,11,0,0,0,0,0,0,0,0,0,0,0,0,0,0,0,0,0,0,0,0,0,0,0,0,0,0,0,0,0,0,0,0,0,0,0,0,0,0,0,0,0,0,0,0,0,0,0,0,0,0,0,0,0,0,0,0],"split_type":[0,0,0,0,0,0,0,0,0,0,0,0,0,0,0,0,0,0,0,0,0,0,0,0,0,0,0,0,0,0,0,0,0,0,0,0,0,0,0,0,0,0,0,0,0,0,0,0,0,0,0,0,0,0,0,0,0,0,0,0,0,0,0,0,0,0,0,0,0,0,0,0,0,0,0,0,0,0,0,0,0,0,0,0,0,0,0,0,0,0,0,0,0,0,0,0,0,0,0,0,0,0,0,0,0,0,0,0,0,0,0,0,0,0,0],"sum_hessian":[1.63297E5,1.42221E5,2.1076E4,1.03958E5,3.8263E4,1.7852E4,3.224E3,6.7679E4,3.6279E4,2.4301E4,1.3962E4,1.1492E4,6.36E3,2.571E3,6.53E2,4.0828E4,2.6851E4,2.0358E4,1.5921E4,1.4111E4,1.019E4,7.626E3,6.336E3,6.423E3,5.069E3,3.812E3,2.548E3,1.927E3,6.44E2,4.42E2,2.11E2,2.6183E4,1.4645E4,1.4073E4,1.2778E4,1.025E4,1.0108E4,8.893E3,7.028E3,7.041E3,7.07E3,5.111E3,5.079E3,4.447E3,3.179E3,3.172E3,3.164E3,3.167E3,3.256E3,2.549E3,2.52E3,1.874E3,1.938E3,1.269E3,1.279E3,1.276E3,6.51E2,3E1,6.14E2,1.3E1,4.29E2,3.1E1,1.8E2,1.7245E4,8.938E3,8.259E3,6.386E3,6.371E3,7.702E3,5.722E3,7.056E3,4.396E3,5.854E3,4.461E3,5.647E3,4.227E3,4.666E3,4.421E3,2.607E3,3.741E3,3.3E3,3.04E3,4.03E3,6.2E2,4.491E3,1.188E3,3.891E3,3.42E2,4.105E3,2.971E3,2.08E2,2.42E2,2.93E3,1.41E2,3.023E3,2.965E3,2.02E2,2.295E3,9.61E2,1.047E3,1.502E3,1.05E2,2.415E3,1.166E3,7.08E2,3.6E1,1.902E3,2.3E1,1.246E3,4.73E2,8.06E2,6.68E2,6.08E2,5.02E2,1.12E2],"tree_param":{"num_deleted":"0","num_feature":"12","num_nodes":"115","size_leaf_vector":"1"}},{"base_weights":[1.1455938E2,-2.6754037E4,1.7494752E5,-4.4865473E4,2.1979262E4,1.3635633E5,3.5474084E5,-5.3986938E4,-2.7560307E4,5.462026E3,4.861073E4,1.06547305E5,1.8981808E5,2.9495684E5,4.754364E5,-5.8487035E4,-4.6869035E4,-3.4035844E4,-1.9516242E4,-2.4788567E3,1.5896955E4,3.6777023E4,6.1317254E4,9.020581E4,1.26840734E5,1.6982612E5,2.191307E5,2.6408944E5,3.26343E5,4.1154953E5,5.413225E5,-6.0407727E4,-5.496007E4,-4.9469973E4,-4.356536E4,-3.7103562E4,-3.0318525E4,-2.3270523E4,-1.5476004E4,-6.8734683E3,2.2839956E3,1.110153E4,2.0690217E4,3.1977568E4,4.332765E4,5.3671348E4,6.755446E4,8.171396E4,9.861663E4,1.1626609E5,1.373538E5,1.5839923E5,1.8123589E5,2.0725711E5,1.1557392E4,1.2670299E4,1.3693425E4,1.5309944E4,1.7251666E4,2.0084432E4,2.2728123E4,5.189488E5,6.1180806E5,-3.0640234E3,-2.931841E3,-2.8022327E3,-2.6771047E3,-2.5524922E3,-2.400151E3,-2.248212E3,-2.107778E3,-1.9369159E3,-1.7623124E3,-1.6107943E3,-1.4427728E3,-1.2794236E3,-1.0912487E3,-8.8177277E2,-6.6629926E2,-4.5940158E2,-2.4602869E2,-2.2213417E1,2.0733379E2,4.5160074E2,6.601639E2,9.0084296E2,1.1689244E3,1.4311469E3,1.7209856E3,2.0794678E3,2.4059148E3,2.6014111E3,2.8998845E3,3.188489E3,3.5659048E3,3.964804E3,4.40952E3,4.8014126E3,5.291275E3,5.586766E3,6.0407944E3,6.5859155E3,7.1360166E3,7.725078E3,8.303385E3,8.818326E3,9.534124E3,9.167808E3,1.0424455E4,2.1461756E4,2.630564E4,2.3651934E4,3.2121125E4],"categories":[],"categories_nodes":[],"categories_segments":[],"categories_sizes":[],"default_left":[0,0,0,0,0,0,0,0,0,0,0,0,0,0,0,0,0,0,0,0,0,0,0,0,0,0,0,0,0,0,0,0,0,0,0,0,0,0,0,0,0,0,0,0,0,0,0,0,0,0,0,0,0,0,0,0,0,0,0,0,0,0,0,0,0,0,0,0,0,0,0,0,0,0,0,0,0,0,0,0,0,0,0,0,0,0,0,0,0,0,0,0,0,0,0,0,0,0,0,0,0,0,0,0,0,0,0,0,0,0,0,0,0],"id":12,"left_children":[1,3,5,7,9,11,13,15,17,19,21,23,25,27,29,31,33,35,37,39,41,43,45,47,49,51,53,55,57,59,61,63,65,67,69,71,73,75,77,79,81,83,85,87,89,91,93,95,97,99,101,103,105,107,-1,-1,-1,-1,-1,-1,-1,109,111,-1,-1,-1,-1,-1,-1,-1,-1,-1,-1,-1,-1,-1,-1,-1,-1,-1,-1,-1,-1,-1,-1,-1,-1,-1,-1,-1,-1,-1,-1,-1,-1,-1,-1,-1,-1,-1,-1,-1,-1,-1,-1,-1,-1,-1,-1,-1,-1,-1,-1],"loss_changes":[7.698148E14,1.25375925E14,1.5141766E14,1.6345303E13,1.6929769E13,2.862391E13,2.7690594E13,2.1694282E12,1.861386E12,1.9685221E12,2.2130742E12,3.8161707E12,3.7326118E12,2.4152648E12,5.1481894E12,2.7809913E11,2.2358996E11,2.2470145E11,2.4149649E11,2.8239426E11,2.3574164E11,2.3853007E11,3.351102E11,4.4883667E11,5.561228E11,4.705254E11,3.237835E11,6.714242E10,3.7476106E11,9.395241E10,6.681526E11,3.795845E10,1.9541262E10,3.1599886E10,2.0944257E10,3.1563186E10,2.3940039E10,2.7128758E10,3.54361E10,3.1672304E10,3.2907033E10,2.2211592E10,3.6468294E10,3.5127296E10,2.4846008E10,1.9701694E10,5.111808E10,4.294548E10,4.971299E10,3.9518732E10,5.907677E10,3.175927E10,5.418202E10,6.459228E8,0E0,0E0,0E0,0E0,0E0,0E0,0E0,8.330727E10,3.1211913E11,0E0,0E0,0E0,0E0,0E0,0E0,0E0,0E0,0E0,0E0,0E0,0E0,0E0,0E0,0E0,0E0,0E0,0E0,0E0,0E0,0E0,0E0,0E0,0E0,0E0,0E0,0E0,0E0,0E0,0E0,0E0,0E0,0E0,0E0,0E0,0E0,0E0,0E0,0E0,0E0,0E0,0E0,0E0,0E0,0E0,0E0,0E0,0E0,0E0,0E0],"parents":[2147483647,0,0,1,1,2,2,3,3,4,4,5,5,6,6,7,7,8,8,9,9,10,10,11,11,12,12,13,13,14,14,15,15,16,16,17,17,18,18,19,19,20,20,21,21,22,22,23,23,24,24,25,25,26,26,27,27,28,28,29,29,30,30,31,31,32,32,33,33,34,34,35,35,36,36,37,37,38,38,39,39,40,40,41,41,42,42,43,43,44,44,45,45,46,46,47,47,48,48,49,49,50,50,51,51,52,52,53,53,61,61,62,62],"right_children":[2,4,6,8,10,12,14,16,18,20,22,24,26,28,30,32,34,36,38,40,42,44,46,48,50,52,54,56,58,60,62,64,66,68,70,72,74,76,78,80,82,84,86,88,90,92,94,96,98,100,102,104,106,108,-1,-1,-1,-1,-1,-1,-1,110,112,-1,-1,-1,-1,-1,-1,-1,-1,-1,-1,-1,-1,-1,-1,-1,-1,-1,-1,-1,-1,-1,-1,-1,-1,-1,-1,-1,-1,-1,-1,-1,-1,-1,-1,-1,-1,-1,-1,-1,-1,-1,-1,-1,-1,-1,-1,-1,-1,-1,-1],"split_conditions":[2.5227025E5,9.367227E4,5.656938E5,3.950346E4,1.6246306E5,3.8823906E5,7.919305E5,1.749593E4,6.465952E4,1.2695959E5,2.0311352E5,3.1311222E5,4.753177E5,6.5028606E5,9.7243194E5,8.33395E3,2.872733E4,5.24084E4,7.820866E4,1.1005002E5,1.432081E5,1.8462284E5,2.2472581E5,2.7975953E5,3.4844044E5,4.2736584E5,5.19916E5,5.9688544E5,7.1426044E5,1.3416925E5,1.2E1,3.96901E3,1.341155E4,2.265696E4,3.3895E4,4.636103E4,5.75356E4,6.948102E4,8.546969E4,1.0081656E5,1.6676094E4,1.3475975E5,1.5208216E5,1.7168178E5,1.1E1,1.1E1,2.3843592E5,1.1E1,1.1E1,3.2955916E5,3.6679862E5,4.1348366E5,4.559201E5,2E0,1.1557392E4,1.2670299E4,1.3693425E4,1.5309944E4,1.7251666E4,2.0084432E4,2.2728123E4,1.3416925E5,9.054734E4,-3.0640234E3,-2.931841E3,-2.8022327E3,-2.6771047E3,-2.5524922E3,-2.400151E3,-2.248212E3,-2.107778E3,-1.9369159E3,-1.7623124E3,-1.6107943E3,-1.4427728E3,-1.2794236E3,-1.0912487E3,-8.8177277E2,-6.6629926E2,-4.5940158E2,-2.4602869E2,-2.2213417E1,2.0733379E2,4.5160074E2,6.601639E2,9.0084296E2,1.1689244E3,1.4311469E3,1.7209856E3,2.0794678E3,2.4059148E3,2.6014111E3,2.8998845E3,3.188489E3,3.5659048E3,3.964804E3,4.40952E3,4.8014126E3,5.291275E3,5.586766E3,6.0407944E3,6.5859155E3,7.1360166E3,7.725078E3,8.303385E3,8.818326E3,9.534124E3,9.167808E3,1.0424455E4,2.1461756E4,2.630564E4,2.3651934E4,3.2121125E4],"split_indices":[8,8,8,8,8,8,8,8,8,8,8,8,8,8,8,8,8,8,8,8,8,8,8,8,8,8,8,8,8,11,7,8,8,8,8,8,8,8,8,8,9,8,8,8,7,7,8,7,7,8,8,8,8,7,0,0,0,0,0,0,0,11,11,0,0,0,0,0,0,0,0,0,0,0,0,0,0,0,0,0,0,0,0,0,0,0,0,0,0,0,0,0,0,0,0,0,0,0,0,0,0,0,0,0,0,0,0,0,0,0,0,0,0],"split_type":[0,0,0,0,0,0,0,0,0,0,0,0,0,0,0,0,0,0,0,0,0,0,0,0,0,0,0,0,0,0,0,0,0,0,0,0,0,0,0,0,0,0,0,0,0,0,0,0,0,0,0,0,0,0,0,0,0,0,0,0,0,0,0,0,0,0,0,0,0,0,0,0,0,0,0,0,0,0,0,0,0,0,0,0,0,0,0,0,0,0,0,0,0,0,0,0,0,0,0,0,0,0,0,0,0,0,0,0,0,0,0,0,0],"sum_hessian":[1.63875E5,1.42046E5,2.1829E4,1.03559E5,3.8487E4,1.7973E4,3.856E3,6.7813E4,3.5746E4,2.3755E4,1.4732E4,1.1541E4,6.432E3,2.581E3,1.275E3,4.1542E4,2.6271E4,1.9802E4,1.5944E4,1.349E4,1.0265E4,7.63E3,7.102E3,6.396E3,5.145E3,3.828E3,2.604E3,1.306E3,1.275E3,6.51E2,6.24E2,2.6885E4,1.4657E4,1.4691E4,1.158E4,1.0844E4,8.958E3,8.262E3,7.682E3,7.016E3,6.474E3,5.133E3,5.132E3,4.407E3,3.223E3,3.195E3,3.907E3,3.188E3,3.208E3,2.571E3,2.574E3,1.92E3,1.908E3,1.319E3,1.285E3,6.37E2,6.69E2,6.22E2,6.53E2,5.38E2,1.13E2,4.8E2,1.44E2,1.7987E4,8.898E3,8.283E3,6.374E3,7.057E3,7.634E3,5.797E3,5.783E3,5.757E3,5.087E3,3.891E3,5.067E3,3.167E3,5.095E3,3.829E3,3.853E3,3.209E3,3.807E3,2.627E3,3.847E3,2.589E3,2.544E3,2.577E3,2.555E3,1.862E3,2.545E3,2.372E3,8.51E2,2.325E3,8.7E2,1.957E3,1.95E3,2.331E3,8.57E2,2.371E3,8.37E2,1.301E3,1.27E3,1.268E3,1.306E3,1.287E3,6.33E2,1.272E3,6.36E2,7.2E1,1.247E3,4E1,4.4E2,2.9E1,1.15E2],"tree_param":{"num_deleted":"0","num_feature":"12","num_nodes":"113","size_leaf_vector":"1"}},{"base_weights":[1.2133524E1,-2.4979234E4,1.6875425E5,-4.221069E4,2.277146E4,1.315149E5,3.3682275E5,-5.1184082E4,-2.5366037E4,7.7414126E3,4.9857996E4,1.03074766E5,1.8032675E5,2.7998766E5,4.5252928E5,-5.5466785E4,-4.4249875E4,-3.1457584E4,-1.7059424E4,-2.341197E2,1.871706E4,4.0320566E4,6.2591277E4,8.90661E4,1.2303217E5,1.6149208E5,2.0850781E5,2.5104375E5,3.094873E5,3.886555E5,5.1659884E5,-5.737967E4,-5.2114277E4,-4.6870203E4,-4.1227645E4,-3.462705E4,-2.7689553E4,-2.021534E4,-1.2661259E4,-4.4494307E3,4.815858E3,1.3823731E4,2.3595254E4,3.469546E4,4.599533E4,6.92412E4,5.74577E4,8.099102E4,9.707581E4,1.1277237E5,1.3060482E5,1.5082784E5,1.7220614E5,1.9778767E5,2.1922412E5,2.4186911E5,1.3274702E4,2.9378678E5,1.6669014E4,2.6849116E5,3.915312E5,2.6651557E4,2.3683645E4,-2.9084016E3,-2.7808552E3,-2.661626E3,-2.5391814E3,-2.4059302E3,-2.2635642E3,-2.1365583E3,-1.9807998E3,-1.8163475E3,-1.6321991E3,-1.4870981E3,-1.2997734E3,-1.0981188E3,-8.810205E2,-8.548175E2,-5.843554E2,-2.7775208E2,7.3289696E1,-2.579629E2,2.8237845E2,6.296369E2,1.0368058E3,9.9473193E2,1.351436E3,1.6254159E3,2.052566E3,2.1542788E3,2.587586E3,3.3865688E3,4.2279546E3,1.3185402E3,2.9110603E3,3.97594E3,5.0787007E3,4.7700796E3,5.86701E3,5.560863E3,6.8653853E3,6.4463726E3,7.7269688E3,4.9887617E3,7.5697266E3,6.062186E3,8.657788E3,5.976685E3,9.915466E3,8.303914E3,1.1008198E4,9.368772E3,1.221962E4,1.42163125E4,1.5503614E4,9.322812E3,1.5773674E4,1.842075E4,2.011105E4],"categories":[],"categories_nodes":[],"categories_segments":[],"categories_sizes":[],"default_left":[0,0,0,0,0,0,0,0,0,0,0,0,0,0,0,0,0,0,0,0,0,0,0,0,0,0,0,0,0,0,0,0,0,0,0,0,0,0,0,0,0,0,0,0,0,0,0,0,0,0,0,0,0,0,0,0,0,0,0,0,0,0,0,0,0,0,0,0,0,0,0,0,0,0,0,0,0,0,0,0,0,0,0,0,0,0,0,0,0,0,0,0,0,0,0,0,0,0,0,0,0,0,0,0,0,0,0,0,0,0,0,0,0,0,0,0,0,0,0],"id":13,"left_children":[1,3,5,7,9,11,13,15,17,19,21,23,25,27,29,31,33,35,37,39,41,43,45,47,49,51,53,55,57,59,61,63,65,67,69,71,73,75,77,79,81,83,85,87,89,91,93,95,97,99,101,103,105,107,109,111,-1,113,-1,115,117,-1,-1,-1,-1,-1,-1,-1,-1,-1,-1,-1,-1,-1,-1,-1,-1,-1,-1,-1,-1,-1,-1,-1,-1,-1,-1,-1,-1,-1,-1,-1,-1,-1,-1,-1,-1,-1,-1,-1,-1,-1,-1,-1,-1,-1,-1,-1,-1,-1,-1,-1,-1,-1,-1,-1,-1,-1,-1],"loss_changes":[6.893224E14,1.1714747E14,1.3192784E14,1.5812409E13,1.5369717E13,2.3946188E13,2.5020701E13,2.0245738E12,1.8394854E12,2.1255689E12,1.6336751E12,3.0392262E12,3.3389009E12,2.114097E12,4.9473997E12,2.675882E11,2.044891E11,2.4957367E11,2.1331968E11,2.99405E11,2.4360754E11,2.4438846E11,1.929296E11,4.069859E11,3.3465932E11,4.0969123E11,2.4865512E11,1.08263375E11,3.7734475E11,1.1395924E11,1.8837458E11,3.4074526E10,2.012427E10,2.5675432E10,2.765724E10,3.720872E10,3.2566673E10,4.021892E10,2.7585085E10,5.0143314E10,5.311788E10,4.316935E10,6.4465666E10,5.2518453E10,6.197189E10,5.2275708E10,7.586447E10,8.889198E10,9.787828E10,5.7873007E10,8.369314E10,4.041212E10,7.071177E10,2.8588376E10,2.6474447E10,6.5171096E10,0E0,3.0937186E10,0E0,1.0553524E10,4.2865787E9,0E0,0E0,0E0,0E0,0E0,0E0,0E0,0E0,0E0,0E0,0E0,0E0,0E0,0E0,0E0,0E0,0E0,0E0,0E0,0E0,0E0,0E0,0E0,0E0,0E0,0E0,0E0,0E0,0E0,0E0,0E0,0E0,0E0,0E0,0E0,0E0,0E0,0E0,0E0,0E0,0E0,0E0,0E0,0E0,0E0,0E0,0E0,0E0,0E0,0E0,0E0,0E0,0E0,0E0,0E0,0E0,0E0,0E0],"parents":[2147483647,0,0,1,1,2,2,3,3,4,4,5,5,6,6,7,7,8,8,9,9,10,10,11,11,12,12,13,13,14,14,15,15,16,16,17,17,18,18,19,19,20,20,21,21,22,22,23,23,24,24,25,25,26,26,27,27,28,28,29,29,30,30,31,31,32,32,33,33,34,34,35,35,36,36,37,37,38,38,39,39,40,40,41,41,42,42,43,43,44,44,45,45,46,46,47,47,48,48,49,49,50,50,51,51,52,52,53,53,54,54,55,55,57,57,59,59,60,60],"right_children":[2,4,6,8,10,12,14,16,18,20,22,24,26,28,30,32,34,36,38,40,42,44,46,48,50,52,54,56,58,60,62,64,66,68,70,72,74,76,78,80,82,84,86,88,90,92,94,96,98,100,102,104,106,108,110,112,-1,114,-1,116,118,-1,-1,-1,-1,-1,-1,-1,-1,-1,-1,-1,-1,-1,-1,-1,-1,-1,-1,-1,-1,-1,-1,-1,-1,-1,-1,-1,-1,-1,-1,-1,-1,-1,-1,-1,-1,-1,-1,-1,-1,-1,-1,-1,-1,-1,-1,-1,-1,-1,-1,-1,-1,-1,-1,-1,-1,-1,-1],"split_conditions":[3.6706152E4,1.377934E4,8.081341E4,5.751426E3,2.4525969E4,5.5462723E4,1.1313292E5,2.5692058E3,9.647743E3,1.8962186E4,3.085204E4,4.5895016E4,6.790252E4,9.289801E4,1.3891884E5,1.1905643E3,4.1039043E3,7.7123057E3,1.1832679E4,1.6436213E4,2.1396111E4,2.7388545E4,-3.419674E4,4.085374E4,4.9777203E4,6.105226E4,7.427372E4,8.780887E4,1.0494833E5,5.322407E4,-1.4326E5,6.0526E2,1.9159357E3,3.41252E3,4.87787E3,6.80213E3,8.45637E3,1.108615E4,1.093289E4,1.757758E4,1.343967E4,2.3309E4,2.250623E4,2.801298E4,3.033662E4,4.900346E4,1.303957E4,4.900346E4,5.322407E4,6.18605E4,6.412138E4,2.459184E4,3.222309E4,2.3309E4,4.218089E4,4.780254E4,1.3274702E4,1.020372E5,1.6669014E4,8E0,1.1708615E5,2.6651557E4,2.3683645E4,-2.9084016E3,-2.7808552E3,-2.661626E3,-2.5391814E3,-2.4059302E3,-2.2635642E3,-2.1365583E3,-1.9807998E3,-1.8163475E3,-1.6321991E3,-1.4870981E3,-1.2997734E3,-1.0981188E3,-8.810205E2,-8.548175E2,-5.843554E2,-2.7775208E2,7.3289696E1,-2.579629E2,2.8237845E2,6.296369E2,1.0368058E3,9.9473193E2,1.351436E3,1.6254159E3,2.052566E3,2.1542788E3,2.587586E3,3.3865688E3,4.2279546E3,1.3185402E3,2.9110603E3,3.97594E3,5.0787007E3,4.7700796E3,5.86701E3,5.560863E3,6.8653853E3,6.4463726E3,7.7269688E3,4.9887617E3,7.5697266E3,6.062186E3,8.657788E3,5.976685E3,9.915466E3,8.303914E3,1.1008198E4,9.368772E3,1.221962E4,1.42163125E4,1.5503614E4,9.322812E3,1.5773674E4,1.842075E4,2.011105E4],"split_indices":[9,9,9,9,9,9,9,9,9,9,9,9,9,9,9,9,9,9,9,9,9,9,3,9,9,9,9,0,0,0,3,9,9,0,0,0,0,0,0,0,0,0,0,0,0,0,0,0,0,0,0,0,0,0,0,0,0,9,0,6,0,0,0,0,0,0,0,0,0,0,0,0,0,0,0,0,0,0,0,0,0,0,0,0,0,0,0,0,0,0,0,0,0,0,0,0,0,0,0,0,0,0,0,0,0,0,0,0,0,0,0,0,0,0,0,0,0,0,0],"split_type":[0,0,0,0,0,0,0,0,0,0,0,0,0,0,0,0,0,0,0,0,0,0,0,0,0,0,0,0,0,0,0,0,0,0,0,0,0,0,0,0,0,0,0,0,0,0,0,0,0,0,0,0,0,0,0,0,0,0,0,0,0,0,0,0,0,0,0,0,0,0,0,0,0,0,0,0,0,0,0,0,0,0,0,0,0,0,0,0,0,0,0,0,0,0,0,0,0,0,0,0,0,0,0,0,0,0,0,0,0,0,0,0,0,0,0,0,0,0,0],"sum_hessian":[1.63457E5,1.42372E5,2.1085E4,1.04619E5,3.7753E4,1.7262E4,3.823E3,6.8256E4,3.6363E4,2.4281E4,1.3472E4,1.0909E4,6.353E3,2.566E3,1.257E3,4.2191E4,2.6065E4,2.0977E4,1.5386E4,1.4063E4,1.0218E4,7.705E3,5.767E3,6.413E3,4.496E3,3.812E3,2.541E3,1.3E3,1.266E3,6.33E2,6.24E2,2.6853E4,1.5338E4,1.3953E4,1.2112E4,1.1389E4,9.588E3,8.956E3,6.43E3,7.665E3,6.398E3,5.103E3,5.115E3,3.873E3,3.832E3,2.507E3,3.26E3,3.199E3,3.214E3,1.916E3,2.58E3,1.918E3,1.894E3,1.28E3,1.261E3,8.06E2,4.94E2,7.72E2,4.94E2,1.7E1,6.16E2,4.43E2,1.81E2,1.8532E4,8.321E3,8.313E3,7.025E3,7.819E3,6.134E3,6.253E3,5.859E3,6.123E3,5.266E3,4.328E3,5.26E3,5.348E3,3.608E3,1.155E3,5.275E3,6.458E3,1.207E3,4.92E2,5.906E3,4.334E3,7.69E2,2.465E3,2.65E3,2.886E3,9.87E2,2.551E3,1.281E3,2.287E3,2.2E2,7.9E1,3.181E3,2.99E3,2.09E2,2.974E3,2.4E2,1.807E3,1.09E2,2.417E3,1.63E2,2.3E1,1.895E3,3.7E1,1.857E3,1E1,1.27E3,2.5E1,1.236E3,3.9E1,7.67E2,5E2,2.72E2,8E0,9E0,2.06E2,4.1E2],"tree_param":{"num_deleted":"0","num_feature":"12","num_nodes":"119","size_leaf_vector":"1"}},{"base_weights":[1.5517296E2,-2.3754748E4,1.610148E5,-4.0285258E4,2.110019E4,1.28792E5,3.402454E5,-4.861182E4,-2.4350742E4,6.433453E3,4.643688E4,9.989664E4,1.807404E5,3.019337E5,4.9633506E5,-5.2698605E4,-4.203454E4,-3.051776E4,-1.7327652E4,-1.4222996E3,1.6138684E4,3.6416805E4,5.833172E4,8.622402E4,1.21282336E5,1.5689292E5,2.0408342E5,2.780165E5,3.718117E5,4.7174744E5,5.740542E5,-5.451224E4,-4.9508953E4,-4.4390066E4,-3.9005566E4,-3.3270277E4,-2.7365846E4,-2.0477678E4,-1.3038933E4,-5.806682E3,2.5585583E3,1.1617361E4,2.1327967E4,4.214768E4,3.1204457E4,5.2647934E4,6.4653805E4,7.835253E4,9.572174E4,1.1124955E5,1.28558945E5,1.5044838E5,1.6871558E5,1.9309155E5,2.2050267E5,2.988468E5,2.5204822E5,3.4591394E5,1.927214E4,1.4206919E4,4.7588012E5,2.2013629E4,3.0286879E4,-2.7674763E3,-2.6497122E3,-2.531231E3,-2.4126677E3,-2.2868904E3,-2.1461584E3,-2.008268E3,-1.8600696E3,-1.7505397E3,-1.5858053E3,-1.2634354E3,-1.4311752E3,-1.1369083E3,-9.2927246E2,-7.187026E2,-4.6697495E2,-5.2928687E2,-2.3564355E2,4.0046053E0,2.613433E2,4.153859E2,7.077188E2,1.0056214E3,1.5556047E3,1.9156244E3,2.293624E3,1.0347513E3,1.6355092E3,1.8386952E3,2.7166797E3,3.13385E3,3.7851353E3,3.8429556E3,4.8962407E3,3.7217576E3,4.862905E3,3.899461E3,5.6108667E3,4.686173E3,6.482743E3,7.202711E3,7.844471E3,1.0120394E4,8.231724E3,1.001996E4,9.267339E3,1.0653453E4,1.1380898E4,1.406651E4,1.57178E4,9.857419E3,1.2747371E4,1.2858447E4,1.7558764E4,2.4440428E4,2.162571E4],"categories":[],"categories_nodes":[],"categories_segments":[],"categories_sizes":[],"default_left":[0,0,0,0,0,0,0,0,0,0,0,0,0,0,0,0,0,0,0,0,0,0,0,0,0,0,0,0,0,0,0,0,0,0,0,0,0,0,0,0,0,0,0,0,0,0,0,0,0,0,0,0,0,0,0,0,0,0,0,0,0,0,0,0,0,0,0,0,0,0,0,0,0,0,0,0,0,0,0,0,0,0,0,0,0,0,0,0,0,0,0,0,0,0,0,0,0,0,0,0,0,0,0,0,0,0,0,0,0,0,0,0,0,0,0,0,0,0,0],"id":14,"left_children":[1,3,5,7,9,11,13,15,17,19,21,23,25,27,29,31,33,35,37,39,41,43,45,47,49,51,53,55,57,59,61,63,65,67,69,71,73,75,77,79,81,83,85,87,89,91,93,95,97,99,101,103,105,107,109,111,113,115,-1,-1,117,-1,-1,-1,-1,-1,-1,-1,-1,-1,-1,-1,-1,-1,-1,-1,-1,-1,-1,-1,-1,-1,-1,-1,-1,-1,-1,-1,-1,-1,-1,-1,-1,-1,-1,-1,-1,-1,-1,-1,-1,-1,-1,-1,-1,-1,-1,-1,-1,-1,-1,-1,-1,-1,-1,-1,-1,-1,-1],"loss_changes":[6.301055E14,1.0575594E14,1.2239278E14,1.3826691E13,1.4272738E13,2.695763E13,1.9165755E13,1.8377259E12,1.5487677E12,1.8548355E12,1.6762683E12,3.3667427E12,3.5429286E12,4.2352907E12,9.426279E11,2.4149964E11,1.8546373E11,1.6431815E11,2.2570756E11,2.3469602E11,2.550939E11,2.2708172E11,2.279017E11,5.194939E11,3.1436728E11,2.1697973E11,5.4251645E11,9.730114E11,9.930434E10,2.4315219E11,3.6063465E11,3.1255953E10,1.9008586E10,2.7200061E10,2.2542287E10,2.6377978E10,2.2707962E10,4.0819753E10,3.486476E10,3.3400144E10,4.661019E10,4.8733946E10,5.962413E10,5.022679E10,6.2746788E10,8.8845844E10,6.1719183E10,1.05298E11,9.708346E10,5.240783E10,8.722055E10,6.2570627E10,1.1985433E11,7.321577E10,1.9893584E10,2.0224095E11,8.804683E10,2.0348666E10,0E0,0E0,5.5457087E10,0E0,0E0,0E0,0E0,0E0,0E0,0E0,0E0,0E0,0E0,0E0,0E0,0E0,0E0,0E0,0E0,0E0,0E0,0E0,0E0,0E0,0E0,0E0,0E0,0E0,0E0,0E0,0E0,0E0,0E0,0E0,0E0,0E0,0E0,0E0,0E0,0E0,0E0,0E0,0E0,0E0,0E0,0E0,0E0,0E0,0E0,0E0,0E0,0E0,0E0,0E0,0E0,0E0,0E0,0E0,0E0,0E0,0E0],"parents":[2147483647,0,0,1,1,2,2,3,3,4,4,5,5,6,6,7,7,8,8,9,9,10,10,11,11,12,12,13,13,14,14,15,15,16,16,17,17,18,18,19,19,20,20,21,21,22,22,23,23,24,24,25,25,26,26,27,27,28,28,29,29,30,30,31,31,32,32,33,33,34,34,35,35,36,36,37,37,38,38,39,39,40,40,41,41,42,42,43,43,44,44,45,45,46,46,47,47,48,48,49,49,50,50,51,51,52,52,53,53,54,54,55,55,56,56,57,57,60,60],"right_children":[2,4,6,8,10,12,14,16,18,20,22,24,26,28,30,32,34,36,38,40,42,44,46,48,50,52,54,56,58,60,62,64,66,68,70,72,74,76,78,80,82,84,86,88,90,92,94,96,98,100,102,104,106,108,110,112,114,116,-1,-1,118,-1,-1,-1,-1,-1,-1,-1,-1,-1,-1,-1,-1,-1,-1,-1,-1,-1,-1,-1,-1,-1,-1,-1,-1,-1,-1,-1,-1,-1,-1,-1,-1,-1,-1,-1,-1,-1,-1,-1,-1,-1,-1,-1,-1,-1,-1,-1,-1,-1,-1,-1,-1,-1,-1,-1,-1,-1,-1],"split_conditions":[3.6706152E4,1.3573645E4,8.526935E4,5.751426E3,2.4083695E4,5.7128324E4,1.3891884E5,2.5692058E3,9.237074E3,1.8390885E4,3.020396E4,4.707988E4,6.790252E4,1.1313292E5,1.2E1,1.1905643E3,4.184647E3,7.486914E3,1.1494253E4,1.5721432E4,2.108927E4,-2.695058E4,3.355236E4,4.1657348E4,5.1118793E4,6.412138E4,7.728943E4,-9.499281E4,1.1708615E5,7.510975E4,2.7164202E6,5.2764856E2,1.8859E3,3.3723157E3,5.14349E3,6.45704E3,-8.71192E3,1.01244E4,1.364364E4,1.265845E4,1.70541E4,1.922296E4,2.746679E4,2.7923607E4,1.890843E4,2.3309E4,4.218089E4,4.900346E4,3.355236E4,2.644353E4,3.157628E4,6.105226E4,1.5426069E6,-7.212987E4,8.081341E4,1.020372E5,4.53737E4,5.322407E4,1.927214E4,1.4206919E4,-1.4326E5,2.2013629E4,3.0286879E4,-2.7674763E3,-2.6497122E3,-2.531231E3,-2.4126677E3,-2.2868904E3,-2.1461584E3,-2.008268E3,-1.8600696E3,-1.7505397E3,-1.5858053E3,-1.2634354E3,-1.4311752E3,-1.1369083E3,-9.2927246E2,-7.187026E2,-4.6697495E2,-5.2928687E2,-2.3564355E2,4.0046053E0,2.613433E2,4.153859E2,7.077188E2,1.0056214E3,1.5556047E3,1.9156244E3,2.293624E3,1.0347513E3,1.6355092E3,1.8386952E3,2.7166797E3,3.13385E3,3.7851353E3,3.8429556E3,4.8962407E3,3.7217576E3,4.862905E3,3.899461E3,5.6108667E3,4.686173E3,6.482743E3,7.202711E3,7.844471E3,1.0120394E4,8.231724E3,1.001996E4,9.267339E3,1.0653453E4,1.1380898E4,1.406651E4,1.57178E4,9.857419E3,1.2747371E4,1.2858447E4,1.7558764E4,2.4440428E4,2.162571E4],"split_indices":[9,9,9,9,9,9,9,9,9,9,9,9,9,9,7,9,9,9,9,9,9,3,0,9,9,0,9,3,0,0,10,9,0,9,0,0,3,0,0,0,0,0,