{"learner":{"attributes":{"scikit_learn":"{\"_estimator_type\": \"regressor\"}"},"feature_names":["daily_expense","daily_income","txn_count","daily_net","dow","is_weekend","day","month","expense_7d_sum","expense_7d_mean","expense_30d_sum","expense_30d_mean"],"feature_types":["float","int","int","float","int","int","int","int","float","float","float","float"],"gradient_booster":{"model":{"cats":{"enc":[],"feature_segments":[],"sorted_idx":[]},"gbtree_model_param":{"num_parallel_tree":"1","num_trees":"300"},"iteration_indptr":[0,1,2,3,4,5,6,7,8,9,10,11,12,13,14,15,16,17,18,19,20,21,22,23,24,25,26,27,28,29,30,31,32,33,34,35,36,37,38,39,40,41,42,43,44,45,46,47,48,49,50,51,52,53,54,55,56,57,58,59,60,61,62,63,64,65,66,67,68,69,70,71,72,73,74,75,76,77,78,79,80,81,82,83,84,85,86,87,88,89,90,91,92,93,94,95,96,97,98,99,100,101,102,103,104,105,106,107,108,109,110,111,112,113,114,115,116,117,118,119,120,121,122,123,124,125,126,127,128,129,130,131,132,133,134,135,136,137,138,139,140,141,142,143,144,145,146,147,148,149,150,151,152,153,154,155,156,157,158,159,160,161,162,163,164,165,166,167,168,169,170,171,172,173,174,175,176,177,178,179,180,181,182,183,184,185,186,187,188,189,190,191,192,193,194,195,196,197,198,199,200,201,202,203,204,205,206,207,208,209,210,211,212,213,214,215,216,217,218,219,220,221,222,223,224,225,226,227,228,229,230,231,232,233,234,235,236,237,238,239,240,241,242,243,244,245,246,247,248,249,250,251,252,253,254,255,256,257,258,259,260,261,262,263,264,265,266,267,268,269,270,271,272,273,274,275,276,277,278,279,280,281,282,283,284,285,286,287,288,289,290,291,292,293,294,295,296,297,298,299,300],"tree_info":[0,0,0,0,0,0,0,0,0,0,0,0,0,0,0,0,0,0,0,0,0,0,0,0,0,0,0,0,0,0,0,0,0,0,0,0,0,0,0,0,0,0,0,0,0,0,0,0,0,0,0,0,0,0,0,0,0,0,0,0,0,0,0,0,0,0,0,0,0,0,0,0,0,0,0,0,0,0,0,0,0,0,0,0,0,0,0,0,0,0,0,0,0,0,0,0,0,0,0,0,0,0,0,0,0,0,0,0,0,0,0,0,0,0,0,0,0,0,0,0,0,0,0,0,0,0,0,0,0,0,0,0,0,0,0,0,0,0,0,0,0,0,0,0,0,0,0,0,0,0,0,0,0,0,0,0,0,0,0,0,0,0,0,0,0,0,0,0,0,0,0,0,0,0,0,0,0,0,0,0,0,0,0,0,0,0,0,0,0,0,0,0,0,0,0,0,0,0,0,0,0,0,0,0,0,0,0,0,0,0,0,0,0,0,0,0,0,0,0,0,0,0,0,0,0,0,0,0,0,0,0,0,0,0,0,0,0,0,0,0,0,0,0,0,0,0,0,0,0,0,0,0,0,0,0,0,0,0,0,0,0,0,0,0,0,0,0,0,0,0,0,0,0,0,0,0,0,0,0,0,0,0,0,0,0,0,0,0,0,0,0,0,0,0,0,0,0,0,0,0],"trees":[{"base_weights":[6.964196E1,-4.9578965E4,3.2394784E5,-8.329166E4,3.973966E4,2.5946117E5,6.958621E5,-1.0033587E5,-5.2331785E4,9.326444E3,8.9634086E4,2.0144756E5,3.7006756E5,6.192241E5,1.00639975E6,-1.08678414E5,-8.8040125E4,-6.404244E4,-3.7229543E4,-6.0931123E3,2.8381178E4,6.980006E4,1.15514445E5,1.7033823E5,2.4421923E5,3.302932E5,4.2870212E5,5.708206E5,7.604533E5,9.690654E5,5.3773363E4,-1.1208023E5,-1.0288683E5,-9.323589E4,-8.233672E4,-7.04307E4,-5.7643594E4,-4.3490957E4,-2.9325764E4,-1.3984949E4,2.6604583E3,1.9578229E4,3.8273047E4,5.9370004E4,8.181584E4,1.0407287E5,1.2678789E5,1.5502442E5,1.8837962E5,2.2422044E5,2.641224E5,3.0646638E5,3.5335312E5,2.0300037E4,2.258642E4,5.3619525E5,3.1885082E4,3.560641E4,3.9258004E4,3.351813E4,4.8772215E4,-5.6808896E3,-5.480175E3,-5.2521245E3,-5.0270034E3,-4.7920835E3,-4.530841E3,-4.2587617E3,-3.9733728E3,-3.6722683E3,-3.3713755E3,-3.0573582E3,-2.713928E3,-2.3576187E3,-1.9972688E3,-1.624793E3,-1.2711504E3,-8.8164935E2,-4.8215268E2,-6.553762E1,3.6330765E2,7.8832385E2,1.2497694E3,1.6940533E3,2.2298123E3,2.6989639E3,3.3043298E3,3.7623613E3,4.36444E3,4.865396E3,5.5279443E3,5.5143237E3,6.4642295E3,7.3085757E3,8.178825E3,9.97703E3,9.089445E3,1.0714647E4,1.1702098E4,1.2721808E4,1.370118E4,1.459371E4,1.5688122E4,1.7193072E4,1.8602455E4,2.5307906E4,2.827649E4],"categories":[],"categories_nodes":[],"categories_segments":[],"categories_sizes":[],"default_left":[0,0,0,0,0,0,0,0,0,0,0,0,0,0,0,0,0,0,0,0,0,0,0,0,0,0,0,0,0,0,0,0,0,0,0,0,0,0,0,0,0,0,0,0,0,0,0,0,0,0,0,0,0,0,0,0,0,0,0,0,0,0,0,0,0,0,0,0,0,0,0,0,0,0,0,0,0,0,0,0,0,0,0,0,0,0,0,0,0,0,0,0,0,0,0,0,0,0,0,0,0,0,0,0,0,0,0],"id":0,"left_children":[1,3,5,7,9,11,13,15,17,19,21,23,25,27,29,31,33,35,37,39,41,43,45,47,49,51,53,55,57,59,-1,61,63,65,67,69,71,73,75,77,79,81,83,85,87,89,91,93,95,97,99,101,103,-1,-1,105,-1,-1,-1,-1,-1,-1,-1,-1,-1,-1,-1,-1,-1,-1,-1,-1,-1,-1,-1,-1,-1,-1,-1,-1,-1,-1,-1,-1,-1,-1,-1,-1,-1,-1,-1,-1,-1,-1,-1,-1,-1,-1,-1,-1,-1,-1,-1,-1,-1,-1,-1],"loss_changes":[2.6252053E15,4.2625866E14,5.2026147E14,5.4224566E13,5.886104E13,1.186019E14,7.5676384E13,6.7892024E12,6.4513177E12,7.0814207E12,7.5324834E12,1.6103879E13,1.4695633E13,1.716175E13,5.900211E11,7.663497E11,7.864152E11,8.36059E11,7.8757704E11,9.203442E11,9.379481E11,1.03772534E12,8.0870375E11,1.9125187E12,1.9735375E12,1.9768258E12,1.1589365E12,4.1066598E12,2.2172769E11,1.4827704E11,0E0,8.224191E10,6.3417876E10,8.69647E10,9.7349796E10,8.811394E10,1.1779493E11,1.13550295E11,8.638484E10,1.108008E11,1.1554859E11,1.1742832E11,1.3942915E11,1.5780859E11,1.32305125E11,1.2824714E11,1.17784445E11,2.6431665E11,2.00731E11,1.9886873E11,1.7522124E11,1.0792783E11,2.1313775E11,0E0,0E0,8.345323E11,0E0,0E0,0E0,0E0,0E0,0E0,0E0,0E0,0E0,0E0,0E0,0E0,0E0,0E0,0E0,0E0,0E0,0E0,0E0,0E0,0E0,0E0,0E0,0E0,0E0,0E0,0E0,0E0,0E0,0E0,0E0,0E0,0E0,0E0,0E0,0E0,0E0,0E0,0E0,0E0,0E0,0E0,0E0,0E0,0E0,0E0,0E0,0E0,0E0,0E0,0E0],"parents":[2147483647,0,0,1,1,2,2,3,3,4,4,5,5,6,6,7,7,8,8,9,9,10,10,11,11,12,12,13,13,14,14,15,15,16,16,17,17,18,18,19,19,20,20,21,21,22,22,23,23,24,24,25,25,26,26,27,27,28,28,29,29,31,31,32,32,33,33,34,34,35,35,36,36,37,37,38,38,39,39,40,40,41,41,42,42,43,43,44,44,45,45,46,46,47,47,48,48,49,49,50,50,51,51,52,52,55,55],"right_children":[2,4,6,8,10,12,14,16,18,20,22,24,26,28,30,32,34,36,38,40,42,44,46,48,50,52,54,56,58,60,-1,62,64,66,68,70,72,74,76,78,80,82,84,86,88,90,92,94,96,98,100,102,104,-1,-1,106,-1,-1,-1,-1,-1,-1,-1,-1,-1,-1,-1,-1,-1,-1,-1,-1,-1,-1,-1,-1,-1,-1,-1,-1,-1,-1,-1,-1,-1,-1,-1,-1,-1,-1,-1,-1,-1,-1,-1,-1,-1,-1,-1,-1,-1,-1,-1,-1,-1,-1,-1],"split_conditions":[2.5227025E5,9.232613E4,5.9688544E5,3.809196E4,1.6246306E5,3.9989828E5,9.7243194E5,1.617547E4,6.382941E4,1.2523226E5,2.0727888E5,3.212651E5,4.9772334E5,7.919305E5,1.1E1,7.24281E3,2.657794E4,5.01435E4,7.820866E4,1.0828041E5,1.432081E5,1.8462284E5,2.2924934E5,2.8597616E5,3.5783156E5,4.4061188E5,5.41026E5,7.1426044E5,1.1708615E5,7.510975E4,5.3773363E4,2.943E3,1.181455E4,2.123179E4,3.217006E4,4.400905E4,5.659065E4,7.062115E4,8.546969E4,1.0081656E5,1.680612E4,1.952296E4,2.212701E4,2.502535E4,2.746679E4,3.094228E4,2.971201E4,2.6817166E5,-4.422692E4,3.3822688E5,3.770568E5,4.1348366E5,4.753177E5,2.0300037E4,2.258642E4,6.5028606E5,3.1885082E4,3.560641E4,3.9258004E4,3.351813E4,4.8772215E4,-5.6808896E3,-5.480175E3,-5.2521245E3,-5.0270034E3,-4.7920835E3,-4.530841E3,-4.2587617E3,-3.9733728E3,-3.6722683E3,-3.3713755E3,-3.0573582E3,-2.713928E3,-2.3576187E3,-1.9972688E3,-1.624793E3,-1.2711504E3,-8.8164935E2,-4.8215268E2,-6.553762E1,3.6330765E2,7.8832385E2,1.2497694E3,1.6940533E3,2.2298123E3,2.6989639E3,3.3043298E3,3.7623613E3,4.36444E3,4.865396E3,5.5279443E3,5.5143237E3,6.4642295E3,7.3085757E3,8.178825E3,9.97703E3,9.089445E3,1.0714647E4,1.1702098E4,1.2721808E4,1.370118E4,1.459371E4,1.5688122E4,1.7193072E4,1.8602455E4,2.5307906E4,2.827649E4],"split_indices":[8,8,8,8,8,8,8,8,8,8,8,8,8,8,7,8,8,8,8,8,8,8,8,8,8,8,8,8,0,0,0,8,8,8,8,8,8,8,8,8,0,0,0,0,0,0,0,8,3,8,8,8,8,0,0,8,0,0,0,0,0,0,0,0,0,0,0,0,0,0,0,0,0,0,0,0,0,0,0,0,0,0,0,0,0,0,0,0,0,0,0,0,0,0,0,0,0,0,0,0,0,0,0,0,0,0,0],"split_type":[0,0,0,0,0,0,0,0,0,0,0,0,0,0,0,0,0,0,0,0,0,0,0,0,0,0,0,0,0,0,0,0,0,0,0,0,0,0,0,0,0,0,0,0,0,0,0,0,0,0,0,0,0,0,0,0,0,0,0,0,0,0,0,0,0,0,0,0,0,0,0,0,0,0,0,0,0,0,0,0,0,0,0,0,0,0,0,0,0,0,0,0,0,0,0,0,0,0,0,0,0,0,0,0,0,0,0],"sum_hessian":[1.63256E5,1.41557E5,2.1699E4,1.02768E5,3.8789E4,1.8494E4,3.205E3,6.6278E4,3.649E4,2.41E4,1.4689E4,1.2133E4,6.361E3,2.573E3,6.32E2,3.9482E4,2.6796E4,2.0551E4,1.5939E4,1.3321E4,1.0779E4,8.318E3,6.371E3,7.027E3,5.106E3,3.794E3,2.567E3,1.92E3,6.53E2,4.2E2,2.12E2,2.4861E4,1.4621E4,1.4014E4,1.2782E4,1.0279E4,1.0272E4,8.891E3,7.048E3,7.005E3,6.316E3,5.705E3,5.074E3,4.456E3,3.862E3,3.167E3,3.204E3,3.806E3,3.221E3,2.553E3,2.553E3,1.873E3,1.921E3,1.302E3,1.265E3,1.271E3,6.49E2,2.31E2,4.22E2,1.1E1,4.09E2,1.5311E4,9.55E3,7.598E3,7.023E3,7.007E3,7.007E3,6.411E3,6.371E3,5.118E3,5.161E3,5.024E3,5.248E3,4.368E3,4.523E3,3.885E3,3.163E3,3.805E3,3.2E3,3.392E3,2.924E3,3.351E3,2.354E3,2.998E3,2.076E3,2.477E3,1.979E3,1.762E3,2.1E3,1.558E3,1.609E3,4.27E2,2.777E3,1.879E3,1.927E3,1.185E3,2.036E3,1.281E3,1.272E3,1.304E3,1.249E3,6.38E2,1.235E3,1.287E3,6.34E2,6.37E2,6.34E2],"tree_param":{"num_deleted":"0","num_feature":"12","num_nodes":"107","size_leaf_vector":"1"}},{"base_weights":[-1.4036148E2,-4.8770496E4,2.96978E5,-7.994875E4,3.2572828E4,2.3186627E5,6.212442E5,-9.5769555E4,-5.150639E4,5.2820493E3,7.795599E4,1.770804E5,3.2621228E5,5.1642962E5,8.358547E5,-1.03577125E5,-8.46408E4,-6.2384754E4,-3.7604355E4,-8.848267E3,2.2895977E4,5.9856188E4,1.0138206E5,1.5016628E5,2.1424248E5,2.9220416E5,3.8536506E5,4.6250334E5,5.710032E5,7.2144506E5,9.539044E5,-1.06700984E5,-9.849895E4,-8.949934E4,-7.927102E4,-6.831952E4,-5.642875E4,-4.3838188E4,-3.0867836E4,-1.6074998E4,-7.9020746E2,1.4060088E4,3.0793723E4,5.065521E4,7.047204E4,9.0921766E4,1.1178452E5,1.3655752E5,1.6651366E5,1.9681456E5,2.31417E5,2.723772E5,3.1881594E5,3.63948E5,2.0310996E4,2.2098334E4,4.8175772E5,2.6912941E4,3.0225404E4,3.3843203E4,3.72152E4,9.187091E5,5.1152246E4,-5.400529E3,-5.2270415E3,-5.0342437E3,-4.823307E3,-4.596519E3,-4.3497534E3,-4.0970786E3,-3.8296348E3,-3.557507E3,-3.2750476E3,-2.979739E3,-2.6605183E3,-2.3378516E3,-2.0225022E3,-1.7137754E3,-1.370374E3,-9.921308E2,-6.114091E2,-2.4661577E2,1.5954881E2,5.6343304E2,9.700766E2,1.3266635E3,1.800709E3,2.2497034E3,2.80174E3,3.28858E3,3.874757E3,4.343943E3,5.0087817E3,5.2564463E3,5.9077305E3,6.5497446E3,7.3071343E3,8.803874E3,8.0250195E3,9.435886E3,1.0220231E4,1.1093058E4,1.2027247E4,1.3027084E4,1.4210167E4,1.5559695E4,1.6689797E4,1.2964524E4,1.8261816E4,1.7964678E4,2.4269451E4,3.2016146E4,4.6266375E4],"categories":[],"categories_nodes":[],"categories_segments":[],"categories_sizes":[],"default_left":[0,0,0,0,0,0,0,0,0,0,0,0,0,0,0,0,0,0,0,0,0,0,0,0,0,0,0,0,0,0,0,0,0,0,0,0,0,0,0,0,0,0,0,0,0,0,0,0,0,0,0,0,0,0,0,0,0,0,0,0,0,0,0,0,0,0,0,0,0,0,0,0,0,0,0,0,0,0,0,0,0,0,0,0,0,0,0,0,0,0,0,0,0,0,0,0,0,0,0,0,0,0,0,0,0,0,0,0,0,0,0,0,0],"id":1,"left_children":[1,3,5,7,9,11,13,15,17,19,21,23,25,27,29,31,33,35,37,39,41,43,45,47,49,51,53,55,57,59,61,63,65,67,69,71,73,75,77,79,81,83,85,87,89,91,93,95,97,99,101,103,105,107,-1,-1,109,-1,-1,-1,-1,111,-1,-1,-1,-1,-1,-1,-1,-1,-1,-1,-1,-1,-1,-1,-1,-1,-1,-1,-1,-1,-1,-1,-1,-1,-1,-1,-1,-1,-1,-1,-1,-1,-1,-1,-1,-1,-1,-1,-1,-1,-1,-1,-1,-1,-1,-1,-1,-1,-1,-1,-1],"loss_changes":[2.3698373E15,3.574618E14,4.869238E14,4.584455E13,4.837085E13,9.925092E13,8.632898E13,5.67996E12,5.5056615E12,6.070638E12,6.2124185E12,1.2127075E13,1.4083735E13,7.3698954E12,1.6383421E13,5.99819E11,6.973282E11,7.183249E11,6.701806E11,7.881185E11,7.5720766E11,8.0479886E11,6.852528E11,1.5465405E12,1.4821496E12,2.279554E12,1.0013985E12,3.0509367E11,1.0843786E12,1.5451816E11,5.664659E11,5.605268E10,5.54487E10,7.824055E10,8.551347E10,7.69487E10,1.00789125E11,8.022026E10,8.97277E10,1.0316743E11,1.055549E11,7.6211356E10,1.26532714E11,1.32607115E11,1.2166627E11,1.1072124E11,1.2324962E11,1.8640326E11,1.5577645E11,1.1753279E11,1.7037263E11,2.866555E11,1.1408507E11,7.774562E10,0E0,0E0,1.2133283E11,0E0,0E0,0E0,0E0,1.813617E11,0E0,0E0,0E0,0E0,0E0,0E0,0E0,0E0,0E0,0E0,0E0,0E0,0E0,0E0,0E0,0E0,0E0,0E0,0E0,0E0,0E0,0E0,0E0,0E0,0E0,0E0,0E0,0E0,0E0,0E0,0E0,0E0,0E0,0E0,0E0,0E0,0E0,0E0,0E0,0E0,0E0,0E0,0E0,0E0,0E0,0E0,0E0,0E0,0E0,0E0,0E0],"parents":[2147483647,0,0,1,1,2,2,3,3,4,4,5,5,6,6,7,7,8,8,9,9,10,10,11,11,12,12,13,13,14,14,15,15,16,16,17,17,18,18,19,19,20,20,21,21,22,22,23,23,24,24,25,25,26,26,27,27,28,28,29,29,30,30,31,31,32,32,33,33,34,34,35,35,36,36,37,37,38,38,39,39,40,40,41,41,42,42,43,43,44,44,45,45,46,46,47,47,48,48,49,49,50,50,51,51,52,52,53,53,56,56,61,61],"right_children":[2,4,6,8,10,12,14,16,18,20,22,24,26,28,30,32,34,36,38,40,42,44,46,48,50,52,54,56,58,60,62,64,66,68,70,72,74,76,78,80,82,84,86,88,90,92,94,96,98,100,102,104,106,108,-1,-1,110,-1,-1,-1,-1,112,-1,-1,-1,-1,-1,-1,-1,-1,-1,-1,-1,-1,-1,-1,-1,-1,-1,-1,-1,-1,-1,-1,-1,-1,-1,-1,-1,-1,-1,-1,-1,-1,-1,-1,-1,-1,-1,-1,-1,-1,-1,-1,-1,-1,-1,-1,-1,-1,-1,-1,-1],"split_conditions":[2.428942E5,8.941471E4,5.656938E5,3.682995E4,1.571201E5,3.770568E5,7.919305E5,1.537832E4,6.184813E4,1.2173565E5,1.9930969E5,3.0554934E5,4.753177E5,6.5028606E5,9.7243194E5,6.55699E3,2.559639E4,4.851943E4,7.491835E4,1.0516573E5,1.3699348E5,1.7807902E5,2.2020914E5,2.7389697E5,3.3822688E5,4.2736584E5,5.19916E5,5.9688544E5,7.1426044E5,1.1708615E5,1.1E1,2.7157E3,1.06275E4,2.025076E4,3.101512E4,4.249117E4,5.492495E4,6.848234E4,8.157223E4,1.384065E4,1.609109E4,1.922296E4,1.4762489E5,2.376355E4,2.746679E4,3.157628E4,3.286133E4,3.777857E4,-4.218089E4,4.53737E4,3.5783156E5,3.9989828E5,4.559201E5,2.3309E4,2.0310996E4,2.2098334E4,4.127675E4,2.6912941E4,3.0225404E4,3.3843203E4,3.72152E4,7.510975E4,5.1152246E4,-5.400529E3,-5.2270415E3,-5.0342437E3,-4.823307E3,-4.596519E3,-4.3497534E3,-4.0970786E3,-3.8296348E3,-3.557507E3,-3.2750476E3,-2.979739E3,-2.6605183E3,-2.3378516E3,-2.0225022E3,-1.7137754E3,-1.370374E3,-9.921308E2,-6.114091E2,-2.4661577E2,1.5954881E2,5.6343304E2,9.700766E2,1.3266635E3,1.800709E3,2.2497034E3,2.80174E3,3.28858E3,3.874757E3,4.343943E3,5.0087817E3,5.2564463E3,5.9077305E3,6.5497446E3,7.3071343E3,8.803874E3,8.0250195E3,9.435886E3,1.0220231E4,1.1093058E4,1.2027247E4,1.3027084E4,1.4210167E4,1.5559695E4,1.6689797E4,1.2964524E4,1.8261816E4,1.7964678E4,2.4269451E4,3.2016146E4,4.6266375E4],"split_indices":[8,8,8,8,8,8,8,8,8,8,8,8,8,8,8,8,8,8,8,8,8,8,8,8,8,8,8,8,8,0,7,8,8,8,8,8,8,8,8,0,0,0,8,0,0,0,0,0,3,0,8,8,8,0,0,0,0,0,0,0,0,0,0,0,0,0,0,0,0,0,0,0,0,0,0,0,0,0,0,0,0,0,0,0,0,0,0,0,0,0,0,0,0,0,0,0,0,0,0,0,0,0,0,0,0,0,0,0,0,0,0,0,0],"split_type":[0,0,0,0,0,0,0,0,0,0,0,0,0,0,0,0,0,0,0,0,0,0,0,0,0,0,0,0,0,0,0,0,0,0,0,0,0,0,0,0,0,0,0,0,0,0,0,0,0,0,0,0,0,0,0,0,0,0,0,0,0,0,0,0,0,0,0,0,0,0,0,0,0,0,0,0,0,0,0,0,0,0,0,0,0,0,0,0,0,0,0,0,0,0,0,0,0,0,0,0,0,0,0,0,0,0,0,0,0,0,0,0,0],"sum_hessian":[1.64013E5,1.40945E5,2.3068E4,1.01891E5,3.9054E4,1.9212E4,3.856E3,6.5471E4,3.642E4,2.4389E4,1.4665E4,1.2156E4,7.056E3,2.593E3,1.263E3,3.8472E4,2.6999E4,2.043E4,1.599E4,1.3533E4,1.0856E4,8.275E3,6.39E3,7.053E3,5.103E3,4.484E3,2.572E3,1.309E3,1.284E3,6.45E2,6.18E2,2.3807E4,1.4665E4,1.4166E4,1.2833E4,1.0228E4,1.0202E4,8.302E3,7.688E3,7.134E3,6.399E3,5.125E3,5.731E3,4.436E3,3.839E3,3.191E3,3.199E3,3.854E3,3.199E3,2.539E3,2.564E3,2.576E3,1.908E3,1.278E3,1.294E3,6.45E2,6.64E2,6.58E2,6.26E2,2.29E2,4.16E2,4.19E2,1.99E2,1.4791E4,9.016E3,7.043E3,7.622E3,7.17E3,6.996E3,6.411E3,6.422E3,5.091E3,5.137E3,5.134E3,5.068E3,4.453E3,3.849E3,3.869E3,3.819E3,3.602E3,3.532E3,3.136E3,3.263E3,3.368E3,1.757E3,3.159E3,2.572E3,2.166E3,2.27E3,2.306E3,1.533E3,2.228E3,9.63E2,1.573E3,1.626E3,2.448E3,1.406E3,1.224E3,1.975E3,1.241E3,1.298E3,1.265E3,1.299E3,1.299E3,1.277E3,1.279E3,6.29E2,1.8E1,1.26E3,2.2E1,6.42E2,1.2E1,4.07E2],"tree_param":{"num_deleted":"0","num_feature":"12","num_nodes":"113","size_leaf_vector":"1"}},{"base_weights":[-2.1827461E1,-4.4678887E4,2.922651E5,-7.490566E4,3.6802992E4,2.275108E5,5.9057744E5,-9.034843E4,-4.6352535E4,1.0150589E4,8.268489E4,1.7780375E5,3.1684972E5,4.9145344E5,7.9785456E5,-9.793754E4,-7.899993E4,-5.7124473E4,-3.2631523E4,-4.0525652E3,2.7752055E4,6.4426773E4,1.04353086E5,1.5070205E5,2.115678E5,2.835841E5,3.6630653E5,4.3849872E5,5.435933E5,6.872914E5,9.0420125E5,-1.0115445E5,-9.2707664E4,-8.3536875E4,-7.352809E4,-6.2572945E4,-5.0967234E4,-3.839094E4,-2.5294197E4,-1.0645377E4,4.746548E3,1.9714387E4,3.6841582E4,5.648445E4,7.558659E4,9.391585E4,1.1449074E5,1.3688023E5,1.6430433E5,1.9419605E5,2.2899295E5,2.6413084E5,3.0293972E5,3.464803E5,3.8625028E5,2.0916646E4,4.572794E5,2.5602975E4,2.8689404E4,3.2196865E4,3.5449215E4,4.151657E4,9.329529E5,-5.1198335E3,-4.9330366E3,-4.7324136E3,-4.519061E3,-4.2942617E3,-4.0463345E3,-3.7923523E3,-3.5449412E3,-3.2809922E3,-2.9920422E3,-2.684114E3,-2.3913984E3,-2.0866265E3,-1.7523754E3,-1.4282963E3,-1.0882191E3,-7.126577E2,-3.2583295E2,1.07645226E2,5.273972E2,1.2118511E3,7.913669E2,1.65032E3,2.1795955E3,2.5748403E3,3.136662E3,3.5803164E3,4.122475E3,3.7247712E3,4.79121E3,5.6040894E3,6.5642446E3,6.525895E3,7.191439E3,7.9010166E3,8.66603E3,7.483814E3,9.790552E3,1.0998316E4,1.1893739E4,1.0397053E4,1.3274819E4,1.4766913E4,1.5858177E4,1.6774248E4,1.7867291E4,1.8732422E4,1.9844678E4,1.6193778E4,2.298236E4,4.499779E4,5.0076527E4],"categories":[],"categories_nodes":[],"categories_segments":[],"categories_sizes":[],"default_left":[0,0,0,0,0,0,0,0,0,0,0,0,0,0,0,0,0,0,0,0,0,0,0,0,0,0,0,0,0,0,0,0,0,0,0,0,0,0,0,0,0,0,0,0,0,0,0,0,0,0,0,0,0,0,0,0,0,0,0,0,0,0,0,0,0,0,0,0,0,0,0,0,0,0,0,0,0,0,0,0,0,0,0,0,0,0,0,0,0,0,0,0,0,0,0,0,0,0,0,0,0,0,0,0,0,0,0,0,0,0,0,0,0,0,0],"id":2,"left_children":[1,3,5,7,9,11,13,15,17,19,21,23,25,27,29,31,33,35,37,39,41,43,45,47,49,51,53,55,57,59,61,63,65,67,69,71,73,75,77,79,81,83,85,87,89,91,93,95,97,99,101,103,105,107,109,-1,111,-1,-1,-1,-1,-1,113,-1,-1,-1,-1,-1,-1,-1,-1,-1,-1,-1,-1,-1,-1,-1,-1,-1,-1,-1,-1,-1,-1,-1,-1,-1,-1,-1,-1,-1,-1,-1,-1,-1,-1,-1,-1,-1,-1,-1,-1,-1,-1,-1,-1,-1,-1,-1,-1,-1,-1,-1,-1],"loss_changes":[2.1400641E15,3.5029592E14,4.196242E14,4.573979E13,4.706103E13,7.923819E13,7.9224296E13,5.790824E12,5.3804867E12,6.0862733E12,5.587744E12,1.0468412E13,1.0395834E13,7.006635E12,1.4099572E13,6.693438E11,6.638073E11,6.81155E11,6.7593096E11,7.8168936E11,7.935665E11,6.761784E11,6.733032E11,1.174942E12,1.501477E12,1.358317E12,8.795959E11,3.0371794E11,9.610996E11,1.2468827E11,5.740157E11,6.724308E10,6.086774E10,8.3433095E10,6.925635E10,8.612164E10,7.910038E10,9.877586E10,8.076132E10,1.14647106E11,8.6827155E10,1.0108666E11,1.3062006E11,1.3667664E11,8.120802E10,1.1112179E11,1.1777606E11,1.2114828E11,1.541994E11,1.5503825E11,1.5163248E11,9.1570045E10,1.1262545E11,3.48295E10,8.002732E9,0E0,6.1496885E10,0E0,0E0,0E0,0E0,0E0,1.14655494E11,0E0,0E0,0E0,0E0,0E0,0E0,0E0,0E0,0E0,0E0,0E0,0E0,0E0,0E0,0E0,0E0,0E0,0E0,0E0,0E0,0E0,0E0,0E0,0E0,0E0,0E0,0E0,0E0,0E0,0E0,0E0,0E0,0E0,0E0,0E0,0E0,0E0,0E0,0E0,0E0,0E0,0E0,0E0,0E0,0E0,0E0,0E0,0E0,0E0,0E0,0E0,0E0],"parents":[2147483647,0,0,1,1,2,2,3,3,4,4,5,5,6,6,7,7,8,8,9,9,10,10,11,11,12,12,13,13,14,14,15,15,16,16,17,17,18,18,19,19,20,20,21,21,22,22,23,23,24,24,25,25,26,26,27,27,28,28,29,29,30,30,31,31,32,32,33,33,34,34,35,35,36,36,37,37,38,38,39,39,40,40,41,41,42,42,43,43,44,44,45,45,46,46,47,47,48,48,49,49,50,50,51,51,52,52,53,53,54,54,56,56,62,62],"right_children":[2,4,6,8,10,12,14,16,18,20,22,24,26,28,30,32,34,36,38,40,42,44,46,48,50,52,54,56,58,60,62,64,66,68,70,72,74,76,78,80,82,84,86,88,90,92,94,96,98,100,102,104,106,108,110,-1,112,-1,-1,-1,-1,-1,114,-1,-1,-1,-1,-1,-1,-1,-1,-1,-1,-1,-1,-1,-1,-1,-1,-1,-1,-1,-1,-1,-1,-1,-1,-1,-1,-1,-1,-1,-1,-1,-1,-1,-1,-1,-1,-1,-1,-1,-1,-1,-1,-1,-1,-1,-1,-1,-1,-1,-1,-1,-1],"split_conditions":[2.5227025E5,9.367227E4,5.656938E5,3.878231E4,1.6544911E5,3.8823906E5,7.919305E5,1.66E4,6.465952E4,1.2695959E5,2.0727888E5,3.1311222E5,4.753177E5,6.5028606E5,9.7243194E5,7.24281E3,2.7628E4,5.16964E4,7.933158E4,1.1169572E5,1.4538934E5,1.880647E5,2.2924934E5,2.7975953E5,3.4844044E5,4.2736584E5,5.19916E5,5.9688544E5,7.1426044E5,1.1708615E5,1.4326E5,3.4352E3,1.219925E4,2.218776E4,3.331471E4,4.48129E4,5.835802E4,7.171742E4,1.229053E4,1.47125E4,1.809218E4,-1.952296E4,2.291599E4,2.548886E4,2.911298E4,2.502535E4,3.945519E4,3.777857E4,2.9808362E5,2.595516E4,3.6679862E5,3.355236E4,4.559201E5,4.9772334E5,5.41026E5,2.0916646E4,3.699912E4,2.5602975E4,2.8689404E4,3.2196865E4,3.5449215E4,4.151657E4,1.1E1,-5.1198335E3,-4.9330366E3,-4.7324136E3,-4.519061E3,-4.2942617E3,-4.0463345E3,-3.7923523E3,-3.5449412E3,-3.2809922E3,-2.9920422E3,-2.684114E3,-2.3913984E3,-2.0866265E3,-1.7523754E3,-1.4282963E3,-1.0882191E3,-7.126577E2,-3.2583295E2,1.07645226E2,5.273972E2,1.2118511E3,7.913669E2,1.65032E3,2.1795955E3,2.5748403E3,3.136662E3,3.5803164E3,4.122475E3,3.7247712E3,4.79121E3,5.6040894E3,6.5642446E3,6.525895E3,7.191439E3,7.9010166E3,8.66603E3,7.483814E3,9.790552E3,1.0998316E4,1.1893739E4,1.0397053E4,1.3274819E4,1.4766913E4,1.5858177E4,1.6774248E4,1.7867291E4,1.8732422E4,1.9844678E4,1.6193778E4,2.298236E4,4.499779E4,5.0076527E4],"split_indices":[8,8,8,8,8,8,8,8,8,8,8,8,8,8,8,8,8,8,8,8,8,8,8,8,8,8,8,8,8,0,0,8,8,8,8,8,8,8,0,0,0,3,0,0,0,0,0,0,8,0,8,0,8,8,8,0,0,0,0,0,0,0,7,0,0,0,0,0,0,0,0,0,0,0,0,0,0,0,0,0,0,0,0,0,0,0,0,0,0,0,0,0,0,0,0,0,0,0,0,0,0,0,0,0,0,0,0,0,0,0,0,0,0,0,0],"split_type":[0,0,0,0,0,0,0,0,0,0,0,0,0,0,0,0,0,0,0,0,0,0,0,0,0,0,0,0,0,0,0,0,0,0,0,0,0,0,0,0,0,0,0,0,0,0,0,0,0,0,0,0,0,0,0,0,0,0,0,0,0,0,0,0,0,0,0,0,0,0,0,0,0,0,0,0,0,0,0,0,0,0,0,0,0,0,0,0,0,0,0,0,0,0,0,0,0,0,0,0,0,0,0,0,0,0,0,0,0,0,0,0,0,0,0],"sum_hessian":[1.63954E5,1.42225E5,2.1729E4,1.03741E5,3.8484E4,1.7855E4,3.874E3,6.7326E4,3.6415E4,2.4344E4,1.414E4,1.1474E4,6.381E3,2.623E3,1.251E3,4.0341E4,2.6985E4,2.0398E4,1.6017E4,1.3473E4,1.0871E4,7.676E3,6.464E3,6.368E3,5.106E3,3.819E3,2.562E3,1.306E3,1.317E3,6.17E2,6.34E2,2.4966E4,1.5375E4,1.4745E4,1.224E4,1.0817E4,9.581E3,8.971E3,7.046E3,7.702E3,5.771E3,5.771E3,5.1E3,4.488E3,3.188E3,3.19E3,3.274E3,3.164E3,3.204E3,2.563E3,2.543E3,1.912E3,1.907E3,1.294E3,1.268E3,6.41E2,6.65E2,6.53E2,6.64E2,2.16E2,4.01E2,1.86E2,4.48E2,1.6638E4,8.328E3,8.361E3,7.014E3,7.745E3,7E3,6.489E3,5.751E3,5.103E3,5.714E3,5.129E3,4.452E3,4.481E3,4.49E3,3.653E3,3.393E3,4.109E3,3.593E3,3.989E3,1.782E3,2.665E3,3.106E3,3.256E3,1.844E3,2.501E3,1.987E3,2.025E3,1.163E3,2.89E2,2.901E3,2.87E3,4.04E2,1.662E3,1.502E3,1.899E3,1.305E3,9.3E1,2.47E3,1.274E3,1.269E3,4.9E1,1.863E3,1.257E3,6.5E2,6.59E2,6.35E2,6.24E2,6.44E2,1.4E1,6.51E2,3.12E2,1.36E2],"tree_param":{"num_deleted":"0","num_feature":"12","num_nodes":"115","size_leaf_vector":"1"}},{"base_weights":[1.0658601E2,-4.248574E4,2.7791647E5,-7.150291E4,3.3917082E4,2.2246125E5,5.96392E5,-8.5847016E4,-4.446056E4,9.804737E3,7.999924E4,1.7284939E5,3.1717953E5,5.3004206E5,8.631408E5,-9.290344E4,-7.482665E4,-5.4588055E4,-3.1927934E4,-3.848017E3,2.8179707E4,6.4075227E4,1.010435E5,1.458526E5,2.093662E5,2.833706E5,3.678679E5,4.889097E5,6.5080075E5,3.9505992E4,4.4532613E4,-9.59944E4,-8.771703E4,-7.892453E4,-6.958432E4,-6.0106504E4,-4.9437492E4,-3.7756766E4,-2.572532E4,-1.145354E4,4.505356E3,2.1237508E4,3.8154184E4,5.6317562E4,7.495782E4,9.326504E4,1.10832984E5,1.3254162E5,1.6187136E5,1.9259892E5,2.2617595E5,2.6320612E5,3.0286756E5,1.7394432E4,3.8755775E5,4.601714E5,2.7285766E4,3.0526078E4,3.3527453E4,-4.867652E3,-4.685532E3,-4.478339E3,-4.276525E3,-4.0600286E3,-3.8213142E3,-3.5788953E3,-3.35536E3,-3.1191248E3,-2.874211E3,-2.6218145E3,-2.3249463E3,-2.0243016E3,-1.7303011E3,-1.4517069E3,-1.1214337E3,-7.597643E2,-3.8333624E2,4.0533714E1,4.479251E2,8.397972E2,1.283417E3,1.7532457E3,2.236393E3,2.6072402E3,3.156057E3,3.6661492E3,4.709491E3,3.531946E3,4.749472E3,4.0846277E3,5.6081855E3,6.243785E3,7.0041245E3,7.619332E3,8.408039E3,8.580718E3,9.793849E3,1.0876689E4,1.1738816E4,1.2552328E4,1.3457669E4,1.4727838E4,1.5932939E4,1.8819914E4,1.9915732E4,2.1772049E4,2.42576E4],"categories":[],"categories_nodes":[],"categories_segments":[],"categories_sizes":[],"default_left":[0,0,0,0,0,0,0,0,0,0,0,0,0,0,0,0,0,0,0,0,0,0,0,0,0,0,0,0,0,0,0,0,0,0,0,0,0,0,0,0,0,0,0,0,0,0,0,0,0,0,0,0,0,0,0,0,0,0,0,0,0,0,0,0,0,0,0,0,0,0,0,0,0,0,0,0,0,0,0,0,0,0,0,0,0,0,0,0,0,0,0,0,0,0,0,0,0,0,0,0,0,0,0,0,0,0,0],"id":3,"left_children":[1,3,5,7,9,11,13,15,17,19,21,23,25,27,29,31,33,35,37,39,41,43,45,47,49,51,53,55,57,-1,-1,59,61,63,65,67,69,71,73,75,77,79,81,83,85,87,89,91,93,95,97,99,101,-1,103,105,-1,-1,-1,-1,-1,-1,-1,-1,-1,-1,-1,-1,-1,-1,-1,-1,-1,-1,-1,-1,-1,-1,-1,-1,-1,-1,-1,-1,-1,-1,-1,-1,-1,-1,-1,-1,-1,-1,-1,-1,-1,-1,-1,-1,-1,-1,-1,-1,-1,-1,-1],"loss_changes":[1.9335837E15,3.14126E14,3.835199E14,3.9829044E13,4.3335146E13,8.68935E13,5.655036E13,5.210802E12,4.5158645E12,6.423608E12,4.482981E12,1.1942459E13,1.079332E13,1.2506811E13,5.819681E11,6.4729855E11,5.572888E11,5.5651284E11,5.7423797E11,9.333969E11,7.5499726E11,6.398453E11,4.2895147E11,1.4681406E12,1.4107961E12,1.4217013E12,8.647648E11,2.8996062E12,1.1004176E11,0E0,0E0,7.034687E10,5.4156853E10,7.735974E10,5.1992592E10,5.309989E10,8.73317E10,6.911269E10,8.345983E10,1.088454E11,1.1519633E11,1.2626769E11,8.936961E10,1.232685E11,9.282414E10,1.18963044E11,8.968261E10,2.0339438E11,1.6323392E11,1.445525E11,1.4003103E11,6.874464E10,1.600882E11,0E0,2.6508E9,5.844343E11,0E0,0E0,0E0,0E0,0E0,0E0,0E0,0E0,0E0,0E0,0E0,0E0,0E0,0E0,0E0,0E0,0E0,0E0,0E0,0E0,0E0,0E0,0E0,0E0,0E0,0E0,0E0,0E0,0E0,0E0,0E0,0E0,0E0,0E0,0E0,0E0,0E0,0E0,0E0,0E0,0E0,0E0,0E0,0E0,0E0,0E0,0E0,0E0,0E0,0E0,0E0],"parents":[2147483647,0,0,1,1,2,2,3,3,4,4,5,5,6,6,7,7,8,8,9,9,10,10,11,11,12,12,13,13,14,14,15,15,16,16,17,17,18,18,19,19,20,20,21,21,22,22,23,23,24,24,25,25,26,26,27,27,28,28,31,31,32,32,33,33,34,34,35,35,36,36,37,37,38,38,39,39,40,40,41,41,42,42,43,43,44,44,45,45,46,46,47,47,48,48,49,49,50,50,51,51,52,52,54,54,55,55],"right_children":[2,4,6,8,10,12,14,16,18,20,22,24,26,28,30,32,34,36,38,40,42,44,46,48,50,52,54,56,58,-1,-1,60,62,64,66,68,70,72,74,76,78,80,82,84,86,88,90,92,94,96,98,100,102,-1,104,106,-1,-1,-1,-1,-1,-1,-1,-1,-1,-1,-1,-1,-1,-1,-1,-1,-1,-1,-1,-1,-1,-1,-1,-1,-1,-1,-1,-1,-1,-1,-1,-1,-1,-1,-1,-1,-1,-1,-1,-1,-1,-1,-1,-1,-1,-1,-1,-1,-1,-1,-1],"split_conditions":[2.5227025E5,9.232613E4,5.9688544E5,3.878231E4,1.6858588E5,3.9989828E5,9.7243194E5,1.702475E4,6.382941E4,1.2873619E5,2.1142773E5,3.212651E5,4.9772334E5,7.919305E5,1.4326E5,7.59094E3,2.816356E4,5.01435E4,7.703592E4,1.1005002E5,1.4977278E5,1.9171981E5,2.3415753E5,2.8597616E5,3.5783156E5,4.4061188E5,5.41026E5,7.1426044E5,1.1708615E5,3.9505992E4,4.4532613E4,3.1814E3,1.259824E4,2.265696E4,3.3895E4,4.48129E4,5.659065E4,7.062115E4,8.410164E4,1.0081656E5,1.200637E5,1.390714E5,2.376355E4,2.644353E4,3.625573E4,2.459184E4,2.417266E4,2.6817166E5,2.9808362E5,4.218089E4,3.770568E5,4.1348366E5,4.753177E5,1.7394432E4,5.656938E5,6.5028606E5,2.7285766E4,3.0526078E4,3.3527453E4,-4.867652E3,-4.685532E3,-4.478339E3,-4.276525E3,-4.0600286E3,-3.8213142E3,-3.5788953E3,-3.35536E3,-3.1191248E3,-2.874211E3,-2.6218145E3,-2.3249463E3,-2.0243016E3,-1.7303011E3,-1.4517069E3,-1.1214337E3,-7.597643E2,-3.8333624E2,4.0533714E1,4.479251E2,8.397972E2,1.283417E3,1.7532457E3,2.236393E3,2.6072402E3,3.156057E3,3.6661492E3,4.709491E3,3.531946E3,4.749472E3,4.0846277E3,5.6081855E3,6.243785E3,7.0041245E3,7.619332E3,8.408039E3,8.580718E3,9.793849E3,1.0876689E4,1.1738816E4,1.2552328E4,1.3457669E4,1.4727838E4,1.5932939E4,1.8819914E4,1.9915732E4,2.1772049E4,2.42576E4],"split_indices":[8,8,8,8,8,8,8,8,8,8,8,8,8,8,0,8,8,8,8,8,8,8,8,8,8,8,8,8,0,0,0,8,8,8,8,8,8,8,8,8,8,8,0,0,0,0,0,8,8,0,8,8,8,0,8,8,0,0,0,0,0,0,0,0,0,0,0,0,0,0,0,0,0,0,0,0,0,0,0,0,0,0,0,0,0,0,0,0,0,0,0,0,0,0,0,0,0,0,0,0,0,0,0,0,0,0,0],"split_type":[0,0,0,0,0,0,0,0,0,0,0,0,0,0,0,0,0,0,0,0,0,0,0,0,0,0,0,0,0,0,0,0,0,0,0,0,0,0,0,0,0,0,0,0,0,0,0,0,0,0,0,0,0,0,0,0,0,0,0,0,0,0,0,0,0,0,0,0,0,0,0,0,0,0,0,0,0,0,0,0,0,0,0,0,0,0,0,0,0,0,0,0,0,0,0,0,0,0,0,0,0,0,0,0,0,0,0],"sum_hessian":[1.6341E5,1.41688E5,2.1722E4,1.02688E5,3.9E4,1.8502E4,3.22E3,6.7096E4,3.5592E4,2.5604E4,1.3396E4,1.2144E4,6.358E3,2.581E3,6.39E2,4.09E4,2.6196E4,1.9683E4,1.5909E4,1.469E4,1.0914E4,7.628E3,5.768E3,6.985E3,5.159E3,3.818E3,2.54E3,1.929E3,6.52E2,1.83E2,4.56E2,2.5616E4,1.5284E4,1.4695E4,1.1501E4,9.497E3,1.0186E4,8.199E3,7.71E3,7.689E3,7.001E3,6.437E3,4.477E3,4.457E3,3.171E3,3.22E3,2.548E3,3.82E3,3.165E3,2.589E3,2.57E3,1.884E3,1.934E3,1.27E3,1.27E3,1.287E3,6.42E2,2.25E2,4.27E2,1.6035E4,9.581E3,8.258E3,7.026E3,7.673E3,7.022E3,6.357E3,5.144E3,5.072E3,4.425E3,5.033E3,5.153E3,4.387E3,3.812E3,3.844E3,3.866E3,3.866E3,3.823E3,3.827E3,3.174E3,3.217E3,3.22E3,3.05E3,1.427E3,2.768E3,1.689E3,2.927E3,2.44E2,2.31E2,2.989E3,1.14E2,2.434E3,1.903E3,1.917E3,1.272E3,1.893E3,3.57E2,2.232E3,1.295E3,1.275E3,6.33E2,1.251E3,1.28E3,6.54E2,6.41E2,6.29E2,6.56E2,6.31E2],"tree_param":{"num_deleted":"0","num_feature":"12","num_nodes":"107","size_leaf_vector":"1"}},{"base_weights":[4.2810513E1,-4.179572E4,2.5483562E5,-6.881913E4,2.724254E4,1.9856861E5,5.3757325E5,-8.230813E4,-4.4893047E4,4.7787505E3,6.807628E4,1.5515189E5,2.8553366E5,4.4390262E5,7.201669E5,-8.894384E4,-7.29972E4,-5.4453324E4,-3.360372E4,-8.0470645E3,2.055412E4,5.241993E4,8.6959555E4,1.3136833E5,1.9109E5,2.5576925E5,3.300689E5,3.9594034E5,4.914017E5,6.204032E5,8.206723E5,-9.170516E4,-8.490356E4,-7.731624E4,-6.864985E4,-5.9491324E4,-4.976161E4,-3.9210645E4,-2.798403E4,-1.4979009E4,-1.2360618E3,1.3731383E4,2.9058734E4,4.451675E4,6.0427617E4,7.8010734E4,9.585858E4,1.1716534E5,1.456997E5,1.7533933E5,2.0675977E5,2.3857897E5,2.7274662E5,3.1205478E5,1.7445156E4,1.8933807E4,4.122352E5,2.3116906E4,5.182818E5,2.9154979E4,3.1960953E4,7.941206E5,9.0957194E5,-4.642386E3,-4.5076504E3,-4.3472397E3,-4.1578853E3,-3.9710857E3,-3.7695774E3,-3.5458828E3,-3.3062585E3,-3.095933E3,-2.8680173E3,-2.6193992E3,-2.355422E3,-2.0785603E3,-1.8223248E3,-1.542887E3,-1.2207517E3,-9.0341046E2,-5.62825E2,-2.320493E2,1.4886456E2,4.8224545E2,8.9041956E2,1.2661019E3,1.71758E3,2.1185264E3,2.7486738E3,2.8396472E3,3.3711692E3,3.807884E3,4.7388374E3,4.702417E3,5.76021E3,5.5521187E3,6.2361567E3,6.892918E3,7.680019E3,8.363601E3,9.127905E3,8.216116E3,1.0410288E4,9.255093E3,1.1999934E4,1.108932E4,1.3727358E4,1.2064519E4,1.5684088E4,1.4978921E4,2.075998E4,1.8646912E4,2.6032941E4,3.5672582E4,4.0987652E4,4.120518E4,4.911147E4],"categories":[],"categories_nodes":[],"categories_segments":[],"categories_sizes":[],"default_left":[0,0,0,0,0,0,0,0,0,0,0,0,0,0,0,0,0,0,0,0,0,0,0,0,0,0,0,0,0,0,0,0,0,0,0,0,0,0,0,0,0,0,0,0,0,0,0,0,0,0,0,0,0,0,0,0,0,0,0,0,0,0,0,0,0,0,0,0,0,0,0,0,0,0,0,0,0,0,0,0,0,0,0,0,0,0,0,0,0,0,0,0,0,0,0,0,0,0,0,0,0,0,0,0,0,0,0,0,0,0,0,0,0,0,0,0,0],"id":4,"left_children":[1,3,5,7,9,11,13,15,17,19,21,23,25,27,29,31,33,35,37,39,41,43,45,47,49,51,53,55,57,59,61,63,65,67,69,71,73,75,77,79,81,83,85,87,89,91,93,95,97,99,101,103,105,107,-1,-1,109,-1,111,-1,-1,113,115,-1,-1,-1,-1,-1,-1,-1,-1,-1,-1,-1,-1,-1,-1,-1,-1,-1,-1,-1,-1,-1,-1,-1,-1,-1,-1,-1,-1,-1,-1,-1,-1,-1,-1,-1,-1,-1,-1,-1,-1,-1,-1,-1,-1,-1,-1,-1,-1,-1,-1,-1,-1,-1,-1],"loss_changes":[1.7443E15,2.62217E14,3.670526E14,3.2596487E13,3.6268025E13,7.2638634E13,6.5187336E13,3.984354E12,3.9288465E12,5.161249E12,4.1439052E12,1.0951395E13,8.4111566E12,5.5783237E12,1.2495603E13,4.129544E11,4.994745E11,4.6310988E11,5.251667E11,6.642754E11,6.6334595E11,4.829678E11,4.9892924E11,1.556565E12,1.2254582E12,1.05736726E12,7.610313E11,2.0005152E11,7.5178705E11,8.702342E10,7.954749E11,3.1323062E10,4.737886E10,4.862876E10,7.207492E10,4.560257E10,6.872157E10,5.3021245E10,8.483609E10,7.998302E10,1.0184278E11,1.05606414E11,9.981867E10,8.443344E10,9.302232E10,9.14568E10,1.0066959E11,1.6607347E11,2.1697135E11,1.1831293E11,1.2269178E11,1.01267276E11,1.1601445E11,7.629439E10,0E0,0E0,8.935545E10,0E0,3.073586E10,0E0,0E0,4.5523298E11,6.6144174E10,0E0,0E0,0E0,0E0,0E0,0E0,0E0,0E0,0E0,0E0,0E0,0E0,0E0,0E0,0E0,0E0,0E0,0E0,0E0,0E0,0E0,0E0,0E0,0E0,0E0,0E0,0E0,0E0,0E0,0E0,0E0,0E0,0E0,0E0,0E0,0E0,0E0,0E0,0E0,0E0,0E0,0E0,0E0,0E0,0E0,0E0,0E0,0E0,0E0,0E0,0E0,0E0,0E0,0E0],"parents":[2147483647,0,0,1,1,2,2,3,3,4,4,5,5,6,6,7,7,8,8,9,9,10,10,11,11,12,12,13,13,14,14,15,15,16,16,17,17,18,18,19,19,20,20,21,21,22,22,23,23,24,24,25,25,26,26,27,27,28,28,29,29,30,30,31,31,32,32,33,33,34,34,35,35,36,36,37,37,38,38,39,39,40,40,41,41,42,42,43,43,44,44,45,45,46,46,47,47,48,48,49,49,50,50,51,51,52,52,53,53,56,56,58,58,61,61,62,62],"right_children":[2,4,6,8,10,12,14,16,18,20,22,24,26,28,30,32,34,36,38,40,42,44,46,48,50,52,54,56,58,60,62,64,66,68,70,72,74,76,78,80,82,84,86,88,90,92,94,96,98,100,102,104,106,108,-1,-1,110,-1,112,-1,-1,114,116,-1,-1,-1,-1,-1,-1,-1,-1,-1,-1,-1,-1,-1,-1,-1,-1,-1,-1,-1,-1,-1,-1,-1,-1,-1,-1,-1,-1,-1,-1,-1,-1,-1,-1,-1,-1,-1,-1,-1,-1,-1,-1,-1,-1,-1,-1,-1,-1,-1,-1,-1,-1,-1,-1],"split_conditions":[2.428942E5,8.814925E4,5.656938E5,3.622979E4,1.5984253E5,3.8823906E5,7.919305E5,1.498767E4,6.003238E4,1.2173565E5,1.9930969E5,3.1311222E5,4.753177E5,6.5028606E5,9.7243194E5,5.90664E3,2.460329E4,4.705762E4,7.280143E4,1.0370185E5,1.4106383E5,1.7807902E5,2.2020914E5,2.7389697E5,3.4844044E5,4.2736584E5,5.19916E5,5.9688544E5,7.1426044E5,1.1708615E5,1.2E1,2.06833E3,9.8548E3,1.932565E4,3.045574E4,4.101486E4,5.327874E4,6.650229E4,1.158731E4,1.384065E4,1.633255E4,1.3060067E5,2.176517E4,2.746679E4,2.801298E4,3.625573E4,4.032345E4,3.699912E4,2.9160144E5,4.659562E4,3.486866E4,3.486866E4,4.316013E4,3.945519E4,1.7445156E4,1.8933807E4,4.127675E4,2.3116906E4,5.171544E4,2.9154979E4,3.1960953E4,1.4326E5,4.0250778E6,-4.642386E3,-4.5076504E3,-4.3472397E3,-4.1578853E3,-3.9710857E3,-3.7695774E3,-3.5458828E3,-3.3062585E3,-3.095933E3,-2.8680173E3,-2.6193992E3,-2.355422E3,-2.0785603E3,-1.8223248E3,-1.542887E3,-1.2207517E3,-9.0341046E2,-5.62825E2,-2.320493E2,1.4886456E2,4.8224545E2,8.9041956E2,1.2661019E3,1.71758E3,2.1185264E3,2.7486738E3,2.8396472E3,3.3711692E3,3.807884E3,4.7388374E3,4.702417E3,5.76021E3,5.5521187E3,6.2361567E3,6.892918E3,7.680019E3,8.363601E3,9.127905E3,8.216116E3,1.0410288E4,9.255093E3,1.1999934E4,1.108932E4,1.3727358E4,1.2064519E4,1.5684088E4,1.4978921E4,2.075998E4,1.8646912E4,2.6032941E4,3.5672582E4,4.0987652E4,4.120518E4,4.911147E4],"split_indices":[8,8,8,8,8,8,8,8,8,8,8,8,8,8,8,8,8,8,8,8,8,8,8,8,8,8,8,8,8,0,7,8,8,8,8,8,8,8,0,0,0,8,0,0,0,0,0,0,8,0,0,0,0,0,0,0,0,0,0,0,0,0,10,0,0,0,0,0,0,0,0,0,0,0,0,0,0,0,0,0,0,0,0,0,0,0,0,0,0,0,0,0,0,0,0,0,0,0,0,0,0,0,0,0,0,0,0,0,0,0,0,0,0,0,0,0,0],"split_type":[0,0,0,0,0,0,0,0,0,0,0,0,0,0,0,0,0,0,0,0,0,0,0,0,0,0,0,0,0,0,0,0,0,0,0,0,0,0,0,0,0,0,0,0,0,0,0,0,0,0,0,0,0,0,0,0,0,0,0,0,0,0,0,0,0,0,0,0,0,0,0,0,0,0,0,0,0,0,0,0,0,0,0,0,0,0,0,0,0,0,0,0,0,0,0,0,0,0,0,0,0,0,0,0,0,0,0,0,0,0,0,0,0,0,0,0,0],"sum_hessian":[1.63626E5,1.40548E5,2.3078E4,1.0101E5,3.9538E4,1.9249E4,3.829E3,6.4592E4,3.6418E4,2.5507E4,1.4031E4,1.2841E4,6.408E3,2.533E3,1.296E3,3.7709E4,2.6883E4,1.9717E4,1.6701E4,1.4069E4,1.1438E4,7.673E3,6.358E3,7.73E3,5.111E3,3.845E3,2.563E3,1.265E3,1.268E3,6.54E2,6.42E2,2.2387E4,1.5322E4,1.3477E4,1.3406E4,9.502E3,1.0215E4,8.357E3,8.344E3,6.972E3,7.097E3,6.348E3,5.09E3,3.865E3,3.808E3,3.175E3,3.183E3,3.887E3,3.843E3,2.555E3,2.556E3,1.918E3,1.927E3,1.319E3,1.244E3,6.26E2,6.39E2,6.18E2,6.5E2,2.3E2,4.24E2,5.02E2,1.4E2,1.2861E4,9.526E3,7.041E3,8.281E3,6.417E3,7.06E3,7.048E3,6.358E3,4.429E3,5.073E3,5.124E3,5.091E3,4.5E3,3.857E3,4.618E3,3.726E3,3.808E3,3.164E3,3.925E3,3.172E3,3.172E3,3.176E3,2.987E3,2.103E3,3.211E3,6.54E2,2.512E3,1.296E3,2.864E3,3.11E2,2.916E3,2.67E2,2.156E3,1.731E3,1.938E3,1.905E3,1.218E3,1.337E3,8.8E1,2.468E3,5.3E1,1.865E3,7E1,1.857E3,3.3E1,1.286E3,1.9E1,6.2E2,1.3E1,6.37E2,1.28E2,3.74E2,7E1,7E1],"tree_param":{"num_deleted":"0","num_feature":"12","num_nodes":"117","size_leaf_vector":"1"}},{"base_weights":[-6.5445656E-1,-3.962775E4,2.4153198E5,-6.5133945E4,2.6792322E4,1.83549E5,4.8291356E5,-7.800317E4,-4.196081E4,4.3393477E3,6.351119E4,1.411513E5,2.5306022E5,4.049997E5,6.7953244E5,-8.435675E4,-6.896836E4,-5.1110887E4,-3.0982389E4,-7.77857E3,1.7877285E4,4.743847E4,8.090966E4,1.20088E5,1.6743553E5,2.2808486E5,2.9682444E5,3.6465094E5,4.658227E5,5.8641825E5,7.7530094E5,-8.702478E4,-8.036129E4,-7.270533E4,-6.437076E4,-5.536957E4,-4.5955566E4,-3.6041945E4,-2.512384E4,-1.3722493E4,-1.804504E3,1.0679094E4,2.508621E4,3.9949223E4,5.473859E4,7.078436E4,8.938893E4,1.0919785E5,1.3089341E5,1.5363352E5,1.8117236E5,2.130176E5,2.4804302E5,2.7985353E5,3.1392294E5,1.7502662E4,3.9225194E5,2.1873162E4,4.9301484E5,2.1402553E4,2.9500896E4,3.583789E4,3.996272E4,-4.4104663E3,-4.276867E3,-4.107842E3,-3.92694E3,-3.7368445E3,-3.5260535E3,-3.3171687E3,-3.107267E3,-2.8812014E3,-2.641025E3,-2.4129285E3,-2.1837527E3,-1.9249369E3,-1.6509081E3,-1.3982943E3,-1.0943177E3,-8.1877875E2,-5.0659723E2,-2.2521776E2,1.0899465E2,3.3029572E2,6.9198663E2,1.062164E3,1.4860956E3,1.727024E3,2.1898171E3,2.3299048E3,2.872271E3,3.3927559E3,3.9874395E3,4.1860176E3,4.791626E3,5.3100444E3,6.01615E3,4.7238804E3,6.608847E3,5.9469175E3,7.747341E3,8.68857E3,9.430275E3,1.0301147E4,1.1123746E4,1.2027538E4,1.2796629E4,1.0353969E4,1.407687E4,1.231924E4,1.5748765E4,1.3863167E4,1.9734104E4,1.798988E4,2.4759807E4],"categories":[],"categories_nodes":[],"categories_segments":[],"categories_sizes":[],"default_left":[0,0,0,0,0,0,0,0,0,0,0,0,0,0,0,0,0,0,0,0,0,0,0,0,0,0,0,0,0,0,0,0,0,0,0,0,0,0,0,0,0,0,0,0,0,0,0,0,0,0,0,0,0,0,0,0,0,0,0,0,0,0,0,0,0,0,0,0,0,0,0,0,0,0,0,0,0,0,0,0,0,0,0,0,0,0,0,0,0,0,0,0,0,0,0,0,0,0,0,0,0,0,0,0,0,0,0,0,0,0,0,0,0,0,0],"id":5,"left_children":[1,3,5,7,9,11,13,15,17,19,21,23,25,27,29,31,33,35,37,39,41,43,45,47,49,51,53,55,57,59,61,63,65,67,69,71,73,75,77,79,81,83,85,87,89,91,93,95,97,99,101,103,105,107,109,-1,111,-1,113,-1,-1,-1,-1,-1,-1,-1,-1,-1,-1,-1,-1,-1,-1,-1,-1,-1,-1,-1,-1,-1,-1,-1,-1,-1,-1,-1,-1,-1,-1,-1,-1,-1,-1,-1,-1,-1,-1,-1,-1,-1,-1,-1,-1,-1,-1,-1,-1,-1,-1,-1,-1,-1,-1,-1,-1],"loss_changes":[1.5660554E15,2.3812773E14,3.2267378E14,3.0283982E13,3.2154013E13,5.476875E13,6.814093E13,3.7424265E12,3.6413605E12,3.9706805E12,4.1345687E12,6.3759796E12,7.63162E12,7.685844E12,1.0834793E13,4.01613E11,4.586052E11,4.3167777E11,4.8782587E11,4.535012E11,5.929524E11,4.1851604E11,6.036736E11,7.4081475E11,9.461343E11,1.2970633E12,6.5384166E11,6.398998E11,7.659806E11,1.1571246E11,2.9796336E11,3.2916898E10,4.38137E10,6.0699967E10,4.8993665E10,5.9171144E10,4.4912607E10,6.4437092E10,6.972087E10,6.0819636E10,6.854444E10,7.3572745E10,1.01108154E11,7.759934E10,8.312691E10,7.9744205E10,1.33078974E11,9.398177E10,1.3783322E11,9.8624864E10,1.0854859E11,1.2384102E11,5.2227473E10,1.0001737E11,1.2289311E10,0E0,7.472572E10,0E0,8.388608E9,0E0,0E0,0E0,0E0,0E0,0E0,0E0,0E0,0E0,0E0,0E0,0E0,0E0,0E0,0E0,0E0,0E0,0E0,0E0,0E0,0E0,0E0,0E0,0E0,0E0,0E0,0E0,0E0,0E0,0E0,0E0,0E0,0E0,0E0,0E0,0E0,0E0,0E0,0E0,0E0,0E0,0E0,0E0,0E0,0E0,0E0,0E0,0E0,0E0,0E0,0E0,0E0,0E0,0E0,0E0,0E0],"parents":[2147483647,0,0,1,1,2,2,3,3,4,4,5,5,6,6,7,7,8,8,9,9,10,10,11,11,12,12,13,13,14,14,15,15,16,16,17,17,18,18,19,19,20,20,21,21,22,22,23,23,24,24,25,25,26,26,27,27,28,28,29,29,30,30,31,31,32,32,33,33,34,34,35,35,36,36,37,37,38,38,39,39,40,40,41,41,42,42,43,43,44,44,45,45,46,46,47,47,48,48,49,49,50,50,51,51,52,52,53,53,54,54,56,56,58,58],"right_children":[2,4,6,8,10,12,14,16,18,20,22,24,26,28,30,32,34,36,38,40,42,44,46,48,50,52,54,56,58,60,62,64,66,68,70,72,74,76,78,80,82,84,86,88,90,92,94,96,98,100,102,104,106,108,110,-1,112,-1,114,-1,-1,-1,-1,-1,-1,-1,-1,-1,-1,-1,-1,-1,-1,-1,-1,-1,-1,-1,-1,-1,-1,-1,-1,-1,-1,-1,-1,-1,-1,-1,-1,-1,-1,-1,-1,-1,-1,-1,-1,-1,-1,-1,-1,-1,-1,-1,-1,-1,-1,-1,-1,-1,-1,-1,-1],"split_conditions":[2.428942E5,8.941471E4,5.41026E5,3.682995E4,1.571201E5,3.6679862E5,7.919305E5,1.537832E4,6.103638E4,1.200637E5,1.9546525E5,2.9808362E5,4.559201E5,6.5028606E5,9.7243194E5,6.2295E3,2.608358E4,4.934131E4,7.491835E4,1.0370185E5,1.3699348E5,1.7489084E5,2.1596428E5,2.6817166E5,3.2955916E5,4.1348366E5,4.9772334E5,5.9688544E5,7.1426044E5,5.322407E4,1.4326E5,2.06833E3,1.06275E4,2.072767E4,3.162381E4,4.325117E4,5.492495E4,9.82438E3,1.174941E4,1.405635E4,1.1337386E5,1.782923E4,2.106973E4,2.291599E4,2.417266E4,3.157628E4,3.286133E4,3.945519E4,2.3309E4,2.417266E4,3.4844044E5,5.63856E4,6.18605E4,3.860486E4,3.699912E4,1.7502662E4,3.699912E4,2.1873162E4,5.171544E4,2.1402553E4,2.9500896E4,3.583789E4,3.996272E4,-4.4104663E3,-4.276867E3,-4.107842E3,-3.92694E3,-3.7368445E3,-3.5260535E3,-3.3171687E3,-3.107267E3,-2.8812014E3,-2.641025E3,-2.4129285E3,-2.1837527E3,-1.9249369E3,-1.6509081E3,-1.3982943E3,-1.0943177E3,-8.1877875E2,-5.0659723E2,-2.2521776E2,1.0899465E2,3.3029572E2,6.9198663E2,1.062164E3,1.4860956E3,1.727024E3,2.1898171E3,2.3299048E3,2.872271E3,3.3927559E3,3.9874395E3,4.1860176E3,4.791626E3,5.3100444E3,6.01615E3,4.7238804E3,6.608847E3,5.9469175E3,7.747341E3,8.68857E3,9.430275E3,1.0301147E4,1.1123746E4,1.2027538E4,1.2796629E4,1.0353969E4,1.407687E4,1.231924E4,1.5748765E4,1.3863167E4,1.9734104E4,1.798988E4,2.4759807E4],"split_indices":[8,8,8,8,8,8,8,8,8,8,8,8,8,8,8,8,8,8,8,8,8,8,8,8,8,8,8,8,8,0,0,8,8,8,8,8,8,0,0,0,8,0,0,0,0,0,0,0,0,0,8,0,0,0,0,0,0,0,0,0,0,0,0,0,0,0,0,0,0,0,0,0,0,0,0,0,0,0,0,0,0,0,0,0,0,0,0,0,0,0,0,0,0,0,0,0,0,0,0,0,0,0,0,0,0,0,0,0,0,0,0,0,0,0,0],"split_type":[0,0,0,0,0,0,0,0,0,0,0,0,0,0,0,0,0,0,0,0,0,0,0,0,0,0,0,0,0,0,0,0,0,0,0,0,0,0,0,0,0,0,0,0,0,0,0,0,0,0,0,0,0,0,0,0,0,0,0,0,0,0,0,0,0,0,0,0,0,0,0,0,0,0,0,0,0,0,0,0,0,0,0,0,0,0,0,0,0,0,0,0,0,0,0,0,0,0,0,0,0,0,0,0,0,0,0,0,0,0,0,0,0,0,0],"sum_hessian":[1.63619E5,1.40559E5,2.306E4,1.01559E5,3.9E4,1.8595E4,4.465E3,6.5295E4,3.6264E4,2.4202E4,1.4798E4,1.1552E4,7.043E3,3.2E3,1.265E3,3.8331E4,2.6964E4,1.9777E4,1.6487E4,1.2771E4,1.1431E4,7.694E3,7.104E3,6.416E3,5.136E3,4.488E3,2.555E3,1.928E3,1.272E3,6.45E2,6.2E2,2.2971E4,1.536E4,1.4866E4,1.2098E4,1.0825E4,8.952E3,8.844E3,7.643E3,6.401E3,6.37E3,5.721E3,5.71E3,3.801E3,3.893E3,3.242E3,3.862E3,3.201E3,3.215E3,2.568E3,2.568E3,2.564E3,1.924E3,1.291E3,1.264E3,1.27E3,6.58E2,6.31E2,6.41E2,1.7E1,6.28E2,1.89E2,4.31E2,1.2755E4,1.0216E4,7.715E3,7.645E3,7.685E3,7.181E3,6.398E3,5.7E3,5.733E3,5.092E3,4.444E3,4.508E3,4.873E3,3.971E3,4.066E3,3.577E3,3.679E3,2.722E3,3.797E3,2.573E3,2.501E3,3.22E3,3.125E3,2.585E3,1.584E3,2.217E3,9.76E2,2.917E3,2.45E3,7.92E2,2.062E3,1.8E3,2.53E3,6.71E2,1.12E2,3.103E3,9.7E1,2.471E3,1.299E3,1.269E3,1.487E3,1.077E3,1.003E3,9.21E2,3.2E1,1.259E3,2.3E1,1.241E3,1.6E1,6.42E2,1.3E1,6.28E2],"tree_param":{"num_deleted":"0","num_feature":"12","num_nodes":"115","size_leaf_vector":"1"}},{"base_weights":[1.4047557E2,-3.7050152E4,2.3412383E5,-6.1616844E4,2.7225055E4,1.8233128E5,4.8348934E5,-7.393154E4,-3.9219215E4,5.489677E3,6.301875E4,1.3947403E5,2.5314827E5,3.9896422E5,6.503387E5,-8.0026125E4,-6.5129297E4,-4.7710293E4,-2.8284852E4,-5.6670537E3,1.9267148E4,4.876525E4,8.15801E4,1.1826912E5,1.6592628E5,2.2109706E5,2.911181E5,3.5731522E5,4.418521E5,5.6138644E5,7.399406E5,-8.258023E4,-7.607371E4,-6.891929E4,-6.093232E4,-5.234531E4,-4.30423E4,-3.277424E4,-2.2496922E4,-1.0869462E4,1.254208E3,1.3027678E4,2.6368904E4,4.252599E4,5.8860547E4,7.316676E4,8.994175E4,1.0946224E5,1.3144025E5,1.5201273E5,1.7963048E5,2.0626439E5,2.3589917E5,2.7479556E5,3.1499172E5,1.7058482E4,3.7262462E5,4.160229E5,2.3392188E4,2.895801E4,2.6350488E4,7.081541E5,3.9946594E4,-4.187011E3,-4.052776E3,-3.8901118E3,-3.7156895E3,-3.5431035E3,-3.3483247E3,-3.1501138E3,-2.9420898E3,-2.7267092E3,-2.5072668E3,-2.2781702E3,-2.0260829E3,-1.4901759E3,-1.7589344E3,-9.390748E2,-1.2290753E3,-7.344881E2,-4.0788077E2,3.4476257E2,-2.4775343E1,9.91092E2,5.540394E2,1.7951674E3,1.23035E3,2.3856648E3,1.8961864E3,3.0295596E3,2.3470562E3,3.753088E3,2.8746538E3,5.4262485E3,4.41152E3,5.1510894E3,5.799695E3,8.025699E3,6.4817817E3,7.665738E3,5.791278E3,9.472341E3,8.632409E3,1.0362447E4,8.23614E3,1.1530643E4,1.2307387E4,1.3337081E4,1.4488624E4,1.5795382E4,1.1383172E4,1.8761209E4,1.3540405E4,2.0869572E4,1.3684885E4,2.3657016E4,3.5691164E4],"categories":[],"categories_nodes":[],"categories_segments":[],"categories_sizes":[],"default_left":[0,0,0,0,0,0,0,0,0,0,0,0,0,0,0,0,0,0,0,0,0,0,0,0,0,0,0,0,0,0,0,0,0,0,0,0,0,0,0,0,0,0,0,0,0,0,0,0,0,0,0,0,0,0,0,0,0,0,0,0,0,0,0,0,0,0,0,0,0,0,0,0,0,0,0,0,0,0,0,0,0,0,0,0,0,0,0,0,0,0,0,0,0,0,0,0,0,0,0,0,0,0,0,0,0,0,0,0,0,0,0,0,0,0,0,0,0],"id":6,"left_children":[1,3,5,7,9,11,13,15,17,19,21,23,25,27,29,31,33,35,37,39,41,43,45,47,49,51,53,55,57,59,61,63,65,67,69,71,73,75,77,79,81,83,85,87,89,91,93,95,97,99,101,103,105,107,109,-1,111,113,-1,-1,-1,115,-1,-1,-1,-1,-1,-1,-1,-1,-1,-1,-1,-1,-1,-1,-1,-1,-1,-1,-1,-1,-1,-1,-1,-1,-1,-1,-1,-1,-1,-1,-1,-1,-1,-1,-1,-1,-1,-1,-1,-1,-1,-1,-1,-1,-1,-1,-1,-1,-1,-1,-1,-1,-1,-1,-1],"loss_changes":[1.4228707E15,2.2278054E14,2.8953676E14,2.8150893E13,3.0352135E13,5.6325074E13,5.4121554E13,3.5278794E12,3.3609252E12,3.7314568E12,3.895699E12,6.4707877E12,8.454509E12,4.418481E12,9.906107E12,3.8654706E11,4.2448873E11,4.3875775E11,4.1064543E11,4.8301457E11,4.8096425E11,5.228074E11,4.43728E11,7.310001E11,9.539022E11,7.856435E11,1.1607988E12,1.9545457E11,6.499158E11,9.437184E10,6.380711E11,3.4980495E10,4.0718303E10,4.895172E10,5.166963E10,4.649386E10,6.272372E10,6.2624104E10,5.3126627E10,7.921756E10,5.682626E10,7.62881E10,8.443763E10,1.2132968E11,6.2814945E10,9.061165E10,9.238374E10,1.5030288E11,1.1403474E11,1.0286111E11,1.4460282E11,4.38137E10,4.5894074E10,1.5297466E11,3.1499223E10,0E0,7.279634E10,1.0410263E10,0E0,0E0,0E0,2.2984786E11,0E0,0E0,0E0,0E0,0E0,0E0,0E0,0E0,0E0,0E0,0E0,0E0,0E0,0E0,0E0,0E0,0E0,0E0,0E0,0E0,0E0,0E0,0E0,0E0,0E0,0E0,0E0,0E0,0E0,0E0,0E0,0E0,0E0,0E0,0E0,0E0,0E0,0E0,0E0,0E0,0E0,0E0,0E0,0E0,0E0,0E0,0E0,0E0,0E0,0E0,0E0,0E0,0E0,0E0,0E0],"parents":[2147483647,0,0,1,1,2,2,3,3,4,4,5,5,6,6,7,7,8,8,9,9,10,10,11,11,12,12,13,13,14,14,15,15,16,16,17,17,18,18,19,19,20,20,21,21,22,22,23,23,24,24,25,25,26,26,27,27,28,28,29,29,30,30,31,31,32,32,33,33,34,34,35,35,36,36,37,37,38,38,39,39,40,40,41,41,42,42,43,43,44,44,45,45,46,46,47,47,48,48,49,49,50,50,51,51,52,52,53,53,54,54,56,56,57,57,61,61],"right_children":[2,4,6,8,10,12,14,16,18,20,22,24,26,28,30,32,34,36,38,40,42,44,46,48,50,52,54,56,58,60,62,64,66,68,70,72,74,76,78,80,82,84,86,88,90,92,94,96,98,100,102,104,106,108,110,-1,112,114,-1,-1,-1,116,-1,-1,-1,-1,-1,-1,-1,-1,-1,-1,-1,-1,-1,-1,-1,-1,-1,-1,-1,-1,-1,-1,-1,-1,-1,-1,-1,-1,-1,-1,-1,-1,-1,-1,-1,-1,-1,-1,-1,-1,-1,-1,-1,-1,-1,-1,-1,-1,-1,-1,-1,-1,-1,-1,-1],"split_conditions":[2.4761467E5,9.091597E4,5.656938E5,3.744229E4,1.5984253E5,3.770568E5,7.919305E5,1.576873E4,6.289406E4,1.2339675E5,2.0311352E5,3.0554934E5,4.559201E5,6.5028606E5,9.7243194E5,6.55699E3,2.608358E4,4.934131E4,7.703592E4,1.0828041E5,1.4106383E5,1.8462284E5,2.2472581E5,2.7975953E5,3.3822688E5,4.1348366E5,5.19916E5,5.9688544E5,7.1426044E5,-1.1708615E5,1.1E1,2.30365E3,1.102741E4,2.072767E4,3.162381E4,4.325117E4,5.580792E4,-1.01244E4,-1.247385E4,9.794718E4,-1.809218E4,-2.076242E4,-2.459184E4,-2.459184E4,-2.3309E4,-2.502535E4,-4.127675E4,2.623003E5,-5.322407E4,-2.459184E4,-5.171544E4,-3.286133E4,4.4061188E5,4.9772334E5,-3.419674E4,1.7058482E4,-4.316013E4,-2.291599E4,2.3392188E4,2.895801E4,2.6350488E4,2.9426592E6,3.9946594E4,-4.187011E3,-4.052776E3,-3.8901118E3,-3.7156895E3,-3.5431035E3,-3.3483247E3,-3.1501138E3,-2.9420898E3,-2.7267092E3,-2.5072668E3,-2.2781702E3,-2.0260829E3,-1.4901759E3,-1.7589344E3,-9.390748E2,-1.2290753E3,-7.344881E2,-4.0788077E2,3.4476257E2,-2.4775343E1,9.91092E2,5.540394E2,1.7951674E3,1.23035E3,2.3856648E3,1.8961864E3,3.0295596E3,2.3470562E3,3.753088E3,2.8746538E3,5.4262485E3,4.41152E3,5.1510894E3,5.799695E3,8.025699E3,6.4817817E3,7.665738E3,5.791278E3,9.472341E3,8.632409E3,1.0362447E4,8.23614E3,1.1530643E4,1.2307387E4,1.3337081E4,1.4488624E4,1.5795382E4,1.1383172E4,1.8761209E4,1.3540405E4,2.0869572E4,1.3684885E4,2.3657016E4,3.5691164E4],"split_indices":[8,8,8,8,8,8,8,8,8,8,8,8,8,8,8,8,8,8,8,8,8,8,8,8,8,8,8,8,8,3,7,8,8,8,8,8,8,3,3,8,3,3,3,3,3,3,3,8,3,3,3,3,8,8,3,0,3,3,0,0,0,10,0,0,0,0,0,0,0,0,0,0,0,0,0,0,0,0,0,0,0,0,0,0,0,0,0,0,0,0,0,0,0,0,0,0,0,0,0,0,0,0,0,0,0,0,0,0,0,0,0,0,0,0,0,0,0],"split_type":[0,0,0,0,0,0,0,0,0,0,0,0,0,0,0,0,0,0,0,0,0,0,0,0,0,0,0,0,0,0,0,0,0,0,0,0,0,0,0,0,0,0,0,0,0,0,0,0,0,0,0,0,0,0,0,0,0,0,0,0,0,0,0,0,0,0,0,0,0,0,0,0,0,0,0,0,0,0,0,0,0,0,0,0,0,0,0,0,0,0,0,0,0,0,0,0,0,0,0,0,0,0,0,0,0,0,0,0,0,0,0,0,0,0,0,0,0],"sum_hessian":[1.63509E5,1.41085E5,2.2424E4,1.02072E5,3.9013E4,1.8569E4,3.855E3,6.5859E4,3.6213E4,2.4274E4,1.4739E4,1.157E4,6.999E3,2.561E3,1.294E3,3.891E4,2.6949E4,2.0382E4,1.5831E4,1.3413E4,1.0861E4,8.339E3,6.4E3,6.425E3,5.145E3,3.799E3,3.2E3,1.304E3,1.257E3,6.53E2,6.41E2,2.3624E4,1.5286E4,1.4153E4,1.2796E4,1.0222E4,1.016E4,8.913E3,6.918E3,7.657E3,5.756E3,5.783E3,5.078E3,5.157E3,3.182E3,3.195E3,3.205E3,3.856E3,2.569E3,2.559E3,2.586E3,1.905E3,1.894E3,1.908E3,1.292E3,6.46E2,6.58E2,6.39E2,6.18E2,4.2E2,2.33E2,4.25E2,2.16E2,1.3386E4,1.0238E4,7.69E3,7.596E3,7.077E3,7.076E3,6.415E3,6.381E3,5.112E3,5.11E3,5.071E3,5.089E3,3.993E3,4.92E3,2.49E3,4.428E3,3.177E3,4.48E3,1.362E3,4.394E3,1.286E3,4.497E3,7.89E2,4.289E3,2.42E3,2.737E3,2.775E3,4.07E2,2.847E3,3.48E2,2.65E2,2.94E3,1.95E3,1.906E3,1.45E2,2.424E3,2.467E3,9.2E1,1.064E3,1.522E3,1.857E3,4.8E1,1.265E3,6.29E2,1.253E3,6.55E2,1.276E3,1.6E1,6.39E2,1.9E1,6.31E2,8E0,1.2E1,4.13E2],"tree_param":{"num_deleted":"0","num_feature":"12","num_nodes":"117","size_leaf_vector":"1"}},{"base_weights":[9.528409E1,-3.575547E4,2.185301E5,-5.902037E4,2.3443236E4,1.6596955E5,4.3736762E5,-7.056084E4,-3.850825E4,3.4618992E3,5.715041E4,1.2746639E5,2.2825414E5,3.6568672E5,6.153321E5,-7.636821E4,-6.27259E4,-4.6722844E4,-2.8802623E4,-7.50806E3,1.6181951E4,4.398794E4,7.4325125E4,1.0846134E5,1.5105778E5,2.0065142E5,2.61293E5,3.2939194E5,4.207019E5,5.2928094E5,6.9870325E5,-7.87149E4,-7.302844E4,-6.643789E4,-5.8845434E4,-5.100335E4,-4.269988E4,-3.3654363E4,-2.3935156E4,-1.280455E4,-1.7365034E3,8.907981E3,2.1929422E4,3.599418E4,5.0759984E4,6.800575E4,8.385442E4,9.641975E4,1.1637293E5,1.3914E5,1.6320781E5,1.875925E5,2.1380298E5,2.469818E5,1.4151036E4,3.1629875E5,3.5545134E5,1.9780865E4,4.448475E5,2.7331686E4,2.4821186E4,3.599551E4,3.2195303E4,-3.9840442E3,-3.8741345E3,-3.7398508E3,-3.5783176E3,-3.4200994E3,-3.239155E3,-3.0516091E3,-2.843536E3,-2.438656E3,-2.636017E3,-2.0105013E3,-2.2377542E3,-1.5679916E3,-1.7969584E3,-1.0657814E3,-1.3442651E3,-5.0057843E2,-8.0371387E2,5.274305E1,-2.8679742E2,7.595283E2,3.7334305E2,1.2719717E3,8.565205E2,2.348466E3,1.7206383E3,2.7672139E3,2.308777E3,3.6817083E3,3.154596E3,4.283905E3,3.4334138E3,4.88964E3,3.5367524E3,6.8823696E3,5.7102397E3,7.2184644E3,6.5249478E3,8.226791E3,6.0232095E3,9.440844E3,7.675376E3,1.0732314E4,7.4547344E3,1.2400462E4,8.372564E3,1.5867575E4,1.27669795E4,1.7852941E4,1.2932201E4,2.236215E4,1.580088E4],"categories":[],"categories_nodes":[],"categories_segments":[],"categories_sizes":[],"default_left":[0,0,0,0,0,0,0,0,0,0,0,0,0,0,0,0,0,0,0,0,0,0,0,0,0,0,0,0,0,0,0,0,0,0,0,0,0,0,0,0,0,0,0,0,0,0,0,0,0,0,0,0,0,0,0,0,0,0,0,0,0,0,0,0,0,0,0,0,0,0,0,0,0,0,0,0,0,0,0,0,0,0,0,0,0,0,0,0,0,0,0,0,0,0,0,0,0,0,0,0,0,0,0,0,0,0,0,0,0,0,0,0,0,0,0],"id":7,"left_children":[1,3,5,7,9,11,13,15,17,19,21,23,25,27,29,31,33,35,37,39,41,43,45,47,49,51,53,55,57,59,61,63,65,67,69,71,73,75,77,79,81,83,85,87,89,91,93,95,97,99,101,103,105,107,-1,109,111,-1,113,-1,-1,-1,-1,-1,-1,-1,-1,-1,-1,-1,-1,-1,-1,-1,-1,-1,-1,-1,-1,-1,-1,-1,-1,-1,-1,-1,-1,-1,-1,-1,-1,-1,-1,-1,-1,-1,-1,-1,-1,-1,-1,-1,-1,-1,-1,-1,-1,-1,-1,-1,-1,-1,-1,-1,-1],"loss_changes":[1.280197E15,1.9340748E14,2.6503049E14,2.3861228E13,2.6683766E13,4.454304E13,5.670793E13,2.930577E12,2.892694E12,3.4711405E12,3.3300131E12,5.1343146E12,6.4215465E12,6.219146E12,8.813206E12,2.845919E11,3.9175638E11,3.3634124E11,3.9220622E11,4.0828777E11,4.8137844E11,4.5019352E11,3.7946288E11,5.95264E11,7.19105E11,6.2490096E11,9.338366E11,5.4369924E11,5.8837697E11,9.011043E10,2.8829968E11,1.9721617E10,3.4217132E10,4.1167094E10,5.4559506E10,3.3881588E10,5.008838E10,4.255331E10,6.365433E10,6.3445533E10,7.137691E10,4.5935034E10,1.0794251E11,6.491E10,9.239632E10,1.0186077E11,6.4625836E10,8.2306925E10,1.612626E11,9.833126E10,1.2384941E11,5.2432994E10,7.288023E10,1.1813677E11,0E0,1.6944988E9,6.467617E9,0E0,5.4635004E10,0E0,0E0,0E0,0E0,0E0,0E0,0E0,0E0,0E0,0E0,0E0,0E0,0E0,0E0,0E0,0E0,0E0,0E0,0E0,0E0,0E0,0E0,0E0,0E0,0E0,0E0,0E0,0E0,0E0,0E0,0E0,0E0,0E0,0E0,0E0,0E0,0E0,0E0,0E0,0E0,0E0,0E0,0E0,0E0,0E0,0E0,0E0,0E0,0E0,0E0,0E0,0E0,0E0,0E0,0E0,0E0],"parents":[2147483647,0,0,1,1,2,2,3,3,4,4,5,5,6,6,7,7,8,8,9,9,10,10,11,11,12,12,13,13,14,14,15,15,16,16,17,17,18,18,19,19,20,20,21,21,22,22,23,23,24,24,25,25,26,26,27,27,28,28,29,29,30,30,31,31,32,32,33,33,34,34,35,35,36,36,37,37,38,38,39,39,40,40,41,41,42,42,43,43,44,44,45,45,46,46,47,47,48,48,49,49,50,50,51,51,52,52,53,53,55,55,56,56,58,58],"right_children":[2,4,6,8,10,12,14,16,18,20,22,24,26,28,30,32,34,36,38,40,42,44,46,48,50,52,54,56,58,60,62,64,66,68,70,72,74,76,78,80,82,84,86,88,90,92,94,96,98,100,102,104,106,108,-1,110,112,-1,114,-1,-1,-1,-1,-1,-1,-1,-1,-1,-1,-1,-1,-1,-1,-1,-1,-1,-1,-1,-1,-1,-1,-1,-1,-1,-1,-1,-1,-1,-1,-1,-1,-1,-1,-1,-1,-1,-1,-1,-1,-1,-1,-1,-1,-1,-1,-1,-1,-1,-1,-1,-1,-1,-1,-1,-1],"split_conditions":[2.428942E5,8.814925E4,5.41026E5,3.622979E4,1.571201E5,3.6679862E5,7.919305E5,1.459242E4,6.003238E4,1.200637E5,1.9930969E5,2.9808362E5,4.4061188E5,6.5028606E5,9.7243194E5,5.604E3,2.460329E4,4.705762E4,7.280143E4,1.0370185E5,1.3475975E5,1.7489084E5,2.2472581E5,2.623003E5,3.2955916E5,3.9989828E5,4.9772334E5,5.9688544E5,7.1426044E5,-1.1708615E5,-1.4326E5,1.80082E3,9.46868E3,1.890661E4,2.986891E4,-6.01547E3,-7.71112E3,-9.40191E3,-1.125242E4,-1.343967E4,-1.538705E4,-2.04489E4,-2.01288E4,-2.801298E4,-2.644353E4,-3.033662E4,-2.801298E4,-2.695058E4,-4.780254E4,-4.316013E4,-2.746679E4,-3.625573E4,-2.644353E4,-2.971201E4,1.4151036E4,-4.780254E4,-3.699912E4,1.9780865E4,-5.171544E4,2.7331686E4,2.4821186E4,3.599551E4,3.2195303E4,-3.9840442E3,-3.8741345E3,-3.7398508E3,-3.5783176E3,-3.4200994E3,-3.239155E3,-3.0516091E3,-2.843536E3,-2.438656E3,-2.636017E3,-2.0105013E3,-2.2377542E3,-1.5679916E3,-1.7969584E3,-1.0657814E3,-1.3442651E3,-5.0057843E2,-8.0371387E2,5.274305E1,-2.8679742E2,7.595283E2,3.7334305E2,1.2719717E3,8.565205E2,2.348466E3,1.7206383E3,2.7672139E3,2.308777E3,3.6817083E3,3.154596E3,4.283905E3,3.4334138E3,4.88964E3,3.5367524E3,6.8823696E3,5.7102397E3,7.2184644E3,6.5249478E3,8.226791E3,6.0232095E3,9.440844E3,7.675376E3,1.0732314E4,7.4547344E3,1.2400462E4,8.372564E3,1.5867575E4,1.27669795E4,1.7852941E4,1.2932201E4,2.236215E4,1.580088E4],"split_indices":[8,8,8,8,8,8,8,8,8,8,8,8,8,8,8,8,8,8,8,8,8,8,8,8,8,8,8,8,8,3,3,8,8,8,8,3,3,3,3,3,3,3,3,3,3,3,3,3,3,3,3,3,3,3,0,3,3,0,3,0,0,0,0,0,0,0,0,0,0,0,0,0,0,0,0,0,0,0,0,0,0,0,0,0,0,0,0,0,0,0,0,0,0,0,0,0,0,0,0,0,0,0,0,0,0,0,0,0,0,0,0,0,0,0,0],"split_type":[0,0,0,0,0,0,0,0,0,0,0,0,0,0,0,0,0,0,0,0,0,0,0,0,0,0,0,0,0,0,0,0,0,0,0,0,0,0,0,0,0,0,0,0,0,0,0,0,0,0,0,0,0,0,0,0,0,0,0,0,0,0,0,0,0,0,0,0,0,0,0,0,0,0,0,0,0,0,0,0,0,0,0,0,0,0,0,0,0,0,0,0,0,0,0,0,0,0,0,0,0,0,0,0,0,0,0,0,0,0,0,0,0,0,0],"sum_hessian":[1.63475E5,1.40428E5,2.3047E4,1.0081E5,3.9618E4,1.8585E4,4.462E3,6.4512E4,3.6298E4,2.4874E4,1.4744E4,1.1487E4,7.098E3,3.183E3,1.279E3,3.7045E4,2.7467E4,1.9657E4,1.6641E4,1.3356E4,1.1518E4,8.349E3,6.395E3,6.365E3,5.122E3,3.871E3,3.227E3,1.922E3,1.261E3,6.33E2,6.46E2,2.1744E4,1.5301E4,1.403E4,1.3437E4,9.518E3,1.0139E4,8.331E3,8.31E3,6.964E3,6.392E3,5.085E3,6.433E3,3.832E3,4.517E3,3.85E3,2.545E3,2.529E3,3.836E3,2.592E3,2.53E3,1.95E3,1.921E3,1.953E3,1.274E3,1.288E3,6.34E2,6.27E2,6.34E2,4.04E2,2.29E2,4.57E2,1.89E2,1.2153E4,9.591E3,6.902E3,8.399E3,6.397E3,7.633E3,6.362E3,7.075E3,4.153E3,5.365E3,4.594E3,5.545E3,4.164E3,4.167E3,4.406E3,3.904E3,3.758E3,3.206E3,3.765E3,2.627E3,9.47E2,4.138E3,3.713E3,2.72E3,4.79E2,3.353E3,2.253E3,2.264E3,1.788E3,2.062E3,2.268E3,2.77E2,2.398E3,1.31E2,3.49E2,3.487E3,1.605E3,9.87E2,2.451E3,7.9E1,1.878E3,7.2E1,1.894E3,2.7E1,1.926E3,2.7E1,1.262E3,2.6E1,6.21E2,1.3E1,6.2E2,1.4E1],"tree_param":{"num_deleted":"0","num_feature":"12","num_nodes":"115","size_leaf_vector":"1"}},{"base_weights":[-2.0688894E1,-3.2927473E4,2.1503497E5,-5.486016E4,2.7657887E4,1.6710527E5,4.368357E5,-6.627532E4,-3.3469965E4,7.9997734E3,6.0641527E4,1.30678625E5,2.331191E5,3.6120306E5,5.868856E5,-7.178848E4,-5.753788E4,-4.116741E4,-2.2854158E4,-1.3620605E3,2.1806246E4,4.8496105E4,7.8268445E4,1.1071379E5,1.5559747E5,2.0886552E5,2.695797E5,3.232998E5,3.9864966E5,5.041658E5,6.6619406E5,-7.422368E4,-6.7615625E4,-6.091052E4,-5.364678E4,-4.5541844E4,-3.660519E4,-2.719794E4,-1.7740936E4,-6.8066484E3,5.1592715E3,1.6390535E4,2.7967918E4,4.1370156E4,5.677593E4,7.126027E4,8.4965914E4,1.0029329E5,1.2104462E5,1.4286966E5,1.6824972E5,1.9445927E5,2.2282858E5,2.5490267E5,2.8410172E5,1.543881E4,3.3692525E5,3.76199E5,4.2132175E5,1.7148178E4,2.5335607E4,6.448091E5,7.3921125E5,-3.7603574E3,-3.6041672E3,-3.4529355E3,-3.2951042E3,-3.125998E3,-2.9494111E3,-2.7600222E3,-2.5747556E3,-2.3852986E3,-2.1728918E3,-1.9445231E3,-1.7117336E3,-1.2496703E3,-1.4913845E3,-9.9020294E2,-7.117923E2,-4.8277823E2,-1.7712431E2,1.1849871E2,4.3131485E2,3.6284595E2,8.781509E2,8.248112E2,1.4574896E3,1.3633427E3,2.136145E3,2.775383E3,3.6217615E3,2.3285417E3,3.6315708E3,4.0017068E3,4.5044883E3,3.6994714E3,5.074213E3,5.9616274E3,7.3789165E3,6.7201484E3,7.405978E3,6.9834233E3,8.500905E3,6.5326914E3,9.762247E3,1.0763054E4,1.1565966E4,9.868465E3,1.2816225E4,1.014446E4,1.424239E4,1.23017E4,1.6963422E4,1.1402127E4,1.8872186E4,1.5796461E4,2.1168432E4,3.323386E4,2.9098787E4,2.970985E4,3.848083E4],"categories":[],"categories_nodes":[],"categories_segments":[],"categories_sizes":[],"default_left":[0,0,0,0,0,0,0,0,0,0,0,0,0,0,0,0,0,0,0,0,0,0,0,0,0,0,0,0,0,0,0,0,0,0,0,0,0,0,0,0,0,0,0,0,0,0,0,0,0,0,0,0,0,0,0,0,0,0,0,0,0,0,0,0,0,0,0,0,0,0,0,0,0,0,0,0,0,0,0,0,0,0,0,0,0,0,0,0,0,0,0,0,0,0,0,0,0,0,0,0,0,0,0,0,0,0,0,0,0,0,0,0,0,0,0,0,0,0,0,0,0],"id":8,"left_children":[1,3,5,7,9,11,13,15,17,19,21,23,25,27,29,31,33,35,37,39,41,43,45,47,49,51,53,55,57,59,61,63,65,67,69,71,73,75,77,79,81,83,85,87,89,91,93,95,97,99,101,103,105,107,109,-1,111,113,115,-1,-1,117,119,-1,-1,-1,-1,-1,-1,-1,-1,-1,-1,-1,-1,-1,-1,-1,-1,-1,-1,-1,-1,-1,-1,-1,-1,-1,-1,-1,-1,-1,-1,-1,-1,-1,-1,-1,-1,-1,-1,-1,-1,-1,-1,-1,-1,-1,-1,-1,-1,-1,-1,-1,-1,-1,-1,-1,-1,-1,-1],"loss_changes":[1.1594613E15,1.8882003E14,2.310734E14,2.5472008E13,2.4488788E13,4.2967255E13,4.3627875E13,3.272698E12,2.9657085E12,3.0589526E12,3.0156794E12,5.716484E12,5.5651703E12,3.5202626E12,8.146714E12,4.187593E11,3.4215454E11,4.1831052E11,3.384971E11,5.008112E11,3.18657E11,4.904924E11,2.6392658E11,6.7704455E11,8.011037E11,7.2549715E11,4.681011E11,1.498541E11,4.9761223E11,8.769451E10,5.4921894E11,4.9996104E10,3.3478935E10,3.9912997E10,3.8042337E10,4.636174E10,5.4499738E10,4.7082635E10,5.043231E10,7.144967E10,6.204524E10,5.4402875E10,6.015104E10,8.45535E10,7.265898E10,9.198004E10,6.6980938E10,9.2520055E10,1.367427E11,9.392724E10,1.05847456E11,6.918924E10,7.447406E10,5.3368324E10,1.8916311E10,0E0,5.5171875E10,3.5089547E10,2.801795E9,0E0,0E0,2.5734572E11,1.6879557E11,0E0,0E0,0E0,0E0,0E0,0E0,0E0,0E0,0E0,0E0,0E0,0E0,0E0,0E0,0E0,0E0,0E0,0E0,0E0,0E0,0E0,0E0,0E0,0E0,0E0,0E0,0E0,0E0,0E0,0E0,0E0,0E0,0E0,0E0,0E0,0E0,0E0,0E0,0E0,0E0,0E0,0E0,0E0,0E0,0E0,0E0,0E0,0E0,0E0,0E0,0E0,0E0,0E0,0E0,0E0,0E0,0E0,0E0],"parents":[2147483647,0,0,1,1,2,2,3,3,4,4,5,5,6,6,7,7,8,8,9,9,10,10,11,11,12,12,13,13,14,14,15,15,16,16,17,17,18,18,19,19,20,20,21,21,22,22,23,23,24,24,25,25,26,26,27,27,28,28,29,29,30,30,31,31,32,32,33,33,34,34,35,35,36,36,37,37,38,38,39,39,40,40,41,41,42,42,43,43,44,44,45,45,46,46,47,47,48,48,49,49,50,50,51,51,52,52,53,53,54,54,56,56,57,57,58,58,61,61,62,62],"right_children":[2,4,6,8,10,12,14,16,18,20,22,24,26,28,30,32,34,36,38,40,42,44,46,48,50,52,54,56,58,60,62,64,66,68,70,72,74,76,78,80,82,84,86,88,90,92,94,96,98,100,102,104,106,108,110,-1,112,114,116,-1,-1,118,120,-1,-1,-1,-1,-1,-1,-1,-1,-1,-1,-1,-1,-1,-1,-1,-1,-1,-1,-1,-1,-1,-1,-1,-1,-1,-1,-1,-1,-1,-1,-1,-1,-1,-1,-1,-1,-1,-1,-1,-1,-1,-1,-1,-1,-1,-1,-1,-1,-1,-1,-1,-1,-1,-1,-1,-1,-1,-1],"split_conditions":[2.5227025E5,9.501551E4,5.656938E5,3.950346E4,1.6544911E5,3.8823906E5,7.919305E5,1.749593E4,6.650229E4,1.3060067E5,2.1142773E5,3.1311222E5,4.753177E5,6.5028606E5,9.7243194E5,7.96138E3,2.816356E4,5.24084E4,8.045977E4,1.1337386E5,1.4762489E5,1.880647E5,3.286133E4,2.7975953E5,3.4844044E5,4.2736584E5,5.19916E5,5.9688544E5,7.1426044E5,5.322407E4,1.2E1,3.96901E3,1.299022E4,2.314492E4,3.443504E4,6.45704E3,8.45637E3,-1.029335E4,1.303957E4,1.494729E4,1.757758E4,1.633255E4,1.757758E4,1.922296E4,3.625573E4,1.732057E4,2.3843592E5,2.595516E4,5.322407E4,4.53737E4,4.127675E4,2.459184E4,6.412138E4,3.945519E4,2.911298E4,1.543881E4,4.53737E4,2.212701E4,5.171544E4,1.7148178E4,2.5335607E4,-1.4326E5,2.7164202E6,-3.7603574E3,-3.6041672E3,-3.4529355E3,-3.2951042E3,-3.125998E3,-2.9494111E3,-2.7600222E3,-2.5747556E3,-2.3852986E3,-2.1728918E3,-1.9445231E3,-1.7117336E3,-1.2496703E3,-1.4913845E3,-9.9020294E2,-7.117923E2,-4.8277823E2,-1.7712431E2,1.1849871E2,4.3131485E2,3.6284595E2,8.781509E2,8.248112E2,1.4574896E3,1.3633427E3,2.136145E3,2.775383E3,3.6217615E3,2.3285417E3,3.6315708E3,4.0017068E3,4.5044883E3,3.6994714E3,5.074213E3,5.9616274E3,7.3789165E3,6.7201484E3,7.405978E3,6.9834233E3,8.500905E3,6.5326914E3,9.762247E3,1.0763054E4,1.1565966E4,9.868465E3,1.2816225E4,1.014446E4,1.424239E4,1.23017E4,1.6963422E4,1.1402127E4,1.8872186E4,1.5796461E4,2.1168432E4,3.323386E4,2.9098787E4,2.970985E4,3.848083E4],"split_indices":[8,8,8,8,8,8,8,8,8,8,8,8,8,8,8,8,8,8,8,8,8,8,0,8,8,8,8,8,8,0,7,8,8,8,8,0,0,3,0,0,0,0,0,0,0,0,8,0,0,0,0,0,0,0,0,0,0,0,0,0,0,3,10,0,0,0,0,0,0,0,0,0,0,0,0,0,0,0,0,0,0,0,0,0,0,0,0,0,0,0,0,0,0,0,0,0,0,0,0,0,0,0,0,0,0,0,0,0,0,0,0,0,0,0,0,0,0,0,0,0,0],"split_type":[0,0,0,0,0,0,0,0,0,0,0,0,0,0,0,0,0,0,0,0,0,0,0,0,0,0,0,0,0,0,0,0,0,0,0,0,0,0,0,0,0,0,0,0,0,0,0,0,0,0,0,0,0,0,0,0,0,0,0,0,0,0,0,0,0,0,0,0,0,0,0,0,0,0,0,0,0,0,0,0,0,0,0,0,0,0,0,0,0,0,0,0,0,0,0,0,0,0,0,0,0,0,0,0,0,0,0,0,0,0,0,0,0,0,0,0,0,0,0,0,0],"sum_hessian":[1.63838E5,1.42096E5,2.1742E4,1.04328E5,3.7768E4,1.788E4,3.862E3,6.8024E4,3.6304E4,2.3665E4,1.4103E4,1.1524E4,6.356E3,2.57E3,1.292E3,4.1703E4,2.6321E4,2.1043E4,1.5261E4,1.4103E4,9.562E3,8.352E3,5.751E3,6.401E3,5.123E3,3.821E3,2.535E3,1.282E3,1.288E3,6.36E2,6.56E2,2.6324E4,1.5379E4,1.4092E4,1.2229E4,1.0738E4,1.0305E4,8.249E3,7.012E3,7.686E3,6.417E3,5.091E3,4.471E3,4.492E3,3.86E3,2.816E3,2.935E3,3.192E3,3.209E3,2.56E3,2.563E3,1.888E3,1.933E3,1.27E3,1.265E3,6.32E2,6.5E2,6.56E2,6.32E2,1.2E1,6.24E2,5.15E2,1.41E2,1.8013E4,8.311E3,8.327E3,7.052E3,7.653E3,6.439E3,7.087E3,5.142E3,5.257E3,5.481E3,5.239E3,5.066E3,4.493E3,3.756E3,4.411E3,2.601E3,4.103E3,3.583E3,3.557E3,2.86E3,5.8E2,4.511E3,4.19E2,4.052E3,3.95E2,4.097E3,3.575E3,2.85E2,1.5E2,2.666E3,1.504E3,1.431E3,1.41E2,3.051E3,3.009E3,2E2,9.9E2,1.57E3,1.54E2,2.409E3,2.5E1,1.863E3,1.036E3,8.97E2,3.4E1,1.236E3,1.4E1,1.251E3,1.9E1,6.31E2,7E0,6.49E2,1.5E1,6.17E2,3.84E2,1.31E2,2.8E1,1.13E2],"tree_param":{"num_deleted":"0","num_feature":"12","num_nodes":"121","size_leaf_vector":"1"}},{"base_weights":[1.4129181E2,-3.2254451E4,1.965403E5,-5.3280242E4,2.1106738E4,1.496844E5,3.9384066E5,-6.385145E4,-3.5043727E4,2.4005032E3,5.0627984E4,1.1494827E5,2.0602884E5,3.306112E5,5.566588E5,-6.903241E4,-5.694489E4,-4.2694883E4,-2.6286113E4,-7.8742534E3,1.2789754E4,3.7716188E4,6.5891516E4,9.782374E4,1.3633412E5,1.8521972E5,2.4213653E5,2.964763E5,3.8143666E5,4.7812947E5,6.3379275E5,-7.112753E4,-6.615782E4,-6.0236113E4,-5.3489758E4,-4.6514625E4,-3.9041477E4,-3.0996092E4,-2.193131E4,-1.2069953E4,-3.1862278E3,7.120599E3,1.9082846E4,3.0559654E4,4.375754E4,5.753884E4,7.278748E4,8.8752414E4,1.0673908E5,1.2541921E5,1.4727247E5,1.732663E5,2.0186917E5,2.283932E5,1.2777433E4,1.4256437E4,3.1888475E5,3.5849688E5,2.0151076E4,2.4667748E4,2.2357713E4,6.072377E5,6.8626294E5,-3.6023865E3,-3.507282E3,-3.3853845E3,-3.2418762E3,-3.099794E3,-2.9379668E3,-2.7705334E3,-2.586868E3,-2.2380417E3,-2.4153274E3,-1.8411356E3,-2.0436035E3,-1.4524772E3,-1.6510951E3,-1.2112009E3,-9.41277E2,-4.9785043E2,-7.614897E2,-1.0066545E1,-2.7682935E2,5.378287E2,2.3346243E2,1.4256602E3,8.90063E2,1.5930807E3,9.5201263E2,2.6226174E3,2.0814866E3,2.9169402E3,1.7382816E3,3.7044758E3,2.4772688E3,5.293206E3,4.3423354E3,6.371247E3,5.243944E3,6.5095537E3,5.8847935E3,7.41804E3,5.429384E3,8.987956E3,8.26829E3,1.0239792E4,9.332168E3,1.1504017E4,8.1429453E3,1.6052112E4,1.1336753E4,1.7985756E4,1.1710065E4,2.4393193E4,3.0739295E4,2.1359188E4,3.466863E4],"categories":[],"categories_nodes":[],"categories_segments":[],"categories_sizes":[],"default_left":[0,0,0,0,0,0,0,0,0,0,0,0,0,0,0,0,0,0,0,0,0,0,0,0,0,0,0,0,0,0,0,0,0,0,0,0,0,0,0,0,0,0,0,0,0,0,0,0,0,0,0,0,0,0,0,0,0,0,0,0,0,0,0,0,0,0,0,0,0,0,0,0,0,0,0,0,0,0,0,0,0,0,0,0,0,0,0,0,0,0,0,0,0,0,0,0,0,0,0,0,0,0,0,0,0,0,0,0,0,0,0,0,0,0,0,0,0],"id":9,"left_children":[1,3,5,7,9,11,13,15,17,19,21,23,25,27,29,31,33,35,37,39,41,43,45,47,49,51,53,55,57,59,61,63,65,67,69,71,73,75,77,79,81,83,85,87,89,91,93,95,97,99,101,103,105,107,-1,-1,109,111,-1,-1,-1,113,115,-1,-1,-1,-1,-1,-1,-1,-1,-1,-1,-1,-1,-1,-1,-1,-1,-1,-1,-1,-1,-1,-1,-1,-1,-1,-1,-1,-1,-1,-1,-1,-1,-1,-1,-1,-1,-1,-1,-1,-1,-1,-1,-1,-1,-1,-1,-1,-1,-1,-1,-1,-1,-1,-1],"loss_changes":[1.0418643E15,1.5770957E14,2.1428833E14,1.943674E13,2.1941134E13,3.6650097E13,4.561799E13,2.2800908E12,2.478364E12,2.5964018E12,3.0347132E12,4.2326567E12,5.323679E12,5.450817E12,7.2261147E12,2.1493291E11,3.0797097E11,2.7377061E11,3.532789E11,2.4050047E11,4.3133593E11,3.5971924E11,4.0252106E11,5.1152054E11,5.967488E11,8.679693E11,4.2255096E11,3.98073E11,4.9179053E11,7.178971E10,4.527164E11,1.3992198E10,2.7103592E10,3.275332E10,4.2106618E10,2.8160557E10,3.9516635E10,3.1723618E10,6.341578E10,4.293224E10,4.0527897E10,5.667242E10,6.875618E10,5.677436E10,8.1551426E10,5.6233034E10,1.1326508E11,9.512472E10,1.1146363E11,7.998538E10,9.200625E10,1.0611589E11,4.598635E10,1.0604459E11,0E0,0E0,5.4051996E10,1.145045E10,0E0,0E0,0E0,8.12185E10,7.587496E10,0E0,0E0,0E0,0E0,0E0,0E0,0E0,0E0,0E0,0E0,0E0,0E0,0E0,0E0,0E0,0E0,0E0,0E0,0E0,0E0,0E0,0E0,0E0,0E0,0E0,0E0,0E0,0E0,0E0,0E0,0E0,0E0,0E0,0E0,0E0,0E0,0E0,0E0,0E0,0E0,0E0,0E0,0E0,0E0,0E0,0E0,0E0,0E0,0E0,0E0,0E0,0E0,0E0,0E0],"parents":[2147483647,0,0,1,1,2,2,3,3,4,4,5,5,6,6,7,7,8,8,9,9,10,10,11,11,12,12,13,13,14,14,15,15,16,16,17,17,18,18,19,19,20,20,21,21,22,22,23,23,24,24,25,25,26,26,27,27,28,28,29,29,30,30,31,31,32,32,33,33,34,34,35,35,36,36,37,37,38,38,39,39,40,40,41,41,42,42,43,43,44,44,45,45,46,46,47,47,48,48,49,49,50,50,51,51,52,52,53,53,56,56,57,57,61,61,62,62],"right_children":[2,4,6,8,10,12,14,16,18,20,22,24,26,28,30,32,34,36,38,40,42,44,46,48,50,52,54,56,58,60,62,64,66,68,70,72,74,76,78,80,82,84,86,88,90,92,94,96,98,100,102,104,106,108,-1,-1,110,112,-1,-1,-1,114,116,-1,-1,-1,-1,-1,-1,-1,-1,-1,-1,-1,-1,-1,-1,-1,-1,-1,-1,-1,-1,-1,-1,-1,-1,-1,-1,-1,-1,-1,-1,-1,-1,-1,-1,-1,-1,-1,-1,-1,-1,-1,-1,-1,-1,-1,-1,-1,-1,-1,-1,-1,-1,-1,-1],"split_conditions":[3.469917E4,1.259275E4,7.728943E4,5.0867144E3,2.2074402E4,5.2399805E4,1.1313292E5,2.0304171E3,8.452536E3,1.6676094E4,2.7923607E4,4.258337E4,6.513144E4,9.289801E4,1.3891884E5,7.5943146E2,3.4456885E3,6.6230044E3,1.0245346E4,1.4603265E4,1.9251393E4,2.4525969E4,3.085204E4,3.831024E4,4.707988E4,5.9069098E4,7.1103336E4,8.526935E4,1.020372E5,-1.1708615E5,1.1E1,2.0412E2,1.2982142E3,2.6363115E3,4.184647E3,-5.70952E3,-7.58902E3,-9.24188E3,1.1494253E4,-1.303957E4,-1.584471E4,-1.836077E4,-2.459184E4,-1.809218E4,-2.911298E4,-1.656667E4,-2.3309E4,-4.316013E4,-4.89905E4,-4.316013E4,-2.746679E4,-5.473079E4,-5.63856E4,-4.032345E4,1.2777433E4,1.4256437E4,-4.316013E4,-2.291599E4,2.0151076E4,2.4667748E4,2.2357713E4,4.0250778E6,2.1862852E6,-3.6023865E3,-3.507282E3,-3.3853845E3,-3.2418762E3,-3.099794E3,-2.9379668E3,-2.7705334E3,-2.586868E3,-2.2380417E3,-2.4153274E3,-1.8411356E3,-2.0436035E3,-1.4524772E3,-1.6510951E3,-1.2112009E3,-9.41277E2,-4.9785043E2,-7.614897E2,-1.0066545E1,-2.7682935E2,5.378287E2,2.3346243E2,1.4256602E3,8.90063E2,1.5930807E3,9.5201263E2,2.6226174E3,2.0814866E3,2.9169402E3,1.7382816E3,3.7044758E3,2.4772688E3,5.293206E3,4.3423354E3,6.371247E3,5.243944E3,6.5095537E3,5.8847935E3,7.41804E3,5.429384E3,8.987956E3,8.26829E3,1.0239792E4,9.332168E3,1.1504017E4,8.1429453E3,1.6052112E4,1.1336753E4,1.7985756E4,1.1710065E4,2.4393193E4,3.0739295E4,2.1359188E4,3.466863E4],"split_indices":[9,9,9,9,9,9,9,9,9,9,9,9,9,9,9,9,9,9,9,9,9,9,9,9,9,9,9,9,9,3,7,9,9,9,9,3,3,3,9,3,3,3,3,3,3,3,3,3,3,3,3,3,3,3,0,0,3,3,0,0,0,10,10,0,0,0,0,0,0,0,0,0,0,0,0,0,0,0,0,0,0,0,0,0,0,0,0,0,0,0,0,0,0,0,0,0,0,0,0,0,0,0,0,0,0,0,0,0,0,0,0,0,0,0,0,0,0],"split_type":[0,0,0,0,0,0,0,0,0,0,0,0,0,0,0,0,0,0,0,0,0,0,0,0,0,0,0,0,0,0,0,0,0,0,0,0,0,0,0,0,0,0,0,0,0,0,0,0,0,0,0,0,0,0,0,0,0,0,0,0,0,0,0,0,0,0,0,0,0,0,0,0,0,0,0,0,0,0,0,0,0,0,0,0,0,0,0,0,0,0,0,0,0,0,0,0,0,0,0,0,0,0,0,0,0,0,0,0,0,0,0,0,0,0,0,0,0],"sum_hessian":[1.63749E5,1.40564E5,2.3185E4,1.00833E5,3.9731E4,1.8737E4,4.448E3,6.383E4,3.7003E4,2.4321E4,1.541E4,1.1593E4,7.144E3,3.206E3,1.242E3,3.6466E4,2.7364E4,1.9747E4,1.7256E4,1.2228E4,1.2093E4,8.35E3,7.06E3,6.441E3,5.152E3,4.536E3,2.608E3,1.922E3,1.284E3,6.19E2,6.23E2,2.1079E4,1.5387E4,1.4006E4,1.3358E4,9.648E3,1.0099E4,8.287E3,8.969E3,6.452E3,5.776E3,6.363E3,5.73E3,3.825E3,4.525E3,3.197E3,3.863E3,3.198E3,3.243E3,2.585E3,2.567E3,2.647E3,1.889E3,1.297E3,1.311E3,1.285E3,6.37E2,6.31E2,6.53E2,4.05E2,2.14E2,4.22E2,2.01E2,1.0844E4,1.0235E4,7.055E3,8.332E3,6.372E3,7.634E3,6.358E3,7E3,4.889E3,4.759E3,4.575E3,5.524E3,4.234E3,4.053E3,5.156E3,3.813E3,3.869E3,2.583E3,2.545E3,3.231E3,2.561E3,3.802E3,6.83E2,5.047E3,3.435E3,3.9E2,8.85E2,3.64E3,3.087E3,1.1E2,3.656E3,2.07E2,3.15E2,2.883E3,2.62E2,2.981E3,1.588E3,9.97E2,2.494E3,7.3E1,1.441E3,1.206E3,1.574E3,3.15E2,1.262E3,3.5E1,6.2E2,1.7E1,6.23E2,8E0,2.9E1,3.93E2,7E0,1.94E2],"tree_param":{"num_deleted":"0","num_feature":"12","num_nodes":"117","size_leaf_vector":"1"}},{"base_weights":[-8.393607E0,-3.1199557E4,1.8423334E5,-5.082832E4,1.8534535E4,1.3986012E5,3.7467478E5,-6.077827E4,-3.379813E4,1.2849059E3,4.5928402E4,1.0759939E5,1.959274E5,3.1330397E5,5.284578E5,-6.558345E4,-5.42596E4,-4.0935957E4,-2.5629969E4,-7.916322E3,1.1491782E4,3.3947195E4,6.0124707E4,9.161875E4,1.29756625E5,1.7249133E5,2.2410403E5,2.82092E5,3.6010875E5,4.5390672E5,6.001181E5,-6.756757E4,-6.285721E4,-5.737281E4,-5.112282E4,-4.4358387E4,-3.73109E4,-2.9983701E4,-2.1596018E4,-1.2826632E4,-3.8428296E3,6.2309507E3,1.6812164E4,2.8412297E4,4.045959E4,5.3728805E4,6.773368E4,8.158968E4,9.998246E4,1.1922369E5,1.4030892E5,1.610552E5,1.8342338E5,2.116298E5,2.427911E5,2.7068097E5,3.0365294E5,3.385458E5,1.9009783E4,2.1216574E4,2.3460832E4,5.6905325E5,6.574239E5,-3.4199395E3,-3.3285266E3,-3.2104226E3,-3.0751536E3,-2.944987E3,-2.7989949E3,-2.6374773E3,-2.464753E3,-2.2968872E3,-2.1152507E3,-1.9540176E3,-1.7668922E3,-1.4188729E3,-1.616334E3,-9.5618744E2,-1.209245E3,-4.4116318E2,-7.107294E2,-3.2771204E2,-5.11316E1,2.549606E2,6.765219E2,7.851897E2,1.304962E3,8.14502E2,1.4800332E3,1.9292682E3,2.455359E3,2.5791821E3,3.139763E3,3.3189617E3,4.3889033E3,2.7370378E3,4.1250615E3,5.3613447E3,4.707456E3,4.7955425E3,6.0404277E3,5.221784E3,7.0813203E3,7.9794194E3,9.837244E3,1.0785729E4,9.083728E3,7.612402E3,1.0655338E4,1.2418843E4,1.1686291E4,1.0534221E4,1.3581005E4,1.102337E4,1.5249386E4,1.0399159E4,1.6973768E4,1.9557725E4,2.8706832E4,2.9793123E4,3.457592E4],"categories":[],"categories_nodes":[],"categories_segments":[],"categories_sizes":[],"default_left":[0,0,0,0,0,0,0,0,0,0,0,0,0,0,0,0,0,0,0,0,0,0,0,0,0,0,0,0,0,0,0,0,0,0,0,0,0,0,0,0,0,0,0,0,0,0,0,0,0,0,0,0,0,0,0,0,0,0,0,0,0,0,0,0,0,0,0,0,0,0,0,0,0,0,0,0,0,0,0,0,0,0,0,0,0,0,0,0,0,0,0,0,0,0,0,0,0,0,0,0,0,0,0,0,0,0,0,0,0,0,0,0,0,0,0,0,0,0,0,0,0],"id":10,"left_children":[1,3,5,7,9,11,13,15,17,19,21,23,25,27,29,31,33,35,37,39,41,43,45,47,49,51,53,55,57,59,61,63,65,67,69,71,73,75,77,79,81,83,85,87,89,91,93,95,97,99,101,103,105,107,109,111,113,115,-1,-1,-1,117,119,-1,-1,-1,-1,-1,-1,-1,-1,-1,-1,-1,-1,-1,-1,-1,-1,-1,-1,-1,-1,-1,-1,-1,-1,-1,-1,-1,-1,-1,-1,-1,-1,-1,-1,-1,-1,-1,-1,-1,-1,-1,-1,-1,-1,-1,-1,-1,-1,-1,-1,-1,-1,-1,-1,-1,-1,-1,-1],"loss_changes":[9.40059E14,1.3657199E14,2.000893E14,1.699527E13,1.8707565E13,3.4725415E13,4.20686E13,1.9796779E12,2.155868E12,2.2816812E12,2.59981E12,4.3065604E12,4.5937024E12,4.574677E12,6.5390877E12,1.9287088E11,2.594932E11,2.4326334E11,3.023978E11,2.5551766E11,3.222801E11,2.9795497E11,3.370228E11,5.8647275E11,5.510141E11,4.4979716E11,6.9036566E11,3.9142923E11,4.2439646E11,8.570641E10,7.776911E11,1.2918456E10,2.416758E10,2.5371345E10,3.7226545E10,3.0968644E10,3.2110543E10,3.0303322E10,5.688525E10,3.2063291E10,5.3405606E10,4.7787622E10,5.8530595E10,6.418491E10,5.9855864E10,7.082187E10,8.085989E10,7.450971E10,1.5306693E11,8.311013E10,1.0553708E11,6.7121447E10,7.110184E10,1.3559346E11,6.098518E9,1.4227079E10,5.821694E9,5.2344914E9,0E0,0E0,0E0,1.6157298E11,5.181643E10,0E0,0E0,0E0,0E0,0E0,0E0,0E0,0E0,0E0,0E0,0E0,0E0,0E0,0E0,0E0,0E0,0E0,0E0,0E0,0E0,0E0,0E0,0E0,0E0,0E0,0E0,0E0,0E0,0E0,0E0,0E0,0E0,0E0,0E0,0E0,0E0,0E0,0E0,0E0,0E0,0E0,0E0,0E0,0E0,0E0,0E0,0E0,0E0,0E0,0E0,0E0,0E0,0E0,0E0,0E0,0E0,0E0,0E0],"parents":[2147483647,0,0,1,1,2,2,3,3,4,4,5,5,6,6,7,7,8,8,9,9,10,10,11,11,12,12,13,13,14,14,15,15,16,16,17,17,18,18,19,19,20,20,21,21,22,22,23,23,24,24,25,25,26,26,27,27,28,28,29,29,30,30,31,31,32,32,33,33,34,34,35,35,36,36,37,37,38,38,39,39,40,40,41,41,42,42,43,43,44,44,45,45,46,46,47,47,48,48,49,49,50,50,51,51,52,52,53,53,54,54,55,55,56,56,57,57,61,61,62,62],"right_children":[2,4,6,8,10,12,14,16,18,20,22,24,26,28,30,32,34,36,38,40,42,44,46,48,50,52,54,56,58,60,62,64,66,68,70,72,74,76,78,80,82,84,86,88,90,92,94,96,98,100,102,104,106,108,110,112,114,116,-1,-1,-1,118,120,-1,-1,-1,-1,-1,-1,-1,-1,-1,-1,-1,-1,-1,-1,-1,-1,-1,-1,-1,-1,-1,-1,-1,-1,-1,-1,-1,-1,-1,-1,-1,-1,-1,-1,-1,-1,-1,-1,-1,-1,-1,-1,-1,-1,-1,-1,-1,-1,-1,-1,-1,-1,-1,-1,-1,-1,-1,-1],"split_conditions":[2.3843592E5,8.67978E4,5.41026E5,3.500876E4,1.5208216E5,3.6679862E5,7.919305E5,1.421292E4,5.835802E4,1.1668908E5,1.9171981E5,2.9808362E5,4.4061188E5,6.5028606E5,9.7243194E5,5.31602E3,2.360621E4,4.636103E4,7.062115E4,9.938148E4,1.327353E5,1.7168178E5,2.1596428E5,2.623003E5,3.2955916E5,3.9989828E5,4.9772334E5,5.9688544E5,7.1426044E5,1.1708615E5,1.1E1,1.6104E3,9.46868E3,1.845418E4,2.929253E4,4.101486E4,5.24084E4,-8.84116E3,-1.108615E4,-1.448596E4,1.538705E4,2.076242E4,2.459184E4,1.757758E4,2.911298E4,3.222309E4,4.218089E4,2.3309E4,-4.032345E4,3.355236E4,2.971201E4,7.510975E4,-7.510975E4,3.777857E4,-7.212987E4,4.659562E4,3.699912E4,2.212701E4,1.9009783E4,2.1216574E4,2.3460832E4,7.510975E4,1.3416925E5,-3.4199395E3,-3.3285266E3,-3.2104226E3,-3.0751536E3,-2.944987E3,-2.7989949E3,-2.6374773E3,-2.464753E3,-2.2968872E3,-2.1152507E3,-1.9540176E3,-1.7668922E3,-1.4188729E3,-1.616334E3,-9.5618744E2,-1.209245E3,-4.4116318E2,-7.107294E2,-3.2771204E2,-5.11316E1,2.549606E2,6.765219E2,7.851897E2,1.304962E3,8.14502E2,1.4800332E3,1.9292682E3,2.455359E3,2.5791821E3,3.139763E3,3.3189617E3,4.3889033E3,2.7370378E3,4.1250615E3,5.3613447E3,4.707456E3,4.7955425E3,6.0404277E3,5.221784E3,7.0813203E3,7.9794194E3,9.837244E3,1.0785729E4,9.083728E3,7.612402E3,1.0655338E4,1.2418843E4,1.1686291E4,1.0534221E4,1.3581005E4,1.102337E4,1.5249386E4,1.0399159E4,1.6973768E4,1.9557725E4,2.8706832E4,2.9793123E4,3.457592E4],"split_indices":[8,8,8,8,8,8,8,8,8,8,8,8,8,8,8,8,8,8,8,8,8,8,8,8,8,8,8,8,8,0,7,8,8,8,8,8,8,3,3,3,0,0,0,0,0,0,0,0,3,0,0,0,3,0,3,0,0,0,0,0,0,0,11,0,0,0,0,0,0,0,0,0,0,0,0,0,0,0,0,0,0,0,0,0,0,0,0,0,0,0,0,0,0,0,0,0,0,0,0,0,0,0,0,0,0,0,0,0,0,0,0,0,0,0,0,0,0,0,0,0,0],"split_type":[0,0,0,0,0,0,0,0,0,0,0,0,0,0,0,0,0,0,0,0,0,0,0,0,0,0,0,0,0,0,0,0,0,0,0,0,0,0,0,0,0,0,0,0,0,0,0,0,0,0,0,0,0,0,0,0,0,0,0,0,0,0,0,0,0,0,0,0,0,0,0,0,0,0,0,0,0,0,0,0,0,0,0,0,0,0,0,0,0,0,0,0,0,0,0,0,0,0,0,0,0,0,0,0,0,0,0,0,0,0,0,0,0,0,0,0,0,0,0,0,0],"sum_hessian":[1.6358E5,1.39897E5,2.3683E4,1.00308E5,3.9589E4,1.9209E4,4.474E3,6.3314E4,3.6994E4,2.4293E4,1.5296E4,1.2195E4,7.014E3,3.2E3,1.274E3,3.6442E4,2.6872E4,1.974E4,1.7254E4,1.2776E4,1.1517E4,8.297E3,6.999E3,7.088E3,5.107E3,3.833E3,3.181E3,1.924E3,1.276E3,6.28E2,6.46E2,2.1078E4,1.5364E4,1.3478E4,1.3394E4,1.0148E4,9.592E3,8.295E3,8.959E3,5.792E3,6.984E3,5.792E3,5.725E3,4.488E3,3.809E3,3.807E3,3.192E3,3.228E3,3.86E3,2.562E3,2.545E3,1.881E3,1.952E3,1.915E3,1.266E3,1.267E3,6.57E2,6.24E2,6.52E2,2.24E2,4.04E2,4.26E2,2.2E2,1.1458E4,9.62E3,7.667E3,7.697E3,6.41E3,7.068E3,7.072E3,6.322E3,5.724E3,4.424E3,5.047E3,4.545E3,4.929E3,3.366E3,4.587E3,4.372E3,1.493E3,4.299E3,3.56E3,3.424E3,5.016E3,7.76E2,5.117E3,6.08E2,4.02E2,4.086E3,3.135E3,6.74E2,3.084E3,7.23E2,2.994E3,1.98E2,1.08E2,3.12E3,1.714E3,2.146E3,1.67E2,2.395E3,9.3E1,2.452E3,1.812E3,6.9E1,9.4E1,1.858E3,4.9E1,1.866E3,7.67E2,4.99E2,2.3E1,1.244E3,1.3E1,6.44E2,6E0,6.18E2,1.4E1,4.12E2,8.5E1,1.35E2],"tree_param":{"num_deleted":"0","num_feature":"12","num_nodes":"121","size_leaf_vector":"1"}},{"base_weights":[8.036801E1,-2.7758082E4,1.8792683E5,-4.701001E4,2.4547979E4,1.5006145E5,3.9748428E5,-5.6828824E4,-2.8691812E4,7.4822944E3,5.424831E4,1.1651957E5,2.1064103E5,3.5233275E5,5.744449E5,-6.1650844E4,-4.9494727E4,-3.5579285E4,-1.98832E4,-1.143612E3,1.9426295E4,4.2685164E4,6.8156766E4,9.8710375E4,1.3906192E5,1.8804386E5,2.4436106E5,3.2521816E5,4.32836E5,2.9780094E4,2.6021686E4,-6.3645145E4,-5.8081242E4,-5.251247E4,-4.6167297E4,-3.917986E4,-3.1924617E4,-2.3593818E4,-1.5185216E4,-6.3397036E3,4.0313306E3,1.4046248E4,2.4836408E4,3.7464887E4,4.997356E4,6.1577945E4,7.473067E4,8.954258E4,1.0759734E5,1.2766565E5,1.5053414E5,1.7428211E5,2.012544E5,2.3030116E5,2.581202E5,3.05357E5,1.8180959E4,1.6919342E4,4.3689306E5,-3.2276199E3,-3.0943835E3,-2.9616975E3,-2.8290703E3,-2.7087566E3,-2.5565142E3,-2.401643E3,-2.2323923E3,-1.855002E3,-2.0367538E3,-1.7072174E3,-1.5082675E3,-1.2963524E3,-1.0737504E3,-8.5057196E2,-6.041469E2,-1.9564566E2,-4.5443918E2,3.6778998E2,7.611701E1,2.8570505E2,7.5975024E2,1.1405967E3,1.5717529E3,1.1860911E3,1.9301904E3,2.4395146E3,3.3280286E3,2.2672117E3,3.1451414E3,2.5753552E3,3.7898242E3,4.405175E3,5.50639E3,5.180269E3,5.8506553E3,6.7256274E3,6.140328E3,5.908754E3,7.594578E3,8.973142E3,8.275447E3,6.8032734E3,1.0120807E4,8.895532E3,1.155624E4,1.344355E4,1.2574288E4,1.4400372E4,1.6195726E4,2.139113E4,2.3670117E4],"categories":[],"categories_nodes":[],"categories_segments":[],"categories_sizes":[],"default_left":[0,0,0,0,0,0,0,0,0,0,0,0,0,0,0,0,0,0,0,0,0,0,0,0,0,0,0,0,0,0,0,0,0,0,0,0,0,0,0,0,0,0,0,0,0,0,0,0,0,0,0,0,0,0,0,0,0,0,0,0,0,0,0,0,0,0,0,0,0,0,0,0,0,0,0,0,0,0,0,0,0,0,0,0,0,0,0,0,0,0,0,0,0,0,0,0,0,0,0,0,0,0,0,0,0,0,0,0,0,0,0],"id":11,"left_children":[1,3,5,7,9,11,13,15,17,19,21,23,25,27,29,31,33,35,37,39,41,43,45,47,49,51,53,55,57,-1,-1,59,61,63,65,67,69,71,73,75,77,79,81,83,85,87,89,91,93,95,97,99,101,103,105,107,-1,-1,109,-1,-1,-1,-1,-1,-1,-1,-1,-1,-1,-1,-1,-1,-1,-1,-1,-1,-1,-1,-1,-1,-1,-1,-1,-1,-1,-1,-1,-1,-1,-1,-1,-1,-1,-1,-1,-1,-1,-1,-1,-1,-1,-1,-1,-1,-1,-1,-1,-1,-1,-1,-1],"loss_changes":[8.539483E14,1.4321765E14,1.6718576E14,1.8696764E13,1.9393948E13,3.6251906E13,2.5565457E13,2.3904513E12,2.2003675E12,2.5038045E12,2.2426943E12,4.600279E12,4.800968E12,5.4734325E12,4.3738202E11,2.869575E11,2.6720652E11,2.6664868E11,2.772005E11,3.7948985E11,2.9627725E11,2.8831646E11,2.6946306E11,5.137519E11,6.436411E11,6.5812824E11,4.3365748E11,1.3594243E12,9.932112E10,0E0,0E0,3.7757125E10,2.1969764E10,2.9569843E10,3.407872E10,3.1647072E10,3.8447088E10,4.341262E10,3.9616774E10,4.6944715E10,5.8968433E10,4.8843194E10,6.7145564E10,6.870532E10,5.91659E10,6.5391297E10,7.443841E10,8.414613E10,1.1029761E11,6.8316824E10,9.278639E10,5.5515808E10,1.1930278E11,1.368182E10,2.368104E10,3.1785275E11,0E0,0E0,1.1240735E9,0E0,0E0,0E0,0E0,0E0,0E0,0E0,0E0,0E0,0E0,0E0,0E0,0E0,0E0,0E0,0E0,0E0,0E0,0E0,0E0,0E0,0E0,0E0,0E0,0E0,0E0,0E0,0E0,0E0,0E0,0E0,0E0,0E0,0E0,0E0,0E0,0E0,0E0,0E0,0E0,0E0,0E0,0E0,0E0,0E0,0E0,0E0,0E0,0E0,0E0,0E0,0E0],"parents":[2147483647,0,0,1,1,2,2,3,3,4,4,5,5,6,6,7,7,8,8,9,9,10,10,11,11,12,12,13,13,14,14,15,15,16,16,17,17,18,18,19,19,20,20,21,21,22,22,23,23,24,24,25,25,26,26,27,27,28,28,31,31,32,32,33,33,34,34,35,35,36,36,37,37,38,38,39,39,40,40,41,41,42,42,43,43,44,44,45,45,46,46,47,47,48,48,49,49,50,50,51,51,52,52,53,53,54,54,55,55,58,58],"right_children":[2,4,6,8,10,12,14,16,18,20,22,24,26,28,30,32,34,36,38,40,42,44,46,48,50,52,54,56,58,-1,-1,60,62,64,66,68,70,72,74,76,78,80,82,84,86,88,90,92,94,96,98,100,102,104,106,108,-1,-1,110,-1,-1,-1,-1,-1,-1,-1,-1,-1,-1,-1,-1,-1,-1,-1,-1,-1,-1,-1,-1,-1,-1,-1,-1,-1,-1,-1,-1,-1,-1,-1,-1,-1,-1,-1,-1,-1,-1,-1,-1,-1,-1,-1,-1,-1,-1,-1,-1,-1,-1,-1,-1],"split_conditions":[2.5694306E5,9.501551E4,5.9688544E5,3.950346E4,1.6858588E5,3.9989828E5,9.7243194E5,1.702475E4,6.558987E4,1.3060067E5,2.1142773E5,3.212651E5,4.9772334E5,7.919305E5,-1.4326E5,7.96138E3,2.7628E4,5.16964E4,8.045977E4,1.1169572E5,1.4762489E5,1.9171981E5,2.3415753E5,2.8597616E5,3.5783156E5,4.4061188E5,5.41026E5,7.1426044E5,8.269507E4,2.9780094E4,2.6021686E4,3.69354E3,1.299022E4,2.171488E4,3.274138E4,-6.69096E3,8.08761E3,1.029335E4,1.303957E4,-1.448596E4,-1.757758E4,1.656667E4,2.459184E4,1.890843E4,3.777857E4,2.459184E4,2.417266E4,4.900346E4,4.53737E4,-4.89905E4,3.625573E4,-5.809444E4,3.222309E4,2.911298E4,-8.269507E4,6.5028606E5,1.8180959E4,1.6919342E4,4.0250778E6,-3.2276199E3,-3.0943835E3,-2.9616975E3,-2.8290703E3,-2.7087566E3,-2.5565142E3,-2.401643E3,-2.2323923E3,-1.855002E3,-2.0367538E3,-1.7072174E3,-1.5082675E3,-1.2963524E3,-1.0737504E3,-8.5057196E2,-6.041469E2,-1.9564566E2,-4.5443918E2,3.6778998E2,7.611701E1,2.8570505E2,7.5975024E2,1.1405967E3,1.5717529E3,1.1860911E3,1.9301904E3,2.4395146E3,3.3280286E3,2.2672117E3,3.1451414E3,2.5753552E3,3.7898242E3,4.405175E3,5.50639E3,5.180269E3,5.8506553E3,6.7256274E3,6.140328E3,5.908754E3,7.594578E3,8.973142E3,8.275447E3,6.8032734E3,1.0120807E4,8.895532E3,1.155624E4,1.344355E4,1.2574288E4,1.4400372E4,1.6195726E4,2.139113E4,2.3670117E4],"split_indices":[8,8,8,8,8,8,8,8,8,8,8,8,8,8,3,8,8,8,8,8,8,8,8,8,8,8,8,8,0,0,0,8,8,8,8,3,0,0,0,3,3,0,0,0,0,0,0,0,0,3,0,3,0,0,3,8,0,0,10,0,0,0,0,0,0,0,0,0,0,0,0,0,0,0,0,0,0,0,0,0,0,0,0,0,0,0,0,0,0,0,0,0,0,0,0,0,0,0,0,0,0,0,0,0,0,0,0,0,0,0,0],"split_type":[0,0,0,0,0,0,0,0,0,0,0,0,0,0,0,0,0,0,0,0,0,0,0,0,0,0,0,0,0,0,0,0,0,0,0,0,0,0,0,0,0,0,0,0,0,0,0,0,0,0,0,0,0,0,0,0,0,0,0,0,0,0,0,0,0,0,0,0,0,0,0,0,0,0,0,0,0,0,0,0,0,0,0,0,0,0,0,0,0,0,0,0,0,0,0,0,0,0,0,0,0,0,0,0,0,0,0,0,0,0,0],"sum_hessian":[1.63297E5,1.42221E5,2.1076E4,1.03958E5,3.8263E4,1.7852E4,3.224E3,6.7679E4,3.6279E4,2.4301E4,1.3962E4,1.1492E4,6.36E3,2.571E3,6.53E2,4.0828E4,2.6851E4,2.0358E4,1.5921E4,1.4111E4,1.019E4,7.626E3,6.336E3,6.423E3,5.069E3,3.812E3,2.548E3,1.927E3,6.44E2,4.62E2,1.91E2,2.6183E4,1.4645E4,1.4073E4,1.2778E4,1.025E4,1.0108E4,8.893E3,7.028E3,7.041E3,7.07E3,5.111E3,5.079E3,4.447E3,3.179E3,3.172E3,3.164E3,3.167E3,3.256E3,2.549E3,2.52E3,1.874E3,1.938E3,1.269E3,1.279E3,1.276E3,6.51E2,3E1,6.14E2,1.7245E4,8.938E3,8.259E3,6.386E3,6.371E3,7.702E3,5.722E3,7.056E3,4.396E3,5.854E3,4.461E3,5.647E3,4.227E3,4.666E3,4.421E3,2.607E3,3.741E3,3.3E3,3.04E3,4.03E3,6.2E2,4.491E3,3.89E3,1.189E3,3.42E2,4.105E3,2.971E3,2.08E2,2.42E2,2.93E3,1.41E2,3.023E3,2.965E3,2.02E2,2.295E3,9.61E2,1.047E3,1.502E3,1.05E2,2.415E3,1.166E3,7.08E2,3.6E1,1.902E3,2.3E1,1.246E3,4.73E2,8.06E2,6.68E2,6.08E2,5.02E2,1.12E2],"tree_param":{"num_deleted":"0","num_feature":"12","num_nodes":"111","size_leaf_vector":"1"}},{"base_weights":[1.1545175E2,-2.6754025E4,1.7495414E5,-4.4865465E4,2.1979281E4,1.3635664E5,3.5477697E5,-5.3986938E4,-2.7560287E4,5.462039E3,4.861076E4,1.065473E5,1.8981895E5,2.9495834E5,4.7554256E5,-5.8487035E4,-4.6869035E4,-3.4035832E4,-1.9516215E4,-2.4786907E3,1.5896768E4,3.6777055E4,6.1317277E4,9.020571E4,1.26840836E5,1.6982683E5,2.1913181E5,2.640924E5,3.26343E5,4.115494E5,5.415394E5,-6.0407727E4,-5.496007E4,-4.9469973E4,-4.356536E4,-3.7103582E4,-3.0318477E4,-2.3270582E4,-1.5475885E4,-6.8736777E3,2.2845686E3,1.1101223E4,2.069015E4,3.1977658E4,4.3327605E4,5.367139E4,6.755447E4,8.171389E4,9.86165E4,1.1626609E5,1.37354E5,1.5839762E5,1.812389E5,2.0728747E5,2.311189E5,2.5485728E5,1.3946069E4,3.0619888E5,3.450333E5,1.9274412E4,2.128975E4,5.2108775E5,3.0282373E4,-3.0640234E3,-2.931841E3,-2.8022327E3,-2.6771047E3,-2.5524922E3,-2.400151E3,-2.2500364E3,-2.0953591E3,-1.9483225E3,-1.7665211E3,-1.5959946E3,-1.4174177E3,-1.2180472E3,-9.80685E2,-6.4973035E2,-8.8008905E2,-3.9028857E2,-2.3230982E1,-2.968539E2,1.5373088E2,2.3426582E2,6.10489E2,1.1900277E3,8.626424E2,1.5099712E3,2.0298284E3,1.1361185E3,2.205155E3,1.8425791E3,2.7506125E3,3.284666E3,4.0647188E3,2.9375732E3,4.144973E3,4.8487397E3,6.0978384E3,2.592561E3,5.841349E3,6.5218384E3,7.1620073E3,5.0964927E3,7.9589507E3,8.992729E3,1.1115902E4,7.890883E3,1.0411871E4,8.352487E3,1.1589728E4,1.0162568E4,1.2869587E4,9.56374E3,1.5359716E4,1.2235936E4,1.7326357E4,2.697288E4,2.3366967E4],"categories":[],"categories_nodes":[],"categories_segments":[],"categories_sizes":[],"default_left":[0,0,0,0,0,0,0,0,0,0,0,0,0,0,0,0,0,0,0,0,0,0,0,0,0,0,0,0,0,0,0,0,0,0,0,0,0,0,0,0,0,0,0,0,0,0,0,0,0,0,0,0,0,0,0,0,0,0,0,0,0,0,0,0,0,0,0,0,0,0,0,0,0,0,0,0,0,0,0,0,0,0,0,0,0,0,0,0,0,0,0,0,0,0,0,0,0,0,0,0,0,0,0,0,0,0,0,0,0,0,0,0,0,0,0,0,0,0,0],"id":12,"left_children":[1,3,5,7,9,11,13,15,17,19,21,23,25,27,29,31,33,35,37,39,41,43,45,47,49,51,53,55,57,59,61,63,65,67,69,71,73,75,77,79,81,83,85,87,89,91,93,95,97,99,101,103,105,107,109,111,-1,113,115,-1,-1,117,-1,-1,-1,-1,-1,-1,-1,-1,-1,-1,-1,-1,-1,-1,-1,-1,-1,-1,-1,-1,-1,-1,-1,-1,-1,-1,-1,-1,-1,-1,-1,-1,-1,-1,-1,-1,-1,-1,-1,-1,-1,-1,-1,-1,-1,-1,-1,-1,-1,-1,-1,-1,-1,-1,-1,-1,-1],"loss_changes":[7.698653E14,1.2537598E14,1.5146739E14,1.634532E13,1.6929782E13,2.8624548E13,2.772284E13,2.1694282E12,1.8613881E12,1.9684464E12,2.2130742E12,3.816221E12,3.732679E12,2.41503E12,5.1661075E12,2.7809913E11,2.2358996E11,2.2470774E11,2.415075E11,2.8244253E11,2.357537E11,2.3852378E11,3.351081E11,4.4883247E11,5.561228E11,4.7071835E11,3.219464E11,1.07902665E11,3.7476106E11,7.791339E10,5.0383657E11,3.795845E10,1.9541262E10,3.1599886E10,2.5679626E10,3.444572E10,2.7360494E10,3.2469156E10,4.029874E10,4.1914794E10,4.207665E10,3.6457873E10,5.446828E10,6.6332918E10,5.0514625E10,7.005117E10,9.459414E10,8.194412E10,1.1113438E11,8.686613E10,8.615939E10,6.8534927E10,6.857687E10,2.916719E10,1.6949182E10,5.4546924E10,0E0,1.2511609E10,1.3212058E10,0E0,0E0,2.2280982E11,0E0,0E0,0E0,0E0,0E0,0E0,0E0,0E0,0E0,0E0,0E0,0E0,0E0,0E0,0E0,0E0,0E0,0E0,0E0,0E0,0E0,0E0,0E0,0E0,0E0,0E0,0E0,0E0,0E0,0E0,0E0,0E0,0E0,0E0,0E0,0E0,0E0,0E0,0E0,0E0,0E0,0E0,0E0,0E0,0E0,0E0,0E0,0E0,0E0,0E0,0E0,0E0,0E0,0E0,0E0,0E0,0E0],"parents":[2147483647,0,0,1,1,2,2,3,3,4,4,5,5,6,6,7,7,8,8,9,9,10,10,11,11,12,12,13,13,14,14,15,15,16,16,17,17,18,18,19,19,20,20,21,21,22,22,23,23,24,24,25,25,26,26,27,27,28,28,29,29,30,30,31,31,32,32,33,33,34,34,35,35,36,36,37,37,38,38,39,39,40,40,41,41,42,42,43,43,44,44,45,45,46,46,47,47,48,48,49,49,50,50,51,51,52,52,53,53,54,54,55,55,57,57,58,58,61,61],"right_children":[2,4,6,8,10,12,14,16,18,20,22,24,26,28,30,32,34,36,38,40,42,44,46,48,50,52,54,56,58,60,62,64,66,68,70,72,74,76,78,80,82,84,86,88,90,92,94,96,98,100,102,104,106,108,110,112,-1,114,116,-1,-1,118,-1,-1,-1,-1,-1,-1,-1,-1,-1,-1,-1,-1,-1,-1,-1,-1,-1,-1,-1,-1,-1,-1,-1,-1,-1,-1,-1,-1,-1,-1,-1,-1,-1,-1,-1,-1,-1,-1,-1,-1,-1,-1,-1,-1,-1,-1,-1,-1,-1,-1,-1,-1,-1,-1,-1,-1,-1],"split_conditions":[2.5227025E5,9.367227E4,5.656938E5,3.950346E4,1.6246306E5,3.8823906E5,7.919305E5,1.749593E4,6.465952E4,1.2695959E5,2.0311352E5,3.1311222E5,4.753177E5,6.5028606E5,9.7243194E5,8.33395E3,2.872733E4,5.24084E4,7.820866E4,1.1005002E5,1.432081E5,1.8462284E5,2.2472581E5,2.7975953E5,3.4844044E5,4.2736584E5,5.19916E5,8.780887E4,7.1426044E5,1.1708615E5,1.2E1,3.96901E3,1.341155E4,2.265696E4,4.87787E3,6.45704E3,8.45637E3,1.14173E4,-1.229053E4,1.757758E4,1.324464E4,1.633255E4,-2.1407E4,2.801298E4,1.656667E4,2.3309E4,3.945519E4,2.695058E4,5.322407E4,1.384065E4,5.171544E4,2.459184E4,8.780887E4,3.945519E4,3.699912E4,4.780254E4,1.3946069E4,2.291599E4,5.171544E4,1.9274412E4,2.128975E4,-1.4326E5,3.0282373E4,-3.0640234E3,-2.931841E3,-2.8022327E3,-2.6771047E3,-2.5524922E3,-2.400151E3,-2.2500364E3,-2.0953591E3,-1.9483225E3,-1.7665211E3,-1.5959946E3,-1.4174177E3,-1.2180472E3,-9.80685E2,-6.4973035E2,-8.8008905E2,-3.9028857E2,-2.3230982E1,-2.968539E2,1.5373088E2,2.3426582E2,6.10489E2,1.1900277E3,8.626424E2,1.5099712E3,2.0298284E3,1.1361185E3,2.205155E3,1.8425791E3,2.7506125E3,3.284666E3,4.0647188E3,2.9375732E3,4.144973E3,4.8487397E3,6.0978384E3,2.592561E3,5.841349E3,6.5218384E3,7.1620073E3,5.0964927E3,7.9589507E3,8.992729E3,1.1115902E4,7.890883E3,1.0411871E4,8.352487E3,1.1589728E4,1.0162568E4,1.2869587E4,9.56374E3,1.5359716E4,1.2235936E4,1.7326357E4,2.697288E4,2.3366967E4],"split_indices":[8,8,8,8,8,8,8,8,8,8,8,8,8,8,8,8,8,8,8,8,8,8,8,8,8,8,8,0,8,0,7,8,8,8,0,0,0,0,3,0,0,0,3,0,0,0,0,0,0,0,0,0,0,0,0,0,0,0,0,0,0,3,0,0,0,0,0,0,0,0,0,0,0,0,0,0,0,0,0,0,0,0,0,0,0,0,0,0,0,0,0,0,0,0,0,0,0,0,0,0,0,0,0,0,0,0,0,0,0,0,0,0,0,0,0,0,0,0,0],"split_type":[0,0,0,0,0,0,0,0,0,0,0,0,0,0,0,0,0,0,0,0,0,0,0,0,0,0,0,0,0,0,0,0,0,0,0,0,0,0,0,0,0,0,0,0,0,0,0,0,0,0,0,0,0,0,0,0,0,0,0,0,0,0,0,0,0,0,0,0,0,0,0,0,0,0,0,0,0,0,0,0,0,0,0,0,0,0,0,0,0,0,0,0,0,0,0,0,0,0,0,0,0,0,0,0,0,0,0,0,0,0,0,0,0,0,0,0,0,0,0],"sum_hessian":[1.63875E5,1.42046E5,2.1829E4,1.03559E5,3.8487E4,1.7973E4,3.856E3,6.7813E4,3.5746E4,2.3755E4,1.4732E4,1.1541E4,6.432E3,2.581E3,1.275E3,4.1542E4,2.6271E4,1.9802E4,1.5944E4,1.349E4,1.0265E4,7.63E3,7.102E3,6.396E3,5.145E3,3.828E3,2.604E3,1.306E3,1.275E3,6.51E2,6.24E2,2.6885E4,1.4657E4,1.4691E4,1.158E4,1.0844E4,8.958E3,8.262E3,7.682E3,7.016E3,6.474E3,5.133E3,5.132E3,4.407E3,3.223E3,3.195E3,3.907E3,3.188E3,3.208E3,2.571E3,2.574E3,1.92E3,1.908E3,1.319E3,1.285E3,8.16E2,4.9E2,6.22E2,6.53E2,2.4E2,4.11E2,4.8E2,1.44E2,1.7987E4,8.898E3,8.283E3,6.374E3,7.057E3,7.634E3,6.193E3,5.387E3,5.278E3,5.566E3,4.933E3,4.025E3,6.36E3,1.902E3,3.548E3,4.134E3,6.125E3,8.91E2,5.67E2,5.907E3,7.57E2,4.376E3,2.691E3,2.441E3,3.657E3,7.5E2,1.18E2,3.105E3,2.38E2,2.957E3,3.446E3,4.61E2,1.59E2,3.029E3,3.002E3,2.06E2,2.3E1,2.548E3,1.194E3,1.38E3,2.8E1,1.892E3,1.851E3,5.7E1,2.8E1,1.291E3,1.6E1,1.269E3,4.2E1,7.74E2,7E0,6.15E2,1.2E1,6.41E2,3.51E2,1.29E2],"tree_param":{"num_deleted":"0","num_feature":"12","num_nodes":"119","size_leaf_vector":"1"}},{"base_weights":[1.2989635E1,-2.497892E4,1.6875875E5,-4.221211E4,2.2776588E4,1.3151628E5,3.3684134E5,-5.1184414E4,-2.5369494E4,7.7373003E3,4.9879773E4,1.03077766E5,1.8032534E5,2.7999672E5,4.5256738E5,-5.5466785E4,-4.425075E4,-3.1465611E4,-1.7056652E4,-2.3522832E2,1.8708814E4,4.0359203E4,6.2590527E4,8.904967E4,1.2306288E5,1.6148302E5,2.0851788E5,2.5104152E5,3.0950794E5,3.8858644E5,5.167455E5,-5.737967E4,-5.2114277E4,-4.6870203E4,-4.1229523E4,-3.463195E4,-2.7701293E4,-2.0214787E4,-1.26554E4,-4.4616323E3,4.828039E3,1.4401352E4,2.423455E4,3.476978E4,4.5997887E4,6.919689E4,5.749045E4,8.0998984E4,9.70351E4,1.1531441E5,1.3305169E5,1.5081525E5,1.7220067E5,1.9782245E5,2.192091E5,2.422117E5,1.3246481E4,2.9386456E5,1.666558E4,2.6924575E5,3.9143822E5,4.993623E5,5.7788606E5,-2.9084016E3,-2.7808552E3,-2.661626E3,-2.5391814E3,-2.4059302E3,-2.2635642E3,-2.1341875E3,-1.9835244E3,-1.814453E3,-1.6349318E3,-1.2910172E3,-1.4708715E3,-1.1013822E3,-8.946198E2,-8.488317E2,-5.853098E2,-3.5957513E2,-1.117137E2,-2.3926506E2,2.814777E2,5.150823E2,8.2526025E2,3.9341013E2,1.2515253E3,1.6708182E3,2.2238667E3,2.1548738E3,2.586784E3,3.3862273E3,4.2063447E3,1.3364993E3,2.912287E3,3.976365E3,5.078714E3,4.771011E3,5.8283564E3,5.6882075E3,6.9628345E3,6.5878745E3,8.256138E3,6.150069E3,7.5908657E3,6.0609487E3,8.657534E3,6.026689E3,9.916786E3,8.370301E3,1.1006036E4,9.524409E3,1.2229513E4,1.4216721E4,1.5513878E4,9.358323E3,1.5809628E4,1.9174318E4,2.1369861E4,2.5800809E4,2.2438111E4,2.2702605E4,3.0417182E4],"categories":[],"categories_nodes":[],"categories_segments":[],"categories_sizes":[],"default_left":[0,0,0,0,0,0,0,0,0,0,0,0,0,0,0,0,0,0,0,0,0,0,0,0,0,0,0,0,0,0,0,0,0,0,0,0,0,0,0,0,0,0,0,0,0,0,0,0,0,0,0,0,0,0,0,0,0,0,0,0,0,0,0,0,0,0,0,0,0,0,0,0,0,0,0,0,0,0,0,0,0,0,0,0,0,0,0,0,0,0,0,0,0,0,0,0,0,0,0,0,0,0,0,0,0,0,0,0,0,0,0,0,0,0,0,0,0,0,0,0,0,0,0],"id":13,"left_children":[1,3,5,7,9,11,13,15,17,19,21,23,25,27,29,31,33,35,37,39,41,43,45,47,49,51,53,55,57,59,61,63,65,67,69,71,73,75,77,79,81,83,85,87,89,91,93,95,97,99,101,103,105,107,109,111,-1,113,-1,115,117,119,121,-1,-1,-1,-1,-1,-1,-1,-1,-1,-1,-1,-1,-1,-1,-1,-1,-1,-1,-1,-1,-1,-1,-1,-1,-1,-1,-1,-1,-1,-1,-1,-1,-1,-1,-1,-1,-1,-1,-1,-1,-1,-1,-1,-1,-1,-1,-1,-1,-1,-1,-1,-1,-1,-1,-1,-1,-1,-1,-1,-1],"loss_changes":[6.893522E14,1.1717106E14,1.3195005E14,1.5808567E13,1.538862E13,2.3943436E13,2.502909E13,2.0242718E12,1.8422453E12,2.1239687E12,1.627887E12,3.0476903E12,3.3416523E12,2.1158083E12,4.964764E12,2.675882E11,2.0435488E11,2.4907874E11,2.1361957E11,3.009829E11,2.4288245E11,2.4127E11,1.9036268E11,4.044861E11,3.3271316E11,4.0998483E11,2.4731294E11,9.537847E10,3.738467E11,1.103773E11,3.7567542E11,3.4074526E10,2.012427E10,2.5675432E10,2.5767707E10,3.5304505E10,3.0193222E10,3.73162E10,2.6179535E10,4.659626E10,4.933273E10,4.938164E10,5.809819E10,4.9412047E10,6.1559276E10,4.9434067E10,7.4206675E10,8.8816484E10,9.028449E10,7.8433485E10,5.9510882E10,3.480853E10,7.079566E10,2.6910654E10,2.2741516E10,5.2688847E10,0E0,3.2690405E10,0E0,1.0179969E10,1.2515803E10,1.8471715E11,2.216438E11,0E0,0E0,0E0,0E0,0E0,0E0,0E0,0E0,0E0,0E0,0E0,0E0,0E0,0E0,0E0,0E0,0E0,0E0,0E0,0E0,0E0,0E0,0E0,0E0,0E0,0E0,0E0,0E0,0E0,0E0,0E0,0E0,0E0,0E0,0E0,0E0,0E0,0E0,0E0,0E0,0E0,0E0,0E0,0E0,0E0,0E0,0E0,0E0,0E0,0E0,0E0,0E0,0E0,0E0,0E0,0E0,0E0,0E0,0E0,0E0],"parents":[2147483647,0,0,1,1,2,2,3,3,4,4,5,5,6,6,7,7,8,8,9,9,10,10,11,11,12,12,13,13,14,14,15,15,16,16,17,17,18,18,19,19,20,20,21,21,22,22,23,23,24,24,25,25,26,26,27,27,28,28,29,29,30,30,31,31,32,32,33,33,34,34,35,35,36,36,37,37,38,38,39,39,40,40,41,41,42,42,43,43,44,44,45,45,46,46,47,47,48,48,49,49,50,50,51,51,52,52,53,53,54,54,55,55,57,57,59,59,60,60,61,61,62,62],"right_children":[2,4,6,8,10,12,14,16,18,20,22,24,26,28,30,32,34,36,38,40,42,44,46,48,50,52,54,56,58,60,62,64,66,68,70,72,74,76,78,80,82,84,86,88,90,92,94,96,98,100,102,104,106,108,110,112,-1,114,-1,116,118,120,122,-1,-1,-1,-1,-1,-1,-1,-1,-1,-1,-1,-1,-1,-1,-1,-1,-1,-1,-1,-1,-1,-1,-1,-1,-1,-1,-1,-1,-1,-1,-1,-1,-1,-1,-1,-1,-1,-1,-1,-1,-1,-1,-1,-1,-1,-1,-1,-1,-1,-1,-1,-1,-1,-1,-1,-1,-1,-1,-1,-1],"split_conditions":[2.5694306E5,9.645538E4,5.656938E5,4.025998E4,1.7168178E5,3.8823906E5,7.919305E5,1.798444E4,6.75342E4,1.327353E5,2.1596428E5,3.212651E5,4.753177E5,6.5028606E5,9.7243194E5,8.33395E3,2.872733E4,5.398614E4,8.282875E4,1.1505349E5,1.5208216E5,1.9171981E5,-3.419674E4,2.8597616E5,3.5783156E5,4.2736584E5,5.19916E5,8.780887E4,1.0494833E5,5.322407E4,1.2E1,4.23682E3,1.341155E4,3.41252E3,4.87787E3,6.80213E3,-8.71192E3,1.093289E4,1.093289E4,1.47125E4,1.343967E4,1.922296E4,1.47125E4,3.094228E4,3.033662E4,4.900346E4,1.303957E4,4.900346E4,5.322407E4,6.18605E4,7.510975E4,4.316013E4,3.222309E4,2.3309E4,4.218089E4,4.780254E4,1.3246481E4,7.1426044E5,1.666558E4,8E0,1.3416925E5,-1.4326E5,9.054734E4,-2.9084016E3,-2.7808552E3,-2.661626E3,-2.5391814E3,-2.4059302E3,-2.2635642E3,-2.1341875E3,-1.9835244E3,-1.814453E3,-1.6349318E3,-1.2910172E3,-1.4708715E3,-1.1013822E3,-8.946198E2,-8.488317E2,-5.853098E2,-3.5957513E2,-1.117137E2,-2.3926506E2,2.814777E2,5.150823E2,8.2526025E2,3.9341013E2,1.2515253E3,1.6708182E3,2.2238667E3,2.1548738E3,2.586784E3,3.3862273E3,4.2063447E3,1.3364993E3,2.912287E3,3.976365E3,5.078714E3,4.771011E3,5.8283564E3,5.6882075E3,6.9628345E3,6.5878745E3,8.256138E3,6.150069E3,7.5908657E3,6.0609487E3,8.657534E3,6.026689E3,9.916786E3,8.370301E3,1.1006036E4,9.524409E3,1.2229513E4,1.4216721E4,1.5513878E4,9.358323E3,1.5809628E4,1.9174318E4,2.1369861E4,2.5800809E4,2.2438111E4,2.2702605E4,3.0417182E4],"split_indices":[8,8,8,8,8,8,8,8,8,8,8,8,8,8,8,8,8,8,8,8,8,8,3,8,8,8,8,0,0,0,7,8,8,0,0,0,3,0,0,0,0,0,0,0,0,0,0,0,0,0,0,0,0,0,0,0,0,8,0,6,11,3,11,0,0,0,0,0,0,0,0,0,0,0,0,0,0,0,0,0,0,0,0,0,0,0,0,0,0,0,0,0,0,0,0,0,0,0,0,0,0,0,0,0,0,0,0,0,0,0,0,0,0,0,0,0,0,0,0,0,0,0,0],"split_type":[0,0,0,0,0,0,0,0,0,0,0,0,0,0,0,0,0,0,0,0,0,0,0,0,0,0,0,0,0,0,0,0,0,0,0,0,0,0,0,0,0,0,0,0,0,0,0,0,0,0,0,0,0,0,0,0,0,0,0,0,0,0,0,0,0,0,0,0,0,0,0,0,0,0,0,0,0,0,0,0,0,0,0,0,0,0,0,0,0,0,0,0,0,0,0,0,0,0,0,0,0,0,0,0,0,0,0,0,0,0,0,0,0,0,0,0,0,0,0,0,0,0,0],"sum_hessian":[1.63457E5,1.42372E5,2.1085E4,1.04619E5,3.7753E4,1.7262E4,3.823E3,6.8256E4,3.6363E4,2.4281E4,1.3472E4,1.0909E4,6.353E3,2.566E3,1.257E3,4.2191E4,2.6065E4,2.0977E4,1.5386E4,1.4063E4,1.0218E4,7.705E3,5.767E3,6.413E3,4.496E3,3.812E3,2.541E3,1.3E3,1.266E3,6.33E2,6.24E2,2.6853E4,1.5338E4,1.3953E4,1.2112E4,1.1389E4,9.588E3,8.956E3,6.43E3,7.665E3,6.398E3,5.744E3,4.474E3,3.873E3,3.832E3,2.507E3,3.26E3,3.199E3,3.214E3,2.539E3,1.957E3,1.918E3,1.894E3,1.28E3,1.261E3,8.06E2,4.94E2,7.72E2,4.94E2,1.7E1,6.16E2,4.93E2,1.31E2,1.8532E4,8.321E3,8.313E3,7.025E3,7.819E3,6.134E3,6.253E3,5.859E3,6.123E3,5.266E3,4.582E3,5.006E3,5.025E3,3.931E3,1.155E3,5.275E3,3.443E3,4.222E3,4.92E2,5.906E3,1.95E3,3.794E3,2.08E2,4.266E3,3.403E3,4.7E2,2.551E3,1.281E3,2.287E3,2.2E2,7.9E1,3.181E3,2.99E3,2.09E2,2.974E3,2.4E2,2.39E3,1.49E2,1.886E3,7.1E1,7.1E1,1.847E3,3.7E1,1.857E3,1E1,1.27E3,2.5E1,1.236E3,3.9E1,7.67E2,5E2,2.72E2,8E0,9E0,5.14E2,1.02E2,3.64E2,1.29E2,2.9E1,1.02E2],"tree_param":{"num_deleted":"0","num_feature":"12","num_nodes":"123","size_leaf_vector":"1"}},{"base_weights":[1.5590013E2,-2.3754594E4,1.6101938E5,-4.0092855E4,2.1636201E4,1.2878022E5,3.4034106E5,-4.849599E4,-2.3858627E4,6.87205E3,4.6451273E4,9.988938E4,1.8072047E5,3.0202503E5,4.9644816E5,-5.2698605E4,-4.1897332E4,-2.96722E4,-1.6220825E4,-5.7744293E2,1.665744E4,3.6445344E4,5.832931E4,8.6174555E4,1.2134117E5,1.5692136E5,2.0401606E5,2.781591E5,3.7175216E5,4.7474E5,5.6467206E5,-5.451224E4,-4.9508953E4,-4.4391266E4,-3.8863863E4,-3.2695605E4,-2.6272072E4,-1.9201297E4,-1.2041945E4,-4.5964487E3,3.8389094E3,1.257021E4,2.1991861E4,4.210304E4,3.1299434E4,5.267117E4,6.462278E4,7.8359266E4,9.560428E4,1.13928914E5,1.3087899E5,1.5047873E5,1.687404E5,1.9310973E5,2.2030631E5,2.9876225E5,2.5247033E5,3.46036E5,1.9264084E4,1.4544236E4,4.787639E5,2.1727537E4,2.9771729E4,-2.7674763E3,-2.6497122E3,-2.531231E3,-2.4126677E3,-2.2868904E3,-2.1462834E3,-2.0045029E3,-1.8549781E3,-1.7024598E3,-1.5345137E3,-1.2247434E3,-1.3931409E3,-1.0897891E3,-8.8643585E2,-6.4280316E2,-3.2232898E2,-2.7333786E2,7.653817E1,1.4566673E2,5.303725E2,4.4542877E2,7.4265784E2,1.0380988E3,1.5689816E3,1.913243E3,2.2915393E3,1.0546743E3,1.6380697E3,1.1140747E3,2.6750718E3,3.1352507E3,3.766877E3,3.8436802E3,4.891419E3,3.729621E3,4.8560215E3,4.0166719E3,5.7487144E3,5.200596E3,6.600521E3,7.2067417E3,7.843398E3,1.0073175E4,8.238591E3,9.386178E3,1.0180889E4,1.0653405E4,1.1361295E4,1.4061804E4,1.5714022E4,1.0039743E4,1.2759037E4,1.2894366E4,1.7562545E4,2.4552219E4,2.1867244E4],"categories":[],"categories_nodes":[],"categories_segments":[],"categories_sizes":[],"default_left":[0,0,0,0,0,0,0,0,0,0,0,0,0,0,0,0,0,0,0,0,0,0,0,0,0,0,0,0,0,0,0,0,0,0,0,0,0,0,0,0,0,0,0,0,0,0,0,0,0,0,0,0,0,0,0,0,0,0,0,0,0,0,0,0,0,0,0,0,0,0,0,0,0,0,0,0,0,0,0,0,0,0,0,0,0,0,0,0,0,0,0,0,0,0,0,0,0,0,0,0,0,0,0,0,0,0,0,0,0,0,0,0,0,0,0,0,0,0,0],"id":14,"left_children":[1,3,5,7,9,11,13,15,17,19,21,23,25,27,29,31,33,35,37,39,41,43,45,47,49,51,53,55,57,59,61,63,65,67,69,71,73,75,77,79,81,83,85,87,89,91,93,95,97,99,101,103,105,107,109,111,113,115,-1,-1,117,-1,-1,-1,-1,-1,-1,-1,-1,-1,-1,-1,-1,-1,-1,-1,-1,-1,-1,-1,-1,-1,-1,-1,-1,-1,-1,-1,-1,-1,-1,-1,-1,-1,-1,-1,-1,-1,-1,-1,-1,-1,-1,-1,-1,-1,-1,-1,-1,-1,-1,-1,-1,-1,-1,-1,-1,-1,-1],"loss_changes":[6.301358E14,1.0577474E14,1.225172E14,1.4306133E13,1.3830648E13,2.6949175E13,1.9170016E13,1.9142132E12,1.5879467E12,1.725462E12,1.6715329E12,3.387647E12,3.5284499E12,4.216601E12,6.723637E11,2.4149964E11,2.0172925E11,2.0793472E11,1.92361E11,2.3856887E11,2.2279016E11,2.2128728E11,2.2581294E11,5.119903E11,3.0336562E11,2.1682035E11,5.3345675E11,9.5031185E11,9.5965676E10,2.2176124E11,3.3367785E11,3.1255953E10,1.9008586E10,2.7147633E10,2.4779948E10,2.8127003E10,2.6359103E10,3.4090516E10,2.9253173E10,3.7533614E10,4.0088814E10,4.8309928E10,5.057767E10,5.031225E10,5.9111113E10,8.446909E10,5.78038E10,1.0412779E11,9.4382326E10,8.000425E10,4.5908754E10,6.1215867E10,1.1147621E11,7.214203E10,1.6345203E10,2.0262683E11,7.0472696E10,1.8360566E10,0E0,0E0,2.736364E10,0E0,0E0,0E0,0E0,0E0,0E0,0E0,0E0,0E0,0E0,0E0,0E0,0E0,0E0,0E0,0E0,0E0,0E0,0E0,0E0,0E0,0E0,0E0,0E0,0E0,0E0,0E0,0E0,0E0,0E0,0E0,0E0,0E0,0E0,0E0,0E0,0E0,0E0,0E0,0E0,0E0,0E0,0E0,0E0,0E0,0E0,0E0,0E0,0E0,0E0,0E0,0E0,0E0,0E0,0E0,0E0,0E0,0E0],"parents":[2147483647,0,0,1,1,2,2,3,3,4,4,5,5,6,6,7,7,8,8,9,9,10,10,11,11,12,12,13,13,14,14,15,15,16,16,17,17,18,18,19,19,20,20,21,21,22,22,23,23,24,24,25,25,26,26,27,27,28,28,29,29,30,30,31,31,32,32,33,33,34,34,35,35,36,36,37,37,38,38,39,39,40,40,41,41,42,42,43,43,44,44,45,45,46,46,47,47,48,48,49,49,50,50,51,51,52,52,53,53,54,54,55,55,56,56,57,57,60,60],"right_children":[2,4,6,8,10,12,14,16,18,20,22,24,26,28,30,32,34,36,38,40,42,44,46,48,50,52,54,56,58,60,62,64,66,68,70,72,74,76,78,80,82,84,86,88,90,92,94,96,98,100,102,104,106,108,110,112,114,116,-1,-1,118,-1,-1,-1,-1,-1,-1,-1,-1,-1,-1,-1,-1,-1,-1,-1,-1,-1,-1,-1,-1,-1,-1,-1,-1,-1,-1,-1,-1,-1,-1,-1,-1,-1,-1,-1,-1,-1,-1,-1,-1,-1,-1,-1,-1,-1,-1,-1,-1,-1,-1,-1,-1,-1,-1,-1,-1,-1,-1],"split_conditions":[3.6706152E4,1.377934E4,8.526935E4,5.8592656E3,2.4083695E4,5.7128324E4,1.3891884E5,2.5692058E3,9.647743E3,1.8657238E4,3.020396E4,4.707988E4,6.790252E4,1.1313292E5,1.2E1,1.1905643E3,4.184647E3,7.7123057E3,1.1832679E4,1.6196266E4,2.1396111E4,-2.695058E4,3.355236E4,4.1657348E4,5.2399805E4,6.412138E4,7.728943E4,-9.499281E4,1.1708615E5,7.510975E4,2.7164202E6,5.2764856E2,1.8859E3,3.3723157E3,5.14349E3,7.02197E3,-8.71192E3,1.01244E4,1.56152E4,1.809218E4,2.076242E4,1.922296E4,2.746679E4,2.7923607E4,1.890843E4,1.324464E4,4.218089E4,